{"learner":{"attributes":{},"feature_names":["open","high","low","close","volume","slot_count","lag_close_1","lag_close_5","lag_close_10","close_diff_1","close_diff_5","pct_change_1","pct_change_5","log_return_1","sma_close_5","sma_close_10","sma_close_20","sma_volume_5","day_of_week","hour_of_day","day_monday","day_tuesday","day_wednesday","day_thursday","day_friday","quarter_1","quarter_2","quarter_3","quarter_4","hour_early_morning","hour_mid_morning","hour_afternoon","hour_late_afternoon","previous_close","overnight_gap_pct","overnight_log_return","is_gap_up","is_gap_down","month_of_year","slot_idx","bars_seen","bars_remaining","minutes_seen","intraday_progress","cutoff_close","cutoff_high_seen","cutoff_low_seen","cutoff_volume_seen","cutoff_slot_idx","close_open_log_return","high_low_log_range","close_vs_lag_close_1","close_vs_lag_close_5","close_vs_lag_close_10","close_vs_sma_close_5","close_vs_sma_close_10","close_vs_sma_close_20","cutoff_return_from_open","cutoff_range_seen","cutoff_price_vs_prev_close","log_volume","log_slot_count","log_cutoff_volume_seen","volume_vs_sma_volume_5","close_open_log_return_mean_5d","close_open_log_return_std_5d","high_low_log_range_mean_5d","high_low_log_range_std_5d","pct_change_1_mean_5d","pct_change_1_std_5d","pct_change_5_mean_5d","pct_change_5_std_5d","log_return_1_mean_5d","log_return_1_std_5d","cutoff_return_from_open_mean_5d","cutoff_return_from_open_std_5d","cutoff_range_seen_mean_5d","cutoff_range_seen_std_5d","cutoff_price_vs_prev_close_mean_5d","cutoff_price_vs_prev_close_std_5d","cutoff_volume_seen_mean_5d","cutoff_volume_seen_std_5d","overnight_gap_pct_mean_5d","overnight_gap_pct_std_5d","overnight_log_return_mean_5d","overnight_log_return_std_5d","close_open_log_return_mean_10d","close_open_log_return_std_10d","high_low_log_range_mean_10d","high_low_log_range_std_10d","pct_change_1_mean_10d","pct_change_1_std_10d","pct_change_5_mean_10d","pct_change_5_std_10d","log_return_1_mean_10d","log_return_1_std_10d","cutoff_return_from_open_mean_10d","cutoff_return_from_open_std_10d","cutoff_range_seen_mean_10d","cutoff_range_seen_std_10d","cutoff_price_vs_prev_close_mean_10d","cutoff_price_vs_prev_close_std_10d","cutoff_volume_seen_mean_10d","cutoff_volume_seen_std_10d","overnight_gap_pct_mean_10d","overnight_gap_pct_std_10d","overnight_log_return_mean_10d","overnight_log_return_std_10d","close_open_log_return_mean_20d","close_open_log_return_std_20d","high_low_log_range_mean_20d","high_low_log_range_std_20d","pct_change_1_mean_20d","pct_change_1_std_20d","pct_change_5_mean_20d","pct_change_5_std_20d","log_return_1_mean_20d","log_return_1_std_20d","cutoff_return_from_open_mean_20d","cutoff_return_from_open_std_20d","cutoff_range_seen_mean_20d","cutoff_range_seen_std_20d","cutoff_price_vs_prev_close_mean_20d","cutoff_price_vs_prev_close_std_20d","cutoff_volume_seen_mean_20d","cutoff_volume_seen_std_20d","overnight_gap_pct_mean_20d","overnight_gap_pct_std_20d","overnight_log_return_mean_20d","overnight_log_return_std_20d","close_open_log_return_mean_60d","close_open_log_return_std_60d","high_low_log_range_mean_60d","high_low_log_range_std_60d","pct_change_1_mean_60d","pct_change_1_std_60d","pct_change_5_mean_60d","pct_change_5_std_60d","log_return_1_mean_60d","log_return_1_std_60d","cutoff_return_from_open_mean_60d","cutoff_return_from_open_std_60d","cutoff_range_seen_mean_60d","cutoff_range_seen_std_60d","cutoff_price_vs_prev_close_mean_60d","cutoff_price_vs_prev_close_std_60d","cutoff_volume_seen_mean_60d","cutoff_volume_seen_std_60d","overnight_gap_pct_mean_60d","overnight_gap_pct_std_60d","overnight_log_return_mean_60d","overnight_log_return_std_60d","cutoff_return_from_open_mean_5cut","cutoff_return_from_open_std_5cut","cutoff_range_seen_mean_5cut","cutoff_range_seen_std_5cut","cutoff_volume_seen_mean_5cut","cutoff_volume_seen_std_5cut","pct_change_1_mean_5cut","pct_change_1_std_5cut","cutoff_return_from_open_mean_10cut","cutoff_return_from_open_std_10cut","cutoff_range_seen_mean_10cut","cutoff_range_seen_std_10cut","cutoff_volume_seen_mean_10cut","cutoff_volume_seen_std_10cut","pct_change_1_mean_10cut","pct_change_1_std_10cut","cutoff_return_from_open_mean_20cut","cutoff_return_from_open_std_20cut","cutoff_range_seen_mean_20cut","cutoff_range_seen_std_20cut","cutoff_volume_seen_mean_20cut","cutoff_volume_seen_std_20cut","pct_change_1_mean_20cut","pct_change_1_std_20cut"],"feature_types":["float","float","float","float","float","int","float","float","float","float","float","float","float","float","float","float","float","float","int","int","int","int","int","int","int","int","int","int","int","int","int","int","int","float","float","float","int","int","int","int","int","int","float","float","float","float","float","float","int","float","float","float","float","float","float","float","float","float","float","float","float","float","float","float","float","float","float","float","float","float","float","float","float","float","float","float","float","float","float","float","float","float","float","float","float","float","float","float","float","float","float","float","float","float","float","float","float","float","float","float","float","float","float","float","float","float","float","float","float","float","float","float","float","float","float","float","float","float","float","float","float","float","float","float","float","float","float","float","float","float","float","float","float","float","float","float","float","float","float","float","float","float","float","float","float","float","float","float","float","float","float","float","float","float","float","float","float","float","float","float","float","float","float","float","float","float","float","float","float","float","float","float","float","float","float","float"],"gradient_booster":{"model":{"gbtree_model_param":{"num_parallel_tree":"1","num_trees":"1487"},"iteration_indptr":[0,1,2,3,4,5,6,7,8,9,10,11,12,13,14,15,16,17,18,19,20,21,22,23,24,25,26,27,28,29,30,31,32,33,34,35,36,37,38,39,40,41,42,43,44,45,46,47,48,49,50,51,52,53,54,55,56,57,58,59,60,61,62,63,64,65,66,67,68,69,70,71,72,73,74,75,76,77,78,79,80,81,82,83,84,85,86,87,88,89,90,91,92,93,94,95,96,97,98,99,100,101,102,103,104,105,106,107,108,109,110,111,112,113,114,115,116,117,118,119,120,121,122,123,124,125,126,127,128,129,130,131,132,133,134,135,136,137,138,139,140,141,142,143,144,145,146,147,148,149,150,151,152,153,154,155,156,157,158,159,160,161,162,163,164,165,166,167,168,169,170,171,172,173,174,175,176,177,178,179,180,181,182,183,184,185,186,187,188,189,190,191,192,193,194,195,196,197,198,199,200,201,202,203,204,205,206,207,208,209,210,211,212,213,214,215,216,217,218,219,220,221,222,223,224,225,226,227,228,229,230,231,232,233,234,235,236,237,238,239,240,241,242,243,244,245,246,247,248,249,250,251,252,253,254,255,256,257,258,259,260,261,262,263,264,265,266,267,268,269,270,271,272,273,274,275,276,277,278,279,280,281,282,283,284,285,286,287,288,289,290,291,292,293,294,295,296,297,298,299,300,301,302,303,304,305,306,307,308,309,310,311,312,313,314,315,316,317,318,319,320,321,322,323,324,325,326,327,328,329,330,331,332,333,334,335,336,337,338,339,340,341,342,343,344,345,346,347,348,349,350,351,352,353,354,355,356,357,358,359,360,361,362,363,364,365,366,367,368,369,370,371,372,373,374,375,376,377,378,379,380,381,382,383,384,385,386,387,388,389,390,391,392,393,394,395,396,397,398,399,400,401,402,403,404,405,406,407,408,409,410,411,412,413,414,415,416,417,418,419,420,421,422,423,424,425,426,427,428,429,430,431,432,433,434,435,436,437,438,439,440,441,442,443,444,445,446,447,448,449,450,451,452,453,454,455,456,457,458,459,460,461,462,463,464,465,466,467,468,469,470,471,472,473,474,475,476,477,478,479,480,481,482,483,484,485,486,487,488,489,490,491,492,493,494,495,496,497,498,499,500,501,502,503,504,505,506,507,508,509,510,511,512,513,514,515,516,517,518,519,520,521,522,523,524,525,526,527,528,529,530,531,532,533,534,535,536,537,538,539,540,541,542,543,544,545,546,547,548,549,550,551,552,553,554,555,556,557,558,559,560,561,562,563,564,565,566,567,568,569,570,571,572,573,574,575,576,577,578,579,580,581,582,583,584,585,586,587,588,589,590,591,592,593,594,595,596,597,598,599,600,601,602,603,604,605,606,607,608,609,610,611,612,613,614,615,616,617,618,619,620,621,622,623,624,625,626,627,628,629,630,631,632,633,634,635,636,637,638,639,640,641,642,643,644,645,646,647,648,649,650,651,652,653,654,655,656,657,658,659,660,661,662,663,664,665,666,667,668,669,670,671,672,673,674,675,676,677,678,679,680,681,682,683,684,685,686,687,688,689,690,691,692,693,694,695,696,697,698,699,700,701,702,703,704,705,706,707,708,709,710,711,712,713,714,715,716,717,718,719,720,721,722,723,724,725,726,727,728,729,730,731,732,733,734,735,736,737,738,739,740,741,742,743,744,745,746,747,748,749,750,751,752,753,754,755,756,757,758,759,760,761,762,763,764,765,766,767,768,769,770,771,772,773,774,775,776,777,778,779,780,781,782,783,784,785,786,787,788,789,790,791,792,793,794,795,796,797,798,799,800,801,802,803,804,805,806,807,808,809,810,811,812,813,814,815,816,817,818,819,820,821,822,823,824,825,826,827,828,829,830,831,832,833,834,835,836,837,838,839,840,841,842,843,844,845,846,847,848,849,850,851,852,853,854,855,856,857,858,859,860,861,862,863,864,865,866,867,868,869,870,871,872,873,874,875,876,877,878,879,880,881,882,883,884,885,886,887,888,889,890,891,892,893,894,895,896,897,898,899,900,901,902,903,904,905,906,907,908,909,910,911,912,913,914,915,916,917,918,919,920,921,922,923,924,925,926,927,928,929,930,931,932,933,934,935,936,937,938,939,940,941,942,943,944,945,946,947,948,949,950,951,952,953,954,955,956,957,958,959,960,961,962,963,964,965,966,967,968,969,970,971,972,973,974,975,976,977,978,979,980,981,982,983,984,985,986,987,988,989,990,991,992,993,994,995,996,997,998,999,1000,1001,1002,1003,1004,1005,1006,1007,1008,1009,1010,1011,1012,1013,1014,1015,1016,1017,1018,1019,1020,1021,1022,1023,1024,1025,1026,1027,1028,1029,1030,1031,1032,1033,1034,1035,1036,1037,1038,1039,1040,1041,1042,1043,1044,1045,1046,1047,1048,1049,1050,1051,1052,1053,1054,1055,1056,1057,1058,1059,1060,1061,1062,1063,1064,1065,1066,1067,1068,1069,1070,1071,1072,1073,1074,1075,1076,1077,1078,1079,1080,1081,1082,1083,1084,1085,1086,1087,1088,1089,1090,1091,1092,1093,1094,1095,1096,1097,1098,1099,1100,1101,1102,1103,1104,1105,1106,1107,1108,1109,1110,1111,1112,1113,1114,1115,1116,1117,1118,1119,1120,1121,1122,1123,1124,1125,1126,1127,1128,1129,1130,1131,1132,1133,1134,1135,1136,1137,1138,1139,1140,1141,1142,1143,1144,1145,1146,1147,1148,1149,1150,1151,1152,1153,1154,1155,1156,1157,1158,1159,1160,1161,1162,1163,1164,1165,1166,1167,1168,1169,1170,1171,1172,1173,1174,1175,1176,1177,1178,1179,1180,1181,1182,1183,1184,1185,1186,1187,1188,1189,1190,1191,1192,1193,1194,1195,1196,1197,1198,1199,1200,1201,1202,1203,1204,1205,1206,1207,1208,1209,1210,1211,1212,1213,1214,1215,1216,1217,1218,1219,1220,1221,1222,1223,1224,1225,1226,1227,1228,1229,1230,1231,1232,1233,1234,1235,1236,1237,1238,1239,1240,1241,1242,1243,1244,1245,1246,1247,1248,1249,1250,1251,1252,1253,1254,1255,1256,1257,1258,1259,1260,1261,1262,1263,1264,1265,1266,1267,1268,1269,1270,1271,1272,1273,1274,1275,1276,1277,1278,1279,1280,1281,1282,1283,1284,1285,1286,1287,1288,1289,1290,1291,1292,1293,1294,1295,1296,1297,1298,1299,1300,1301,1302,1303,1304,1305,1306,1307,1308,1309,1310,1311,1312,1313,1314,1315,1316,1317,1318,1319,1320,1321,1322,1323,1324,1325,1326,1327,1328,1329,1330,1331,1332,1333,1334,1335,1336,1337,1338,1339,1340,1341,1342,1343,1344,1345,1346,1347,1348,1349,1350,1351,1352,1353,1354,1355,1356,1357,1358,1359,1360,1361,1362,1363,1364,1365,1366,1367,1368,1369,1370,1371,1372,1373,1374,1375,1376,1377,1378,1379,1380,1381,1382,1383,1384,1385,1386,1387,1388,1389,1390,1391,1392,1393,1394,1395,1396,1397,1398,1399,1400,1401,1402,1403,1404,1405,1406,1407,1408,1409,1410,1411,1412,1413,1414,1415,1416,1417,1418,1419,1420,1421,1422,1423,1424,1425,1426,1427,1428,1429,1430,1431,1432,1433,1434,1435,1436,1437,1438,1439,1440,1441,1442,1443,1444,1445,1446,1447,1448,1449,1450,1451,1452,1453,1454,1455,1456,1457,1458,1459,1460,1461,1462,1463,1464,1465,1466,1467,1468,1469,1470,1471,1472,1473,1474,1475,1476,1477,1478,1479,1480,1481,1482,1483,1484,1485,1486,1487],"tree_info":[0,0,0,0,0,0,0,0,0,0,0,0,0,0,0,0,0,0,0,0,0,0,0,0,0,0,0,0,0,0,0,0,0,0,0,0,0,0,0,0,0,0,0,0,0,0,0,0,0,0,0,0,0,0,0,0,0,0,0,0,0,0,0,0,0,0,0,0,0,0,0,0,0,0,0,0,0,0,0,0,0,0,0,0,0,0,0,0,0,0,0,0,0,0,0,0,0,0,0,0,0,0,0,0,0,0,0,0,0,0,0,0,0,0,0,0,0,0,0,0,0,0,0,0,0,0,0,0,0,0,0,0,0,0,0,0,0,0,0,0,0,0,0,0,0,0,0,0,0,0,0,0,0,0,0,0,0,0,0,0,0,0,0,0,0,0,0,0,0,0,0,0,0,0,0,0,0,0,0,0,0,0,0,0,0,0,0,0,0,0,0,0,0,0,0,0,0,0,0,0,0,0,0,0,0,0,0,0,0,0,0,0,0,0,0,0,0,0,0,0,0,0,0,0,0,0,0,0,0,0,0,0,0,0,0,0,0,0,0,0,0,0,0,0,0,0,0,0,0,0,0,0,0,0,0,0,0,0,0,0,0,0,0,0,0,0,0,0,0,0,0,0,0,0,0,0,0,0,0,0,0,0,0,0,0,0,0,0,0,0,0,0,0,0,0,0,0,0,0,0,0,0,0,0,0,0,0,0,0,0,0,0,0,0,0,0,0,0,0,0,0,0,0,0,0,0,0,0,0,0,0,0,0,0,0,0,0,0,0,0,0,0,0,0,0,0,0,0,0,0,0,0,0,0,0,0,0,0,0,0,0,0,0,0,0,0,0,0,0,0,0,0,0,0,0,0,0,0,0,0,0,0,0,0,0,0,0,0,0,0,0,0,0,0,0,0,0,0,0,0,0,0,0,0,0,0,0,0,0,0,0,0,0,0,0,0,0,0,0,0,0,0,0,0,0,0,0,0,0,0,0,0,0,0,0,0,0,0,0,0,0,0,0,0,0,0,0,0,0,0,0,0,0,0,0,0,0,0,0,0,0,0,0,0,0,0,0,0,0,0,0,0,0,0,0,0,0,0,0,0,0,0,0,0,0,0,0,0,0,0,0,0,0,0,0,0,0,0,0,0,0,0,0,0,0,0,0,0,0,0,0,0,0,0,0,0,0,0,0,0,0,0,0,0,0,0,0,0,0,0,0,0,0,0,0,0,0,0,0,0,0,0,0,0,0,0,0,0,0,0,0,0,0,0,0,0,0,0,0,0,0,0,0,0,0,0,0,0,0,0,0,0,0,0,0,0,0,0,0,0,0,0,0,0,0,0,0,0,0,0,0,0,0,0,0,0,0,0,0,0,0,0,0,0,0,0,0,0,0,0,0,0,0,0,0,0,0,0,0,0,0,0,0,0,0,0,0,0,0,0,0,0,0,0,0,0,0,0,0,0,0,0,0,0,0,0,0,0,0,0,0,0,0,0,0,0,0,0,0,0,0,0,0,0,0,0,0,0,0,0,0,0,0,0,0,0,0,0,0,0,0,0,0,0,0,0,0,0,0,0,0,0,0,0,0,0,0,0,0,0,0,0,0,0,0,0,0,0,0,0,0,0,0,0,0,0,0,0,0,0,0,0,0,0,0,0,0,0,0,0,0,0,0,0,0,0,0,0,0,0,0,0,0,0,0,0,0,0,0,0,0,0,0,0,0,0,0,0,0,0,0,0,0,0,0,0,0,0,0,0,0,0,0,0,0,0,0,0,0,0,0,0,0,0,0,0,0,0,0,0,0,0,0,0,0,0,0,0,0,0,0,0,0,0,0,0,0,0,0,0,0,0,0,0,0,0,0,0,0,0,0,0,0,0,0,0,0,0,0,0,0,0,0,0,0,0,0,0,0,0,0,0,0,0,0,0,0,0,0,0,0,0,0,0,0,0,0,0,0,0,0,0,0,0,0,0,0,0,0,0,0,0,0,0,0,0,0,0,0,0,0,0,0,0,0,0,0,0,0,0,0,0,0,0,0,0,0,0,0,0,0,0,0,0,0,0,0,0,0,0,0,0,0,0,0,0,0,0,0,0,0,0,0,0,0,0,0,0,0,0,0,0,0,0,0,0,0,0,0,0,0,0,0,0,0,0,0,0,0,0,0,0,0,0,0,0,0,0,0,0,0,0,0,0,0,0,0,0,0,0,0,0,0,0,0,0,0,0,0,0,0,0,0,0,0,0,0,0,0,0,0,0,0,0,0,0,0,0,0,0,0,0,0,0,0,0,0,0,0,0,0,0,0,0,0,0,0,0,0,0,0,0,0,0,0,0,0,0,0,0,0,0,0,0,0,0,0,0,0,0,0,0,0,0,0,0,0,0,0,0,0,0,0,0,0,0,0,0,0,0,0,0,0,0,0,0,0,0,0,0,0,0,0,0,0,0,0,0,0,0,0,0,0,0,0,0,0,0,0,0,0,0,0,0,0,0,0,0,0,0,0,0,0,0,0,0,0,0,0,0,0,0,0,0,0,0,0,0,0,0,0,0,0,0,0,0,0,0,0,0,0,0,0,0,0,0,0,0,0,0,0,0,0,0,0,0,0,0,0,0,0,0,0,0,0,0,0,0,0,0,0,0,0,0,0,0,0,0,0,0,0,0,0,0,0,0,0,0,0,0,0,0,0,0,0,0,0,0,0,0,0,0,0,0,0,0,0,0,0,0,0,0,0,0,0,0,0,0,0,0,0,0,0,0,0,0,0,0,0,0,0,0,0,0,0,0,0,0,0,0,0,0,0,0,0,0,0,0,0,0,0,0,0,0,0,0,0,0,0,0,0,0,0,0,0,0,0,0,0,0,0,0,0,0,0,0,0,0,0,0,0,0,0,0,0,0,0,0,0,0,0,0,0,0,0,0,0,0,0,0,0,0,0,0,0,0,0,0,0,0,0,0,0,0,0,0,0,0,0,0,0,0,0,0,0,0,0,0,0,0,0,0,0,0,0,0,0,0,0,0,0,0,0,0,0,0,0,0,0,0,0,0,0,0,0,0,0,0,0,0,0,0,0,0,0,0,0,0,0,0,0,0,0,0,0,0,0,0,0,0,0,0,0,0,0,0,0,0,0,0,0,0,0,0,0,0,0,0,0,0,0,0,0,0,0,0,0,0,0,0,0,0,0,0,0,0,0,0,0,0,0,0,0,0,0,0,0,0,0,0,0,0,0,0,0,0,0,0,0,0,0,0,0,0,0,0,0,0,0,0,0,0,0,0,0,0,0,0,0,0,0,0,0,0,0,0,0,0,0,0,0,0,0,0,0,0,0,0,0,0,0,0,0,0,0,0,0,0,0,0,0,0,0,0,0,0,0],"trees":[{"base_weights":[5.387916E-6,-2.5635897E-4,2.0063175E-3,-4.7597793E-4,5.8955164E-4,3.06637E-3,-2.520817E-3,-6.399514E-5,-8.91057E-4,-4.848101E-3,7.478516E-4,8.606174E-4,5.0787176E-3,-1.1602846E-3,-9.052555E-3,3.4962228E-5,-3.3877254E-6,-7.546149E-6,-6.0025643E-5,1.5389993E-6,-2.5208428E-4,1.6662628E-6,3.593712E-5,-7.0453316E-6,4.260522E-5,8.8348614E-5,-3.4581666E-4,-3.2071108E-5,7.723259E-5,7.8405705E-5,-3.4837186E-4],"categories":[],"categories_nodes":[],"categories_segments":[],"categories_sizes":[],"default_left":[0,0,0,0,0,0,1,0,0,0,0,0,0,0,0,0,0,0,0,0,0,0,0,0,0,0,0,0,0,0,0],"id":0,"left_children":[1,3,5,7,9,11,13,15,17,19,21,23,25,27,29,-1,-1,-1,-1,-1,-1,-1,-1,-1,-1,-1,-1,-1,-1,-1,-1],"loss_changes":[2.1215844E0,6.647665E-1,2.2496667E0,4.850784E-1,6.3010573E-1,1.6804588E0,7.784574E-1,4.7780228E-1,1.6943887E0,1.1376805E0,6.925982E-1,4.3138993E-1,2.478785E0,3.7469205E-1,2.7363815E0,0E0,0E0,0E0,0E0,0E0,0E0,0E0,0E0,0E0,0E0,0E0,0E0,0E0,0E0,0E0,0E0],"parents":[2147483647,0,0,1,1,2,2,3,3,4,4,5,5,6,6,7,7,8,8,9,9,10,10,11,11,12,12,13,13,14,14],"right_children":[2,4,6,8,10,12,14,16,18,20,22,24,26,28,30,-1,-1,-1,-1,-1,-1,-1,-1,-1,-1,-1,-1,-1,-1,-1,-1],"split_conditions":[1.6319124E-2,4E0,1E0,2E0,-3.6456928E-2,1E0,2.6826834E-2,-2.4135102E-2,1E0,1E0,1.7712219E-2,9.1104174E-4,3.7216403E-2,2.586934E-2,1E0,3.4962228E-5,-3.3877254E-6,-7.546149E-6,-6.0025643E-5,1.5389993E-6,-2.5208428E-4,1.6662628E-6,3.593712E-5,-7.0453316E-6,4.260522E-5,8.8348614E-5,-3.4581666E-4,-3.2071108E-5,7.723259E-5,7.8405705E-5,-3.4837186E-4],"split_indices":[143,18,23,18,59,26,99,59,26,26,145,140,56,121,26,0,0,0,0,0,0,0,0,0,0,0,0,0,0,0,0],"split_type":[0,0,0,0,0,0,0,0,0,0,0,0,0,0,0,0,0,0,0,0,0,0,0,0,0,0,0,0,0,0,0],"sum_hessian":[4.047536E6,3.578881E6,4.68655E5,2.842161E6,7.3672E5,3.79916E5,8.8739E4,1.427602E6,1.414559E6,2.066E4,7.1606E5,1.81486E5,1.9843E5,7.3571E4,1.5168E4,8.7758E4,1.339844E6,1.235784E6,1.78775E5,1.4186E4,6.474E3,5.02502E5,2.13558E5,1.05321E5,7.6165E4,1.95055E5,3.375E3,6.4568E4,9.003E3,7.222E3,7.946E3],"tree_param":{"num_deleted":"0","num_feature":"176","num_nodes":"31","size_leaf_vector":"1"}},{"base_weights":[-4.975049E-6,-2.524594E-4,2.0354697E-3,-5.5299588E-5,-1.7595931E-3,1.0258466E-3,6.240521E-3,-2.786225E-4,1.5982275E-3,-2.0476768E-3,6.897674E-4,2.1282227E-3,-2.5495556E-3,-1.3801126E-3,7.7382647E-3,1.147094E-5,-1.0664738E-5,-6.1288147E-6,3.430236E-5,-5.3846055E-5,-2.6503423E-5,2.5903135E-5,-4.9814575E-5,3.841307E-5,-2.2863879E-4,1.2109004E-4,-6.955838E-5,-7.432973E-5,3.507668E-4,9.980675E-5,2.4988118E-4],"categories":[],"categories_nodes":[],"categories_segments":[],"categories_sizes":[],"default_left":[0,0,0,0,0,0,0,0,0,0,0,0,0,0,0,0,0,0,0,0,0,0,0,0,0,0,0,0,0,0,0],"id":1,"left_children":[1,3,5,7,9,11,13,15,17,19,21,23,25,27,29,-1,-1,-1,-1,-1,-1,-1,-1,-1,-1,-1,-1,-1,-1,-1,-1],"loss_changes":[2.0412722E0,1.0704818E0,1.8489046E0,1.177304E0,2.9550874E-1,1.3899341E0,9.7030807E-1,1.0986627E0,4.1975868E-1,1.8587303E-1,1.5415883E-1,1.2512926E0,1.5278213E0,1.0425246E0,8.0480576E-1,0E0,0E0,0E0,0E0,0E0,0E0,0E0,0E0,0E0,0E0,0E0,0E0,0E0,0E0,0E0,0E0],"parents":[2147483647,0,0,1,1,2,2,3,3,4,4,5,5,6,6,7,7,8,8,9,9,10,10,11,11,12,12,13,13,14,14],"right_children":[2,4,6,8,10,12,14,16,18,20,22,24,26,28,30,-1,-1,-1,-1,-1,-1,-1,-1,-1,-1,-1,-1,-1,-1,-1,-1],"split_conditions":[1.6711893E-2,1.2E1,4E0,1.1E1,6.026E-3,3E0,3E0,3E0,1E0,1E0,4E0,3.7216403E-2,3E0,4.574E-2,7.6657953E-3,1.147094E-5,-1.0664738E-5,-6.1288147E-6,3.430236E-5,-5.3846055E-5,-2.6503423E-5,2.5903135E-5,-4.9814575E-5,3.841307E-5,-2.2863879E-4,1.2109004E-4,-6.955838E-5,-7.432973E-5,3.507668E-4,9.980675E-5,2.4988118E-4],"split_indices":[143,38,18,38,106,18,38,38,18,18,18,56,38,34,88,0,0,0,0,0,0,0,0,0,0,0,0,0,0,0,0],"split_type":[0,0,0,0,0,0,0,0,0,0,0,0,0,0,0,0,0,0,0,0,0,0,0,0,0,0,0,0,0,0,0],"sum_hessian":[4.045791E6,3.608596E6,4.37195E5,3.191724E6,4.16872E5,3.52743E5,8.4452E4,2.812478E6,3.79246E5,3.73364E5,4.3508E4,2.69828E5,8.2915E4,1.3763E4,7.0689E4,7.90557E5,2.021921E6,8.2631E4,2.96615E5,8.2786E4,2.90578E5,3.5146E4,8.362E3,2.65322E5,4.506E3,1.2509E4,7.0406E4,1.2108E4,1.655E3,5.9767E4,1.0922E4],"tree_param":{"num_deleted":"0","num_feature":"176","num_nodes":"31","size_leaf_vector":"1"}},{"base_weights":[-5.9394874E-6,-2.62084E-4,1.8782543E-3,-6.9585665E-5,-1.7261967E-3,2.891553E-3,-2.4315785E-3,-2.9371193E-4,1.5814683E-3,-2.1871787E-3,-4.6436857E-5,1.9719265E-3,6.2848954E-3,7.473494E-3,-4.2309677E-3,1.1141273E-5,-1.0910318E-5,1.4567525E-5,6.318845E-5,-4.1648564E-5,-1.0603633E-5,-1.7247647E-5,6.0164522E-5,1.756564E-5,7.435292E-5,2.5296668E-4,8.00135E-5,3.9697942E-4,8.789655E-5,-2.2484064E-4,-1.8817277E-6],"categories":[],"categories_nodes":[],"categories_segments":[],"categories_sizes":[],"default_left":[0,0,0,0,0,1,0,0,0,0,0,0,0,0,0,0,0,0,0,0,0,0,0,0,0,0,0,0,0,0,0],"id":2,"left_children":[1,3,5,7,9,11,13,15,17,19,21,23,25,27,29,-1,-1,-1,-1,-1,-1,-1,-1,-1,-1,-1,-1,-1,-1,-1,-1],"loss_changes":[1.9513847E0,1.0023487E0,2.1133587E0,1.1641369E0,3.178934E-1,1.2147348E0,1.6350826E0,1.0782944E0,5.9320885E-1,2.0771801E-1,3.5211977E-1,7.1738815E-1,9.8729134E-1,4.4836128E-1,3.1526134E0,0E0,0E0,0E0,0E0,0E0,0E0,0E0,0E0,0E0,0E0,0E0,0E0,0E0,0E0,0E0,0E0],"parents":[2147483647,0,0,1,1,2,2,3,3,4,4,5,5,6,6,7,7,8,8,9,9,10,10,11,11,12,12,13,13,14,14],"right_children":[2,4,6,8,10,12,14,16,18,20,22,24,26,28,30,-1,-1,-1,-1,-1,-1,-1,-1,-1,-1,-1,-1,-1,-1,-1,-1],"split_conditions":[1.614118E-2,1.2E1,1E0,1.1E1,1E0,7.0258756E-3,3E0,3E0,1E0,1E0,3.9134687E-3,3E0,6.113554E-3,-5.5901356E-2,5E0,1.1141273E-5,-1.0910318E-5,1.4567525E-5,6.318845E-5,-4.1648564E-5,-1.0603633E-5,-1.7247647E-5,6.0164522E-5,1.756564E-5,7.435292E-5,2.5296668E-4,8.00135E-5,3.9697942E-4,8.789655E-5,-2.2484064E-4,-1.8817277E-6],"split_indices":[143,38,23,38,21,88,38,38,21,23,78,18,66,59,38,0,0,0,0,0,0,0,0,0,0,0,0,0,0,0,0],"split_type":[0,0,0,0,0,0,0,0,0,0,0,0,0,0,0,0,0,0,0,0,0,0,0,0,0,0,0,0,0,0,0],"sum_hessian":[4.046578E6,3.562771E6,4.83807E5,3.149379E6,4.13392E5,3.91898E5,9.1909E4,2.773489E6,3.7589E5,3.23909E5,8.9483E4,3.08571E5,8.3327E4,1.4043E4,7.7866E4,7.83225E5,1.990264E6,2.94138E5,8.1752E4,2.52261E5,7.1648E4,7.0607E4,1.8876E4,2.33666E5,7.4905E4,9.574E3,7.3753E4,1.358E3,1.2685E4,2.28E4,5.5066E4],"tree_param":{"num_deleted":"0","num_feature":"176","num_nodes":"31","size_leaf_vector":"1"}},{"base_weights":[-6.1725536E-6,-2.4696084E-4,1.9781217E-3,-3.3329313E-3,-1.868614E-4,3.0182584E-3,-2.4565165E-3,-1.504493E-4,-1.7754396E-2,-9.0827725E-6,-9.217929E-4,7.654561E-4,5.024308E-3,-1.1772952E-3,-9.49904E-3,2.5413718E-5,-3.1984688E-5,-1.3434848E-4,-6.212309E-4,-3.7348987E-6,2.3805353E-5,-6.2389468E-6,-7.458161E-5,-8.430079E-6,4.316913E-5,8.77205E-5,-3.4998375E-4,-3.2474043E-5,9.1720736E-5,8.966066E-5,-3.5543102E-4],"categories":[],"categories_nodes":[],"categories_segments":[],"categories_sizes":[],"default_left":[0,0,0,0,0,0,1,0,0,0,0,0,0,0,0,0,0,0,0,0,0,0,0,0,0,0,0,0,0,0,0],"id":3,"left_children":[1,3,5,7,9,11,13,15,17,19,21,23,25,27,29,-1,-1,-1,-1,-1,-1,-1,-1,-1,-1,-1,-1,-1,-1,-1,-1],"loss_changes":[1.9319221E0,6.65944E-1,2.0186262E0,3.1324E0,4.6170974E-1,1.5966089E0,7.365787E-1,1.8306191E-1,2.3980844E0,9.658514E-1,1.3678341E0,4.234497E-1,2.4327154E0,4.1677058E-1,2.4667778E0,0E0,0E0,0E0,0E0,0E0,0E0,0E0,0E0,0E0,0E0,0E0,0E0,0E0,0E0,0E0,0E0],"parents":[2147483647,0,0,1,1,2,2,3,3,4,4,5,5,6,6,7,7,8,8,9,9,10,10,11,11,12,12,13,13,14,14],"right_children":[2,4,6,8,10,12,14,16,18,20,22,24,26,28,30,-1,-1,-1,-1,-1,-1,-1,-1,-1,-1,-1,-1,-1,-1,-1,-1],"split_conditions":[1.6711893E-2,-3.198568E-2,1E0,1E0,1E0,1E0,2.8472936E-2,1E0,1E0,2.927771E-3,1E0,2.3182333E-3,3.7216403E-2,2.717828E-2,1E0,2.5413718E-5,-3.1984688E-5,-1.3434848E-4,-6.212309E-4,-3.7348987E-6,2.3805353E-5,-6.2389468E-6,-7.458161E-5,-8.430079E-6,4.316913E-5,8.77205E-5,-3.4998375E-4,-3.2474043E-5,9.1720736E-5,8.966066E-5,-3.5543102E-4],"split_indices":[143,57,23,26,23,26,99,25,23,111,26,148,56,171,26,0,0,0,0,0,0,0,0,0,0,0,0,0,0,0,0],"split_type":[0,0,0,0,0,0,0,0,0,0,0,0,0,0,0,0,0,0,0,0,0,0,0,0,0,0,0,0,0,0,0],"sum_hessian":[4.046999E6,3.6095E6,4.37499E5,6.8633E4,3.540867E6,3.54562E5,8.2937E4,5.6285E4,1.2348E4,2.852263E6,6.88604E5,1.67245E5,1.87317E5,7.0311E4,1.2626E4,2.874E4,2.7545E4,8.621E3,3.727E3,2.481007E6,3.71256E5,6.03795E5,8.4809E4,1.00107E5,6.7138E4,1.84057E5,3.26E3,6.267E4,7.641E3,5.757E3,6.869E3],"tree_param":{"num_deleted":"0","num_feature":"176","num_nodes":"31","size_leaf_vector":"1"}},{"base_weights":[4.281936E-6,-2.4722077E-4,1.8569265E-3,-5.560611E-5,-1.7048672E-3,2.8531526E-3,-2.385092E-3,-2.7641747E-4,1.5734843E-3,-1.9896254E-3,7.501927E-4,7.4123923E-4,4.797421E-3,7.3325075E-3,-4.142966E-3,1.13788665E-5,-1.0616778E-5,3.3271794E-5,-1.70116E-5,-5.2626205E-5,-2.5660207E-5,2.686901E-5,-4.871942E-5,-5.420045E-6,4.6567082E-5,4.6015764E-5,1.6052971E-4,4.5787834E-4,9.017652E-5,-2.1990776E-4,-1.7522002E-6],"categories":[],"categories_nodes":[],"categories_segments":[],"categories_sizes":[],"default_left":[0,0,0,0,0,0,0,0,0,0,0,0,0,0,0,0,0,0,0,0,0,0,0,0,0,0,0,0,0,0,0],"id":4,"left_children":[1,3,5,7,9,11,13,15,17,19,21,23,25,27,29,-1,-1,-1,-1,-1,-1,-1,-1,-1,-1,-1,-1,-1,-1,-1,-1],"loss_changes":[1.887192E0,9.9332297E-1,2.0466235E0,1.1315988E0,2.901821E-1,1.6052644E0,1.5667374E0,1.0727336E0,5.1253504E-1,1.7952526E-1,1.5072218E-1,4.4711643E-1,2.0432415E0,4.656961E-1,3.023234E0,0E0,0E0,0E0,0E0,0E0,0E0,0E0,0E0,0E0,0E0,0E0,0E0,0E0,0E0,0E0,0E0],"parents":[2147483647,0,0,1,1,2,2,3,3,4,4,5,5,6,6,7,7,8,8,9,9,10,10,11,11,12,12,13,13,14,14],"right_children":[2,4,6,8,10,12,14,16,18,20,22,24,26,28,30,-1,-1,-1,-1,-1,-1,-1,-1,-1,-1,-1,-1,-1,-1,-1,-1],"split_conditions":[1.614118E-2,1.2E1,1E0,1.1E1,6.1296048E-3,1E0,3E0,3E0,1E0,1E0,4E0,3.2269E-3,5.8392147E-3,-6.581666E-2,5E0,1.13788665E-5,-1.0616778E-5,3.3271794E-5,-1.70116E-5,-5.2626205E-5,-2.5660207E-5,2.686901E-5,-4.871942E-5,-5.420045E-6,4.6567082E-5,4.6015764E-5,1.6052971E-4,4.5787834E-4,9.017652E-5,-2.1990776E-4,-1.7522002E-6],"split_indices":[143,38,23,38,100,26,38,38,23,18,18,148,88,59,38,0,0,0,0,0,0,0,0,0,0,0,0,0,0,0,0],"split_type":[0,0,0,0,0,0,0,0,0,0,0,0,0,0,0,0,0,0,0,0,0,0,0,0,0,0,0,0,0,0,0],"sum_hessian":[4.046811E6,3.562639E6,4.84172E5,3.149329E6,4.1331E5,3.92281E5,9.1891E4,2.773952E6,3.75377E5,3.70716E5,4.2594E4,1.88281E5,2.04E5,1.3988E4,7.7903E4,7.83062E5,1.99089E6,3.1437E5,6.1007E4,8.2226E4,2.8849E5,3.4396E4,8.198E3,1.25599E5,6.2682E4,1.50018E5,5.3982E4,9.64E2,1.3024E4,2.2859E4,5.5044E4],"tree_param":{"num_deleted":"0","num_feature":"176","num_nodes":"31","size_leaf_vector":"1"}},{"base_weights":[5.7623956E-6,-2.4135897E-4,1.8279274E-3,-4.5180268E-4,5.68865E-4,2.797799E-3,-2.3008613E-3,-5.7286514E-5,-8.4899965E-4,-4.824914E-3,7.274549E-4,1.873181E-3,6.0584727E-3,-9.540554E-4,-8.118635E-3,3.3373803E-5,-3.164528E-6,-5.4522854E-5,-7.8029525E-6,-1.2642448E-4,1.3034638E-4,1.7091387E-6,3.5107638E-5,1.6075192E-5,7.240847E-5,2.6467018E-4,7.91268E-5,-3.0959556E-5,6.6289445E-5,-2.4385852E-4,-4.4908506E-5],"categories":[],"categories_nodes":[],"categories_segments":[],"categories_sizes":[],"default_left":[0,0,0,0,0,1,1,0,0,0,0,0,0,0,0,0,0,0,0,0,0,0,0,0,0,0,0,0,0,0,0],"id":5,"left_children":[1,3,5,7,9,11,13,15,17,19,21,23,25,27,29,-1,-1,-1,-1,-1,-1,-1,-1,-1,-1,-1,-1,-1,-1,-1,-1],"loss_changes":[1.8238039E0,6.073972E-1,1.9376645E0,4.4245946E-1,6.2351817E-1,1.173713E0,7.104819E-1,4.307252E-1,1.2982073E0,8.417324E-1,6.507144E-1,7.001926E-1,9.7202086E-1,3.7629217E-1,6.345843E-1,0E0,0E0,0E0,0E0,0E0,0E0,0E0,0E0,0E0,0E0,0E0,0E0,0E0,0E0,0E0,0E0],"parents":[2147483647,0,0,1,1,2,2,3,3,4,4,5,5,6,6,7,7,8,8,9,9,10,10,11,11,12,12,13,13,14,14],"right_children":[2,4,6,8,10,12,14,16,18,20,22,24,26,28,30,-1,-1,-1,-1,-1,-1,-1,-1,-1,-1,-1,-1,-1,-1,-1,-1],"split_conditions":[1.614118E-2,4E0,1E0,2E0,-3.5398E-2,6.917156E-3,2.5402911E-2,-2.4135102E-2,-4.19615E-3,1E0,1.7712219E-2,3E0,5.7692914E-3,2.3920113E-2,2.9498313E-2,3.3373803E-5,-3.164528E-6,-5.4522854E-5,-7.8029525E-6,-1.2642448E-4,1.3034638E-4,1.7091387E-6,3.5107638E-5,1.6075192E-5,7.240847E-5,2.6467018E-4,7.91268E-5,-3.0959556E-5,6.6289445E-5,-2.4385852E-4,-4.4908506E-5],"split_indices":[143,18,23,18,35,88,163,59,128,28,145,18,66,121,79,0,0,0,0,0,0,0,0,0,0,0,0,0,0,0,0],"split_type":[0,0,0,0,0,0,0,0,0,0,0,0,0,0,0,0,0,0,0,0,0,0,0,0,0,0,0,0,0,0,0],"sum_hessian":[4.046732E6,3.562981E6,4.83751E5,2.82933E6,7.33651E5,3.91927E5,9.1824E4,1.42071E6,1.40862E6,2.0773E4,7.12878E5,3.05584E5,8.6343E4,7.4705E4,1.7119E4,8.7138E4,1.333572E6,1.72034E5,1.236586E6,1.6824E4,3.949E3,5.02566E5,2.10312E5,2.31254E5,7.433E4,7.985E3,7.8358E4,6.2758E4,1.1947E4,7.178E3,9.941E3],"tree_param":{"num_deleted":"0","num_feature":"176","num_nodes":"31","size_leaf_vector":"1"}},{"base_weights":[-6.0913358E-6,-3.1347657E-4,1.2471306E-3,7.39168E-4,-6.1674055E-4,4.5811667E-4,4.4445465E-3,1.185876E-3,1.456073E-5,-2.8751732E-3,-1.15576346E-4,1.443266E-3,-2.6703693E-3,1.5826218E-3,8.572921E-3,2.320361E-5,2.231621E-6,9.371082E-6,-3.0453171E-5,-6.734087E-5,5.191918E-5,3.7117168E-6,-2.6516216E-5,3.3254169E-6,5.057252E-5,-1.05351755E-4,-2.8665386E-6,1.52139955E-5,2.4456056E-4,7.39575E-5,2.0788943E-4],"categories":[],"categories_nodes":[],"categories_segments":[],"categories_sizes":[],"default_left":[0,0,0,0,0,0,0,0,0,0,0,0,0,0,0,0,0,0,0,0,0,0,0,0,0,0,0,0,0,0,0],"id":6,"left_children":[1,3,5,7,9,11,13,15,17,19,21,23,25,27,29,-1,-1,-1,-1,-1,-1,-1,-1,-1,-1,-1,-1,-1,-1,-1,-1],"loss_changes":[1.5577357E0,1.0373198E0,2.0040731E0,2.3384893E-1,2.8534718E0,1.9680774E0,1.8491104E0,1.2556928E-1,3.0586368E-1,3.8040845E0,1.1174213E0,1.0363848E0,1.4943156E0,7.8801316E-1,1.1140194E0,0E0,0E0,0E0,0E0,0E0,0E0,0E0,0E0,0E0,0E0,0E0,0E0,0E0,0E0,0E0,0E0],"parents":[2147483647,0,0,1,1,2,2,3,3,4,4,5,5,6,6,7,7,8,8,9,9,10,10,11,11,12,12,13,13,14,14],"right_children":[2,4,6,8,10,12,14,16,18,20,22,24,26,28,30,-1,-1,-1,-1,-1,-1,-1,-1,-1,-1,-1,-1,-1,-1,-1,-1],"split_conditions":[2.8957042E-3,3E0,4E0,9.219399E-3,5E0,3E0,1E0,4.329033E-3,4E0,4E0,1.2E1,1E0,5E0,5.2303486E-2,2.0921003E-2,2.320361E-5,2.231621E-6,9.371082E-6,-3.0453171E-5,-6.734087E-5,5.191918E-5,3.7117168E-6,-2.6516216E-5,3.3254169E-6,5.057252E-5,-1.05351755E-4,-2.8665386E-6,1.52139955E-5,2.4456056E-4,7.39575E-5,2.0788943E-4],"split_indices":[133,38,18,121,38,18,26,100,18,18,38,26,38,101,98,0,0,0,0,0,0,0,0,0,0,0,0,0,0,0,0],"split_type":[0,0,0,0,0,0,0,0,0,0,0,0,0,0,0,0,0,0,0,0,0,0,0,0,0,0,0,0,0,0,0],"sum_hessian":[4.046131E6,3.249822E6,7.96309E5,7.26126E5,2.523696E6,6.38952E5,1.57357E5,4.48353E5,2.77773E5,4.5796E5,2.065736E6,4.86176E5,1.52776E5,9.3078E4,6.4279E4,3.5527E5,9.3083E4,2.14426E5,6.3347E4,3.75325E5,8.2635E4,1.685783E6,3.79953E5,2.84227E5,2.01949E5,5.8963E4,9.3813E4,8.9097E4,3.981E3,3.4374E4,2.9905E4],"tree_param":{"num_deleted":"0","num_feature":"176","num_nodes":"31","size_leaf_vector":"1"}},{"base_weights":[1.3877006E-6,-3.0317792E-4,1.2460374E-3,7.2640233E-4,-5.9970946E-4,2.1560295E-3,-2.5859224E-3,1.3593778E-3,2.0277344E-4,-2.827958E-3,-1.0476197E-4,5.7921914E-4,4.387033E-3,-6.344814E-3,-2.0109577E-4,2.5593059E-5,7.096814E-6,1.0146072E-5,-2.0070509E-5,-1.9974623E-5,-1.4951544E-4,3.803411E-6,-2.5984576E-5,1.2133867E-6,4.7460602E-5,9.982533E-5,-1.7596567E-5,5.3558335E-5,-2.1966432E-4,1.2668016E-5,-6.906457E-5],"categories":[],"categories_nodes":[],"categories_segments":[],"categories_sizes":[],"default_left":[0,0,0,0,0,0,0,0,0,0,0,0,0,0,0,0,0,0,0,0,0,0,0,0,0,0,0,0,0,0,0],"id":7,"left_children":[1,3,5,7,9,11,13,15,17,19,21,23,25,27,29,-1,-1,-1,-1,-1,-1,-1,-1,-1,-1,-1,-1,-1,-1,-1,-1],"loss_changes":[1.5346726E0,9.9208665E-1,2.7754712E0,2.3906767E-1,2.7806768E0,2.2588103E0,1.3610708E0,7.216662E-2,2.5241643E-1,4.721855E0,1.085099E0,4.526601E-1,2.7559624E0,4.2812366E0,3.8891974E-1,0E0,0E0,0E0,0E0,0E0,0E0,0E0,0E0,0E0,0E0,0E0,0E0,0E0,0E0,0E0,0E0],"parents":[2147483647,0,0,1,1,2,2,3,3,4,4,5,5,6,6,7,7,8,8,9,9,10,10,11,11,12,12,13,13,14,14],"right_children":[2,4,6,8,10,12,14,16,18,20,22,24,26,28,30,-1,-1,-1,-1,-1,-1,-1,-1,-1,-1,-1,-1,-1,-1,-1,-1],"split_conditions":[2.8957042E-3,3E0,1E0,7.5914715E-3,5E0,1E0,5E0,2.7216694E-3,4E0,1E0,1.2E1,2.345752E-3,1E0,3E0,1.1E1,2.5593059E-5,7.096814E-6,1.0146072E-5,-2.0070509E-5,-1.9974623E-5,-1.4951544E-4,3.803411E-6,-2.5984576E-5,1.2133867E-6,4.7460602E-5,9.982533E-5,-1.7596567E-5,5.3558335E-5,-2.1966432E-4,1.2668016E-5,-6.906457E-5],"split_indices":[133,38,23,171,38,26,38,122,18,23,38,140,21,38,38,0,0,0,0,0,0,0,0,0,0,0,0,0,0,0,0],"split_type":[0,0,0,0,0,0,0,0,0,0,0,0,0,0,0,0,0,0,0,0,0,0,0,0,0,0,0,0,0,0,0],"sum_hessian":[4.045965E6,3.249917E6,7.96048E5,7.25964E5,2.523953E6,6.43495E5,1.52553E5,3.27805E5,3.98159E5,4.58367E5,2.065586E6,3.77288E5,2.66207E5,5.9053E4,9.35E4,2.57029E5,7.0776E4,3.0754E5,9.0619E4,3.6982E5,8.8547E4,1.685633E6,3.79953E5,3.12282E5,6.5006E4,1.98413E5,6.7794E4,2.5582E4,3.3471E4,7.5154E4,1.8346E4],"tree_param":{"num_deleted":"0","num_feature":"176","num_nodes":"31","size_leaf_vector":"1"}},{"base_weights":[-2.7529463E-6,-2.4240113E-4,1.7592417E-3,-5.991971E-5,-1.6310917E-3,8.262572E-4,5.6355745E-3,-2.770603E-4,1.5391989E-3,-2.0769145E-3,-1.011677E-5,3.6526148E-3,-1.7769297E-4,-1.9773438E-3,7.159805E-3,1.0619493E-5,-1.03350185E-5,1.4099249E-5,6.177489E-5,-3.990807E-5,-8.7077415E-6,-1.6462553E-5,5.8244164E-5,-9.812076E-6,1.288597E-4,1.490397E-6,-2.790493E-4,-8.339587E-5,3.1670238E-4,8.9356356E-5,2.4219407E-4],"categories":[],"categories_nodes":[],"categories_segments":[],"categories_sizes":[],"default_left":[0,0,0,0,0,0,0,0,0,0,0,0,0,0,0,0,0,0,0,0,0,0,0,0,0,0,0,0,0,0,0],"id":8,"left_children":[1,3,5,7,9,11,13,15,17,19,21,23,25,27,29,-1,-1,-1,-1,-1,-1,-1,-1,-1,-1,-1,-1,-1,-1,-1,-1],"loss_changes":[1.7070222E0,9.0102696E-1,1.7437488E0,1.0922339E0,2.964629E-1,1.1108313E0,1.0921733E0,9.7355783E-1,5.704378E-1,2.0938063E-1,3.3376786E-1,1.9507145E0,1.3711339E0,1.0920341E0,9.532337E-1,0E0,0E0,0E0,0E0,0E0,0E0,0E0,0E0,0E0,0E0,0E0,0E0,0E0,0E0,0E0,0E0],"parents":[2147483647,0,0,1,1,2,2,3,3,4,4,5,5,6,6,7,7,8,8,9,9,10,10,11,11,12,12,13,13,14,14],"right_children":[2,4,6,8,10,12,14,16,18,20,22,24,26,28,30,-1,-1,-1,-1,-1,-1,-1,-1,-1,-1,-1,-1,-1,-1,-1,-1],"split_conditions":[1.614118E-2,1.2E1,4E0,1.1E1,1E0,1E0,3E0,3E0,1E0,1E0,3.8353319E-3,1E0,3.7216403E-2,4.2427886E-2,7.800772E-3,1.0619493E-5,-1.03350185E-5,1.4099249E-5,6.177489E-5,-3.990807E-5,-8.7077415E-6,-1.6462553E-5,5.8244164E-5,-9.812076E-6,1.288597E-4,1.490397E-6,-2.790493E-4,-8.339587E-5,3.1670238E-4,8.9356356E-5,2.4219407E-4],"split_indices":[143,38,18,38,21,18,38,38,21,23,78,26,56,59,66,0,0,0,0,0,0,0,0,0,0,0,0,0,0,0,0],"split_type":[0,0,0,0,0,0,0,0,0,0,0,0,0,0,0,0,0,0,0,0,0,0,0,0,0,0,0,0,0,0,0],"sum_hessian":[4.046151E6,3.562221E6,4.8393E5,3.149127E6,4.13094E5,3.9026E5,9.367E4,2.773186E6,3.75941E5,3.23506E5,8.9588E4,1.02546E5,2.87714E5,1.5517E4,7.8153E4,7.83098E5,1.990088E6,2.94172E5,8.1769E4,2.52143E5,7.1363E4,7.0253E4,1.9335E4,5.2164E4,5.0382E4,2.83231E5,4.483E3,1.3546E4,1.971E3,6.5651E4,1.2502E4],"tree_param":{"num_deleted":"0","num_feature":"176","num_nodes":"31","size_leaf_vector":"1"}},{"base_weights":[2.8175893E-6,-2.314997E-4,1.7317912E-3,-3.1561374E-3,-1.7607909E-4,2.6492213E-3,-2.1806047E-3,-5.32016E-3,2.427826E-3,-3.8786087E-4,6.397035E-4,1.8354094E-3,6.2566986E-3,-8.7801914E-4,-7.823084E-3,-1.5364081E-4,-2.8694776E-5,3.2855227E-5,4.5689335E-4,-3.2421335E-7,-1.2090837E-5,5.935062E-5,6.1702863E-6,1.4990707E-5,7.289493E-5,1.1565482E-4,-1.7674404E-4,-3.0079325E-5,6.856238E-5,-2.1841355E-4,1.3183981E-4],"categories":[],"categories_nodes":[],"categories_segments":[],"categories_sizes":[],"default_left":[0,0,0,0,0,1,1,0,0,0,0,0,0,0,0,0,0,0,0,0,0,0,0,0,0,0,0,0,0,0,0],"id":9,"left_children":[1,3,5,7,9,11,13,15,17,19,21,23,25,27,29,-1,-1,-1,-1,-1,-1,-1,-1,-1,-1,-1,-1,-1,-1,-1,-1],"loss_changes":[1.6411966E0,5.7433647E-1,1.7361434E0,7.9977524E-1,6.040733E-1,1.1425078E0,6.649467E-1,7.141743E-1,1.4446831E-1,3.7837055E-1,5.565566E-1,7.7901876E-1,1.2518702E0,3.8853464E-1,1.6230971E0,0E0,0E0,0E0,0E0,0E0,0E0,0E0,0E0,0E0,0E0,0E0,0E0,0E0,0E0,0E0,0E0],"parents":[2147483647,0,0,1,1,2,2,3,3,4,4,5,5,6,6,7,7,8,8,9,9,10,10,11,11,12,12,13,13,14,14],"right_children":[2,4,6,8,10,12,14,16,18,20,22,24,26,28,30,-1,-1,-1,-1,-1,-1,-1,-1,-1,-1,-1,-1,-1,-1,-1,-1],"split_conditions":[1.614118E-2,-3.198568E-2,1E0,1E0,4E0,3.7138085E-3,2.5402911E-2,1E0,7.3577333E-3,2E0,-3.1877253E-3,3E0,3.7216403E-2,2.3920113E-2,1E0,-1.5364081E-4,-2.8694776E-5,3.2855227E-5,4.5689335E-4,-3.2421335E-7,-1.2090837E-5,5.935062E-5,6.1702863E-6,1.4990707E-5,7.289493E-5,1.1565482E-4,-1.7674404E-4,-3.0079325E-5,6.856238E-5,-2.1841355E-4,1.3183981E-4],"split_indices":[143,57,23,28,18,89,99,25,148,18,144,18,56,121,25,0,0,0,0,0,0,0,0,0,0,0,0,0,0,0,0],"split_type":[0,0,0,0,0,0,0,0,0,0,0,0,0,0,0,0,0,0,0,0,0,0,0,0,0,0,0,0,0,0,0],"sum_hessian":[4.047373E6,3.56382E6,4.83553E5,6.594E4,3.49788E6,3.91908E5,9.1645E4,4.7651E4,1.8289E4,2.777931E6,7.19949E5,3.2E5,7.1908E4,7.4603E4,1.7042E4,2.1238E4,2.6413E4,1.808E4,2.09E2,1.397606E6,1.380325E6,5.4079E4,6.6587E5,2.41593E5,7.8407E4,6.8025E4,3.883E3,6.2591E4,1.2012E4,1.2522E4,4.52E3],"tree_param":{"num_deleted":"0","num_feature":"176","num_nodes":"31","size_leaf_vector":"1"}},{"base_weights":[-1.1213525E-5,-2.4200036E-4,1.6859855E-3,-6.4034546E-5,-1.5944141E-3,7.597034E-4,5.5265157E-3,-2.7606662E-4,1.4973602E-3,-2.0433632E-3,1.0022882E-5,1.663016E-3,-2.161628E-3,-1.5124163E-3,6.9415467E-3,1.0536215E-5,-1.028361E-5,1.3559024E-5,6.058429E-5,-3.9260714E-5,-8.585703E-6,-1.4514115E-5,6.1530125E-5,3.042036E-5,-2.0968003E-4,1.1273189E-4,-6.11982E-5,-7.226605E-5,3.068357E-4,8.668429E-5,2.3545057E-4],"categories":[],"categories_nodes":[],"categories_segments":[],"categories_sizes":[],"default_left":[0,0,0,0,0,0,0,0,0,0,0,0,0,0,0,0,0,0,0,0,0,0,0,0,0,0,0,0,0,0,0],"id":10,"left_children":[1,3,5,7,9,11,13,15,17,19,21,23,25,27,29,-1,-1,-1,-1,-1,-1,-1,-1,-1,-1,-1,-1,-1,-1,-1,-1],"loss_changes":[1.5840561E0,8.560974E-1,1.7156159E0,1.041649E0,3.00066E-1,1.0291563E0,9.40161E-1,9.6159387E-1,5.557565E-1,2.0256042E-1,3.2249257E-1,1.0825803E0,1.4246308E0,9.661506E-1,8.9922786E-1,0E0,0E0,0E0,0E0,0E0,0E0,0E0,0E0,0E0,0E0,0E0,0E0,0E0,0E0,0E0,0E0],"parents":[2147483647,0,0,1,1,2,2,3,3,4,4,5,5,6,6,7,7,8,8,9,9,10,10,11,11,12,12,13,13,14,14],"right_children":[2,4,6,8,10,12,14,16,18,20,22,24,26,28,30,-1,-1,-1,-1,-1,-1,-1,-1,-1,-1,-1,-1,-1,-1,-1,-1],"split_conditions":[1.614118E-2,1.2E1,1E0,1.1E1,1E0,1E0,3E0,3E0,1E0,1E0,4.324755E-3,3.7216403E-2,3E0,4.2427886E-2,7.800772E-3,1.0536215E-5,-1.028361E-5,1.3559024E-5,6.058429E-5,-3.9260714E-5,-8.585703E-6,-1.4514115E-5,6.1530125E-5,3.042036E-5,-2.0968003E-4,1.1273189E-4,-6.11982E-5,-7.226605E-5,3.068357E-4,8.668429E-5,2.3545057E-4],"split_indices":[143,38,24,38,21,23,38,38,21,23,78,56,38,59,66,0,0,0,0,0,0,0,0,0,0,0,0,0,0,0,0],"split_type":[0,0,0,0,0,0,0,0,0,0,0,0,0,0,0,0,0,0,0,0,0,0,0,0,0,0,0,0,0,0,0],"sum_hessian":[4.047793E6,3.563775E6,4.84018E5,3.15E6,4.13775E5,3.90176E5,9.3842E4,2.773946E6,3.76054E5,3.2379E5,8.9985E4,2.98284E5,9.1892E4,1.559E4,7.8252E4,7.83639E5,1.990307E6,2.94137E5,8.1917E4,2.52335E5,7.1455E4,7.2416E4,1.7569E4,2.93462E5,4.822E3,1.4053E4,7.7839E4,1.3653E4,1.937E3,6.5814E4,1.2438E4],"tree_param":{"num_deleted":"0","num_feature":"176","num_nodes":"31","size_leaf_vector":"1"}},{"base_weights":[-4.7217122E-6,-2.2967161E-4,1.6486209E-3,-5.181987E-5,-1.5819635E-3,2.5511459E-3,-2.181194E-3,-2.5833253E-4,1.4697232E-3,-2.0185004E-3,-0E0,5.2961893E-4,4.4130296E-3,7.007261E-3,-3.850128E-3,1.0482673E-5,-9.863928E-6,1.31653915E-5,5.9996815E-5,-3.8616352E-5,-9.102108E-6,-1.8307555E-5,4.9813043E-5,-1.20683235E-5,3.7318354E-5,7.730764E-5,-3.366184E-4,3.7616098E-4,8.2065024E-5,-2.1102293E-4,4.213418E-7],"categories":[],"categories_nodes":[],"categories_segments":[],"categories_sizes":[],"default_left":[0,0,0,0,0,0,0,0,0,0,0,0,0,0,0,0,0,0,0,0,0,0,0,0,0,0,0,0,0,0,0],"id":11,"left_children":[1,3,5,7,9,11,13,15,17,19,21,23,25,27,29,-1,-1,-1,-1,-1,-1,-1,-1,-1,-1,-1,-1,-1,-1,-1,-1],"loss_changes":[1.5039215E0,8.5536855E-1,1.6740559E0,9.8850524E-1,2.8376842E-1,1.4707959E0,1.4099054E0,9.1800535E-1,5.507248E-1,1.8734288E-1,3.2144722E-1,4.4114515E-1,2.2837517E0,4.044519E-1,2.8582628E0,0E0,0E0,0E0,0E0,0E0,0E0,0E0,0E0,0E0,0E0,0E0,0E0,0E0,0E0,0E0,0E0],"parents":[2147483647,0,0,1,1,2,2,3,3,4,4,5,5,6,6,7,7,8,8,9,9,10,10,11,11,12,12,13,13,14,14],"right_children":[2,4,6,8,10,12,14,16,18,20,22,24,26,28,30,-1,-1,-1,-1,-1,-1,-1,-1,-1,-1,-1,-1,-1,-1,-1,-1],"split_conditions":[1.614118E-2,1.2E1,1E0,1.1E1,1E0,1E0,3E0,3E0,1E0,1E0,2.6647963E-3,9.1104174E-4,3.7216403E-2,-5.5901356E-2,5E0,1.0482673E-5,-9.863928E-6,1.31653915E-5,5.9996815E-5,-3.8616352E-5,-9.102108E-6,-1.8307555E-5,4.9813043E-5,-1.20683235E-5,3.7318354E-5,7.730764E-5,-3.366184E-4,3.7616098E-4,8.2065024E-5,-2.1102293E-4,4.213418E-7],"split_indices":[143,38,23,38,21,26,38,38,21,23,74,140,56,59,38,0,0,0,0,0,0,0,0,0,0,0,0,0,0,0,0],"split_type":[0,0,0,0,0,0,0,0,0,0,0,0,0,0,0,0,0,0,0,0,0,0,0,0,0,0,0,0,0,0,0],"sum_hessian":[4.047453E6,3.563249E6,4.84204E5,3.149737E6,4.13512E5,3.9207E5,9.2134E4,2.773902E6,3.75835E5,3.2364E5,8.9872E4,1.88234E5,2.03836E5,1.4069E4,7.8065E4,7.83138E5,1.990764E6,2.94E5,8.1835E4,2.52133E5,7.1507E4,6.5929E4,2.3943E4,1.09772E5,7.8462E4,2.00415E5,3.421E3,1.354E3,1.2715E4,2.2864E4,5.5201E4],"tree_param":{"num_deleted":"0","num_feature":"176","num_nodes":"31","size_leaf_vector":"1"}},{"base_weights":[3.0684873E-6,-2.890368E-4,1.1968116E-3,-2.9430336E-3,-2.1870485E-4,4.5790477E-4,4.186871E-3,-7.167425E-4,-1.4554061E-2,-4.0788564E-4,5.081346E-4,1.3793122E-3,-2.4581377E-3,1.4549453E-3,8.137171E-3,-2.9418118E-6,-7.0139955E-5,-3.8310736E-5,-4.2353882E-4,-6.109256E-6,-1.273631E-4,-2.442357E-6,2.848247E-5,3.7078707E-6,4.7580284E-5,-1.2456952E-4,-2.2360078E-5,1.3455232E-5,2.3642532E-4,6.268086E-5,1.8865915E-4],"categories":[],"categories_nodes":[],"categories_segments":[],"categories_sizes":[],"default_left":[0,0,0,0,0,0,0,0,0,0,0,0,0,0,0,0,0,0,0,0,0,0,0,0,0,0,0,0,0,0,0],"id":12,"left_children":[1,3,5,7,9,11,13,15,17,19,21,23,25,27,29,-1,-1,-1,-1,-1,-1,-1,-1,-1,-1,-1,-1,-1,-1,-1,-1],"loss_changes":[1.4125332E0,6.038385E-1,1.7552133E0,2.1454213E0,4.3553936E-1,1.71575E0,1.6909027E0,1.3319436E-1,1.9277701E0,4.5465967E-1,5.5490756E-1,8.9267164E-1,8.56806E-1,7.465791E-1,9.857998E-1,0E0,0E0,0E0,0E0,0E0,0E0,0E0,0E0,0E0,0E0,0E0,0E0,0E0,0E0,0E0,0E0],"parents":[2147483647,0,0,1,1,2,2,3,3,4,4,5,5,6,6,7,7,8,8,9,9,10,10,11,11,12,12,13,13,14,14],"right_children":[2,4,6,8,10,12,14,16,18,20,22,24,26,28,30,-1,-1,-1,-1,-1,-1,-1,-1,-1,-1,-1,-1,-1,-1,-1,-1],"split_conditions":[2.8957042E-3,-1.6306924E-2,4E0,1E0,4E0,3E0,1E0,1.8E1,3E0,7.952143E-2,1E0,1E0,-6.2545002E-3,5.2303486E-2,1.9399103E-2,-2.9418118E-6,-7.0139955E-5,-3.8310736E-5,-4.2353882E-4,-6.109256E-6,-1.273631E-4,-2.442357E-6,2.848247E-5,3.7078707E-6,4.7580284E-5,-1.2456952E-4,-2.2360078E-5,1.3455232E-5,2.3642532E-4,6.268086E-5,1.8865915E-4],"split_indices":[133,56,18,26,18,18,26,39,18,59,25,26,106,101,98,0,0,0,0,0,0,0,0,0,0,0,0,0,0,0,0],"split_type":[0,0,0,0,0,0,0,0,0,0,0,0,0,0,0,0,0,0,0,0,0,0,0,0,0,0,0,0,0,0,0],"sum_hessian":[4.048281E6,3.251758E6,7.96523E5,8.358E4,3.168178E6,6.38959E5,1.57564E5,7.0208E4,1.3372E4,2.514955E6,6.53223E5,4.85799E5,1.5316E5,9.3298E4,6.4266E4,6.1595E4,8.613E3,6.7E3,6.672E3,2.507078E6,7.877E3,4.30199E5,2.23024E5,2.83997E5,2.01802E5,2.4994E4,1.28166E5,8.9308E4,3.99E3,3.0266E4,3.4E4],"tree_param":{"num_deleted":"0","num_feature":"176","num_nodes":"31","size_leaf_vector":"1"}},{"base_weights":[-9.988672E-7,-2.2308504E-4,1.6308061E-3,-4.9889655E-5,-1.5405137E-3,2.5060736E-3,-2.09453E-3,-2.5408194E-4,1.4553766E-3,-1.823999E-3,8.8649034E-4,1.6330013E-3,5.736358E-3,6.9396133E-3,-3.731684E-3,1.0251804E-5,-9.678997E-6,1.3178853E-5,5.88975E-5,-3.4969224E-5,-7.825557E-6,-0E0,7.478621E-5,3.6993773E-5,-1.9547299E-5,1.2778914E-4,1.8939907E-5,3.7217027E-4,8.077831E-5,-2.041732E-4,3.556222E-7],"categories":[],"categories_nodes":[],"categories_segments":[],"categories_sizes":[],"default_left":[0,0,0,0,0,1,0,0,0,0,0,0,0,0,0,0,0,0,0,0,0,0,0,0,0,0,0,0,0,0,0],"id":13,"left_children":[1,3,5,7,9,11,13,15,17,19,21,23,25,27,29,-1,-1,-1,-1,-1,-1,-1,-1,-1,-1,-1,-1,-1,-1,-1,-1],"loss_changes":[1.4648764E0,8.111362E-1,1.5790898E0,9.665936E-1,2.8521502E-1,1.0989342E0,1.3561044E0,8.8065124E-1,5.243247E-1,1.8086362E-1,1.4851508E-1,6.110905E-1,8.5665226E-1,4.0103638E-1,2.6705642E0,0E0,0E0,0E0,0E0,0E0,0E0,0E0,0E0,0E0,0E0,0E0,0E0,0E0,0E0,0E0,0E0],"parents":[2147483647,0,0,1,1,2,2,3,3,4,4,5,5,6,6,7,7,8,8,9,9,10,10,11,11,12,12,13,13,14,14],"right_children":[2,4,6,8,10,12,14,16,18,20,22,24,26,28,30,-1,-1,-1,-1,-1,-1,-1,-1,-1,-1,-1,-1,-1,-1,-1,-1],"split_conditions":[1.614118E-2,1.2E1,1E0,1.1E1,6.1296048E-3,7.0258756E-3,3E0,3E0,1E0,1E0,1E0,1E0,1E0,-5.5901356E-2,5E0,1.0251804E-5,-9.678997E-6,1.3178853E-5,5.88975E-5,-3.4969224E-5,-7.825557E-6,-0E0,7.478621E-5,3.6993773E-5,-1.9547299E-5,1.2778914E-4,1.8939907E-5,3.7217027E-4,8.077831E-5,-2.041732E-4,3.556222E-7],"split_indices":[143,38,23,38,100,88,38,38,21,21,21,25,25,59,38,0,0,0,0,0,0,0,0,0,0,0,0,0,0,0,0],"split_type":[0,0,0,0,0,0,0,0,0,0,0,0,0,0,0,0,0,0,0,0,0,0,0,0,0,0,0,0,0,0,0],"sum_hessian":[4.045983E6,3.561834E6,4.84149E5,3.148654E6,4.1318E5,3.92256E5,9.1893E4,2.773135E6,3.75519E5,3.70333E5,4.2847E4,3.09042E5,8.3214E4,1.4003E4,7.789E4,7.82942E5,1.990193E6,2.9375E5,8.1769E4,2.88948E5,8.1385E4,3.459E4,8.257E3,2.49261E5,5.9781E4,5.521E4,2.8004E4,1.37E3,1.2633E4,2.2841E4,5.5049E4],"tree_param":{"num_deleted":"0","num_feature":"176","num_nodes":"31","size_leaf_vector":"1"}},{"base_weights":[-4.5382126E-7,-2.03959E-4,1.674361E-3,-3.304527E-5,-1.5114055E-3,2.5636882E-3,-2.1177072E-3,-2.3409523E-4,1.4537704E-3,-1.7861236E-3,8.1640464E-4,2.775655E-3,-1.130813E-2,6.895828E-3,-3.7260344E-3,1.0165238E-5,-9.162052E-6,1.3128056E-5,5.892213E-5,-3.4127977E-5,-8.081035E-6,2.738347E-5,-4.538205E-5,2.9268303E-5,1.1161519E-4,7.0619506E-5,-5.416313E-4,3.942572E-4,8.258317E-5,-1.9921709E-4,-0E0],"categories":[],"categories_nodes":[],"categories_segments":[],"categories_sizes":[],"default_left":[0,0,0,0,0,0,0,0,0,0,0,1,0,0,0,0,0,0,0,0,0,0,0,0,0,0,0,0,0,0,0],"id":14,"left_children":[1,3,5,7,9,11,13,15,17,19,21,23,25,27,29,-1,-1,-1,-1,-1,-1,-1,-1,-1,-1,-1,-1,-1,-1,-1,-1],"loss_changes":[1.377724E0,8.048506E-1,1.4771899E0,9.529861E-1,2.6732975E-1,1.0352418E0,1.1998379E0,8.372121E-1,5.322245E-1,1.6758084E-1,1.4322476E-1,1.3791726E0,1.914222E0,3.5073316E-1,2.2997036E0,0E0,0E0,0E0,0E0,0E0,0E0,0E0,0E0,0E0,0E0,0E0,0E0,0E0,0E0,0E0,0E0],"parents":[2147483647,0,0,1,1,2,2,3,3,4,4,5,5,6,6,7,7,8,8,9,9,10,10,11,11,12,12,13,13,14,14],"right_children":[2,4,6,8,10,12,14,16,18,20,22,24,26,28,30,-1,-1,-1,-1,-1,-1,-1,-1,-1,-1,-1,-1,-1,-1,-1,-1],"split_conditions":[1.6711893E-2,1.2E1,1E0,1.1E1,6.1296048E-3,3.7216403E-2,3E0,3E0,1E0,1E0,4E0,3.7138085E-3,1.7E1,-6.1484E-2,5E0,1.0165238E-5,-9.162052E-6,1.3128056E-5,5.892213E-5,-3.4127977E-5,-8.081035E-6,2.738347E-5,-4.538205E-5,2.9268303E-5,1.1161519E-4,7.0619506E-5,-5.416313E-4,3.942572E-4,8.258317E-5,-1.9921709E-4,-0E0],"split_indices":[143,38,23,38,100,56,38,38,21,21,18,89,39,35,38,0,0,0,0,0,0,0,0,0,0,0,0,0,0,0,0],"split_type":[0,0,0,0,0,0,0,0,0,0,0,0,0,0,0,0,0,0,0,0,0,0,0,0,0,0,0,0,0,0,0],"sum_hessian":[4.046491E6,3.608608E6,4.37883E5,3.19209E6,4.16518E5,3.54911E5,8.2972E4,2.812455E6,3.79635E5,3.72933E5,4.3585E4,3.49643E5,5.268E3,1.2468E4,7.0504E4,7.89941E5,2.022514E6,2.96893E5,8.2742E4,2.90939E5,8.1994E4,3.5189E4,8.396E3,2.86432E5,6.3211E4,3.087E3,2.181E3,1.034E3,1.1434E4,2.0946E4,4.9558E4],"tree_param":{"num_deleted":"0","num_feature":"176","num_nodes":"31","size_leaf_vector":"1"}},{"base_weights":[3.3755541E-6,-2.0977428E-4,1.5722958E-3,-4.1135663E-5,-1.493644E-3,7.056021E-4,5.1768464E-3,-2.4236023E-4,1.4400898E-3,-1.761998E-3,8.1346487E-4,3.457848E-3,-2.7180108E-4,-1.6317772E-3,6.543484E-3,1.0228899E-5,-9.413045E-6,1.3190563E-5,5.7720015E-5,-3.3689834E-5,-7.820751E-6,-7.414201E-7,7.2220835E-5,-1.1141576E-5,1.238431E-4,-1.3698187E-7,-2.7041382E-4,-7.299896E-5,2.9560717E-4,8.201502E-5,2.2051821E-4],"categories":[],"categories_nodes":[],"categories_segments":[],"categories_sizes":[],"default_left":[0,0,0,0,0,0,0,0,0,0,0,0,1,0,0,0,0,0,0,0,0,0,0,0,0,0,0,0,0,0,0],"id":15,"left_children":[1,3,5,7,9,11,13,15,17,19,21,23,25,27,29,-1,-1,-1,-1,-1,-1,-1,-1,-1,-1,-1,-1,-1,-1,-1,-1],"loss_changes":[1.3547567E0,7.6978666E-1,1.5081245E0,9.375628E-1,2.565974E-1,1.0547293E0,8.769243E-1,8.556067E-1,4.9820167E-1,1.6379201E-1,1.4093933E-1,1.8512489E0,1.2506016E0,9.1341394E-1,7.7642035E-1,0E0,0E0,0E0,0E0,0E0,0E0,0E0,0E0,0E0,0E0,0E0,0E0,0E0,0E0,0E0,0E0],"parents":[2147483647,0,0,1,1,2,2,3,3,4,4,5,5,6,6,7,7,8,8,9,9,10,10,11,11,12,12,13,13,14,14],"right_children":[2,4,6,8,10,12,14,16,18,20,22,24,26,28,30,-1,-1,-1,-1,-1,-1,-1,-1,-1,-1,-1,-1,-1,-1,-1,-1],"split_conditions":[1.614118E-2,1.2E1,4E0,1.1E1,6.1296048E-3,1E0,3E0,3E0,1E0,1E0,1E0,1E0,4.9628355E-2,4.2427886E-2,7.800772E-3,1.0228899E-5,-9.413045E-6,1.3190563E-5,5.7720015E-5,-3.3689834E-5,-7.820751E-6,-7.414201E-7,7.2220835E-5,-1.1141576E-5,1.238431E-4,-1.3698187E-7,-2.7041382E-4,-7.299896E-5,2.9560717E-4,8.201502E-5,2.2051821E-4],"split_indices":[143,38,18,38,100,18,38,38,21,21,21,26,53,59,66,0,0,0,0,0,0,0,0,0,0,0,0,0,0,0,0],"split_type":[0,0,0,0,0,0,0,0,0,0,0,0,0,0,0,0,0,0,0,0,0,0,0,0,0,0,0,0,0,0,0],"sum_hessian":[4.047075E6,3.562459E6,4.84616E5,3.149538E6,4.12921E5,3.90905E5,9.3711E4,2.773439E6,3.76099E5,3.70282E5,4.2639E4,1.02705E5,2.882E5,1.5544E4,7.8167E4,7.83348E5,1.990091E6,2.94171E5,8.1928E4,2.89079E5,8.1203E4,3.4422E4,8.217E3,5.2215E4,5.049E4,2.83793E5,4.407E3,1.3607E4,1.937E3,6.5764E4,1.2403E4],"tree_param":{"num_deleted":"0","num_feature":"176","num_nodes":"31","size_leaf_vector":"1"}},{"base_weights":[-1.0021788E-6,-2.8554653E-4,1.1597202E-3,-2.9732257E-3,-2.1432385E-4,2.0101739E-3,-2.4140826E-3,-7.5888354E-4,-1.4530877E-2,-4.0230266E-4,5.0724915E-4,5.250124E-4,4.1135987E-3,-7.693096E-3,-1.3789424E-3,-4.5905877E-6,-7.216571E-5,-4.003869E-5,-4.178885E-4,-6.028975E-6,-1.2472874E-4,-2.5257573E-6,2.8607825E-5,-1.5848804E-6,3.7321875E-5,9.4331655E-5,-1.8798208E-5,-1.6679223E-5,-2.613409E-4,-1.61072E-5,-1.5725062E-4],"categories":[],"categories_nodes":[],"categories_segments":[],"categories_sizes":[],"default_left":[0,0,0,0,0,0,0,0,0,0,0,0,0,0,1,0,0,0,0,0,0,0,0,0,0,0,0,0,0,0,0],"id":16,"left_children":[1,3,5,7,9,11,13,15,17,19,21,23,25,27,29,-1,-1,-1,-1,-1,-1,-1,-1,-1,-1,-1,-1,-1,-1,-1,-1],"loss_changes":[1.3353904E0,6.18964E-1,2.4185343E0,2.122824E0,4.2939752E-1,2.0044067E0,8.257373E-1,1.19830385E-1,1.8512397E0,4.346348E-1,5.6244814E-1,4.3068334E-1,2.5523582E0,1.4244163E0,3.8841647E-1,0E0,0E0,0E0,0E0,0E0,0E0,0E0,0E0,0E0,0E0,0E0,0E0,0E0,0E0,0E0,0E0],"parents":[2147483647,0,0,1,1,2,2,3,3,4,4,5,5,6,6,7,7,8,8,9,9,10,10,11,11,12,12,13,13,14,14],"right_children":[2,4,6,8,10,12,14,16,18,20,22,24,26,28,30,-1,-1,-1,-1,-1,-1,-1,-1,-1,-1,-1,-1,-1,-1,-1,-1],"split_conditions":[2.8957042E-3,-1.6306924E-2,1E0,1E0,4E0,1E0,-6.2545002E-3,1.9E1,3E0,7.952143E-2,1E0,1E0,1E0,1E0,2.5402911E-2,-4.5905877E-6,-7.216571E-5,-4.003869E-5,-4.178885E-4,-6.028975E-6,-1.2472874E-4,-2.5257573E-6,2.8607825E-5,-1.5848804E-6,3.7321875E-5,9.4331655E-5,-1.8798208E-5,-1.6679223E-5,-2.613409E-4,-1.61072E-5,-1.5725062E-4],"split_indices":[133,56,23,26,18,26,106,39,18,59,25,21,21,26,99,0,0,0,0,0,0,0,0,0,0,0,0,0,0,0,0],"split_type":[0,0,0,0,0,0,0,0,0,0,0,0,0,0,0,0,0,0,0,0,0,0,0,0,0,0,0,0,0,0,0],"sum_hessian":[4.04586E6,3.249999E6,7.95861E5,8.3537E4,3.166462E6,6.43102E5,1.52759E5,7.0181E4,1.3356E4,2.513135E6,6.53327E5,3.77229E5,2.65873E5,2.4882E4,1.27877E5,6.2635E4,7.546E3,6.636E3,6.72E3,2.505277E6,7.858E3,4.30309E5,2.23018E5,2.80396E5,9.6833E4,1.98273E5,6.76E4,1.4186E4,1.0696E4,1.22691E5,5.186E3],"tree_param":{"num_deleted":"0","num_feature":"176","num_nodes":"31","size_leaf_vector":"1"}},{"base_weights":[3.9947427E-6,-1.8878483E-4,1.5957413E-3,-2.2837961E-5,-1.4554951E-3,2.4654146E-3,-2.1085753E-3,-2.1482134E-4,1.3987422E-3,-1.7201747E-3,7.8403787E-4,4.713284E-4,4.2388514E-3,7.0357258E-3,-3.7290088E-3,9.97439E-6,-8.6713435E-6,1.2519446E-5,5.720965E-5,-4.6946217E-5,-2.1747213E-5,-1.1916411E-6,7.161513E-5,-1.1424553E-5,3.5980283E-5,7.471459E-5,-3.3211152E-4,3.6697442E-4,8.182401E-5,-2.0102969E-4,1.3819431E-7],"categories":[],"categories_nodes":[],"categories_segments":[],"categories_sizes":[],"default_left":[0,0,0,0,0,0,0,0,0,0,0,0,0,0,0,0,0,0,0,0,0,0,0,0,0,0,0,0,0,0,0],"id":17,"left_children":[1,3,5,7,9,11,13,15,17,19,21,23,25,27,29,-1,-1,-1,-1,-1,-1,-1,-1,-1,-1,-1,-1,-1,-1,-1,-1],"loss_changes":[1.243061E0,7.571121E-1,1.4103905E0,8.6982816E-1,2.48299E-1,1.2496169E0,1.2267557E0,7.798544E-1,5.051046E-1,1.5834689E-1,1.4379086E-1,3.5697123E-1,2.1146564E0,3.4838098E-1,2.3597696E0,0E0,0E0,0E0,0E0,0E0,0E0,0E0,0E0,0E0,0E0,0E0,0E0,0E0,0E0,0E0,0E0],"parents":[2147483647,0,0,1,1,2,2,3,3,4,4,5,5,6,6,7,7,8,8,9,9,10,10,11,11,12,12,13,13,14,14],"right_children":[2,4,6,8,10,12,14,16,18,20,22,24,26,28,30,-1,-1,-1,-1,-1,-1,-1,-1,-1,-1,-1,-1,-1,-1,-1,-1],"split_conditions":[1.6711893E-2,1.2E1,1E0,1.1E1,6.1296048E-3,1E0,3E0,3E0,1E0,1E0,1E0,2.3182333E-3,3.7216403E-2,-5.5901356E-2,5E0,9.97439E-6,-8.6713435E-6,1.2519446E-5,5.720965E-5,-4.6946217E-5,-2.1747213E-5,-1.1916411E-6,7.161513E-5,-1.1424553E-5,3.5980283E-5,7.471459E-5,-3.3211152E-4,3.6697442E-4,8.182401E-5,-2.0102969E-4,1.3819431E-7],"split_indices":[143,38,23,38,100,26,38,38,21,18,21,148,56,59,38,0,0,0,0,0,0,0,0,0,0,0,0,0,0,0,0],"split_type":[0,0,0,0,0,0,0,0,0,0,0,0,0,0,0,0,0,0,0,0,0,0,0,0,0,0,0,0,0,0,0],"sum_hessian":[4.046401E6,3.608722E6,4.37679E5,3.191414E6,4.17308E5,3.54679E5,8.3E4,2.812314E6,3.791E5,3.73598E5,4.371E4,1.67219E5,1.8746E5,1.24E4,7.06E4,7.91056E5,2.021258E6,2.96705E5,8.2395E4,8.3078E4,2.9052E5,3.5285E4,8.425E3,1.00111E5,6.7108E4,1.84179E5,3.281E3,1.254E3,1.1146E4,2.0965E4,4.9635E4],"tree_param":{"num_deleted":"0","num_feature":"176","num_nodes":"31","size_leaf_vector":"1"}},{"base_weights":[3.1646896E-6,-2.8930503E-4,1.0899155E-3,-2.934344E-3,-2.2081578E-4,1.9011812E-3,-2.3164956E-3,-7.0981006E-4,-1.4730575E-2,-3.9418708E-4,4.4379945E-4,4.7232021E-4,3.9454964E-3,-7.907646E-3,-1.382075E-3,-3.2447635E-6,-7.512561E-5,-3.91031E-5,-4.241848E-4,-5.910472E-6,-1.2269698E-4,4.805715E-6,6.8269226E-5,-2.1334197E-6,3.5498026E-5,9.119483E-5,-1.999619E-5,-1.7982822E-5,-2.77872E-4,-1.6007361E-5,-1.5457478E-4],"categories":[],"categories_nodes":[],"categories_segments":[],"categories_sizes":[],"default_left":[0,0,0,0,0,0,0,0,0,0,0,0,0,0,1,0,0,0,0,0,0,0,0,0,0,0,0,0,0,0,0],"id":18,"left_children":[1,3,5,7,9,11,13,15,17,19,21,23,25,27,29,-1,-1,-1,-1,-1,-1,-1,-1,-1,-1,-1,-1,-1,-1,-1,-1],"loss_changes":[1.2868985E0,5.7432353E-1,2.3728175E0,2.0862703E0,3.5801542E-1,2.0222974E0,8.525226E-1,1.3192657E-1,1.8176215E0,4.0728706E-1,3.457175E-1,4.373644E-1,2.6460228E0,1.4992263E0,4.3324324E-1,0E0,0E0,0E0,0E0,0E0,0E0,0E0,0E0,0E0,0E0,0E0,0E0,0E0,0E0,0E0,0E0],"parents":[2147483647,0,0,1,1,2,2,3,3,4,4,5,5,6,6,7,7,8,8,9,9,10,10,11,11,12,12,13,13,14,14],"right_children":[2,4,6,8,10,12,14,16,18,20,22,24,26,28,30,-1,-1,-1,-1,-1,-1,-1,-1,-1,-1,-1,-1,-1,-1,-1,-1],"split_conditions":[2.7921682E-3,-1.6306924E-2,1E0,1E0,4E0,1E0,-7.576674E-3,1.9E1,3E0,7.952143E-2,3.0180741E-2,1E0,1E0,1E0,2.5402911E-2,-3.2447635E-6,-7.512561E-5,-3.91031E-5,-4.241848E-4,-5.910472E-6,-1.2269698E-4,4.805715E-6,6.8269226E-5,-2.1334197E-6,3.5498026E-5,9.119483E-5,-1.999619E-5,-1.7982822E-5,-2.77872E-4,-1.6007361E-5,-1.5457478E-4],"split_indices":[133,56,23,26,18,26,100,39,18,59,149,21,21,26,99,0,0,0,0,0,0,0,0,0,0,0,0,0,0,0,0],"split_type":[0,0,0,0,0,0,0,0,0,0,0,0,0,0,0,0,0,0,0,0,0,0,0,0,0,0,0,0,0,0,0],"sum_hessian":[4.04636E6,3.187595E6,8.58765E5,8.0085E4,3.10751E6,6.93819E5,1.64946E5,6.7453E4,1.2632E4,2.465781E6,6.41729E5,4.08671E5,2.85148E5,2.3463E4,1.41483E5,6.0114E4,7.339E3,6.263E3,6.369E3,2.458174E6,7.607E3,6.19112E5,2.2617E4,3.03402E5,1.05269E5,2.12552E5,7.2596E4,1.3781E4,9.682E3,1.35473E5,6.01E3],"tree_param":{"num_deleted":"0","num_feature":"176","num_nodes":"31","size_leaf_vector":"1"}},{"base_weights":[1.2626548E-5,-2.5991484E-4,1.1268145E-3,-3.7406138E-3,-2.1062019E-4,1.953595E-3,-2.3486356E-3,7.3285843E-4,-1.8478492E-2,-3.843161E-4,4.5784097E-4,5.172568E-4,3.983789E-3,-7.0618917E-3,-1.2703527E-3,-3.7688199E-6,5.572376E-5,-1.2692528E-4,-5.843331E-4,-5.743951E-6,-1.2296828E-4,-2.2005024E-6,2.55211E-5,-1.0734472E-6,3.5385063E-5,9.152866E-5,-1.9081319E-5,-2.1099217E-5,-2.316447E-4,-1.4390181E-5,-1.4406144E-4],"categories":[],"categories_nodes":[],"categories_segments":[],"categories_sizes":[],"default_left":[0,0,0,0,0,0,0,0,0,0,0,0,0,0,1,0,0,0,0,0,0,0,0,0,0,0,0,0,0,0,0],"id":19,"left_children":[1,3,5,7,9,11,13,15,17,19,21,23,25,27,29,-1,-1,-1,-1,-1,-1,-1,-1,-1,-1,-1,-1,-1,-1,-1,-1],"loss_changes":[1.2298571E0,5.539031E-1,2.2872918E0,2.9923239E0,3.7217224E-1,1.871645E0,7.681124E-1,9.5942065E-2,1.9753842E0,4.3329954E-1,4.5181453E-1,3.7798274E-1,2.438396E0,1.1980507E0,3.451354E-1,0E0,0E0,0E0,0E0,0E0,0E0,0E0,0E0,0E0,0E0,0E0,0E0,0E0,0E0,0E0,0E0],"parents":[2147483647,0,0,1,1,2,2,3,3,4,4,5,5,6,6,7,7,8,8,9,9,10,10,11,11,12,12,13,13,14,14],"right_children":[2,4,6,8,10,12,14,16,18,20,22,24,26,28,30,-1,-1,-1,-1,-1,-1,-1,-1,-1,-1,-1,-1,-1,-1,-1,-1],"split_conditions":[2.8957042E-3,-4.6524E-2,1E0,1E0,4E0,1E0,-5.466E-3,1E0,1E0,7.952143E-2,1E0,1E0,1E0,1E0,2.4147497E-2,-3.7688199E-6,5.572376E-5,-1.2692528E-4,-5.843331E-4,-5.743951E-6,-1.2296828E-4,-2.2005024E-6,2.55211E-5,-1.0734472E-6,3.5385063E-5,9.152866E-5,-1.9081319E-5,-2.1099217E-5,-2.316447E-4,-1.4390181E-5,-1.4406144E-4],"split_indices":[133,34,23,26,18,26,106,28,23,59,25,21,21,26,99,0,0,0,0,0,0,0,0,0,0,0,0,0,0,0,0],"split_type":[0,0,0,0,0,0,0,0,0,0,0,0,0,0,0,0,0,0,0,0,0,0,0,0,0,0,0,0,0,0,0],"sum_hessian":[4.047242E6,3.251103E6,7.96139E5,4.5115E4,3.205988E6,6.43373E5,1.52766E5,3.4561E4,1.0554E4,2.545928E6,6.6006E5,3.77084E5,2.66289E5,2.8267E4,1.24499E5,2.5329E4,9.232E3,6.731E3,3.823E3,2.537896E6,8.032E3,4.33496E5,2.26564E5,2.80355E5,9.6729E4,1.98812E5,6.7477E4,1.6079E4,1.2188E4,1.19018E5,5.481E3],"tree_param":{"num_deleted":"0","num_feature":"176","num_nodes":"31","size_leaf_vector":"1"}},{"base_weights":[2.3568996E-6,-1.8812687E-4,1.5755397E-3,-2.4501864E-5,-1.4383248E-3,7.280862E-4,5.1074927E-3,-2.1751756E-4,1.4041604E-3,-1.8419062E-3,1.0409944E-5,-2.526326E-4,3.460168E-3,-1.633055E-3,6.439393E-3,9.699756E-6,-8.623857E-6,1.28427455E-5,5.6352153E-5,-3.582616E-5,-6.1788164E-6,-1.7077009E-5,5.134593E-5,4.126685E-6,-1.0825196E-4,-8.812962E-6,1.2047015E-4,-7.269534E-5,3.2056362E-4,8.7009845E-5,2.7189686E-4],"categories":[],"categories_nodes":[],"categories_segments":[],"categories_sizes":[],"default_left":[0,0,0,0,0,0,0,0,0,0,0,0,0,0,0,0,0,0,0,0,0,0,0,0,0,0,0,0,0,0,0],"id":20,"left_children":[1,3,5,7,9,11,13,15,17,19,21,23,25,27,29,-1,-1,-1,-1,-1,-1,-1,-1,-1,-1,-1,-1,-1,-1,-1,-1],"loss_changes":[1.2141922E0,7.369317E-1,1.3042498E0,8.7917346E-1,2.4565226E-1,9.4959545E-1,7.631397E-1,7.534007E-1,4.796691E-1,1.9108784E-1,3.1649208E-1,8.762107E-1,1.5484796E0,8.665286E-1,7.1032286E-1,0E0,0E0,0E0,0E0,0E0,0E0,0E0,0E0,0E0,0E0,0E0,0E0,0E0,0E0,0E0,0E0],"parents":[2147483647,0,0,1,1,2,2,3,3,4,4,5,5,6,6,7,7,8,8,9,9,10,10,11,11,12,12,13,13,14,14],"right_children":[2,4,6,8,10,12,14,16,18,20,22,24,26,28,30,-1,-1,-1,-1,-1,-1,-1,-1,-1,-1,-1,-1,-1,-1,-1,-1],"split_conditions":[1.6711893E-2,1.2E1,1E0,1.1E1,1E0,1E0,3E0,3E0,1E0,1E0,2.8451579E-3,7.252673E-2,1E0,4.6560917E-2,4.853096E-2,9.699756E-6,-8.623857E-6,1.28427455E-5,5.6352153E-5,-3.582616E-5,-6.1788164E-6,-1.7077009E-5,5.134593E-5,4.126685E-6,-1.0825196E-4,-8.812962E-6,1.2047015E-4,-7.269534E-5,3.2056362E-4,8.7009845E-5,2.7189686E-4],"split_indices":[143,38,24,38,21,20,38,38,21,23,152,58,26,59,101,0,0,0,0,0,0,0,0,0,0,0,0,0,0,0,0],"split_type":[0,0,0,0,0,0,0,0,0,0,0,0,0,0,0,0,0,0,0,0,0,0,0,0,0,0,0,0,0,0,0],"sum_hessian":[4.047222E6,3.609545E6,4.37677E5,3.192509E6,4.17036E5,3.53213E5,8.4464E4,2.813144E6,3.79365E5,3.26707E5,9.0329E4,2.59649E5,9.3564E4,1.3813E4,7.0651E4,7.91318E5,2.021826E6,2.96741E5,8.2624E4,2.54609E5,7.2098E4,6.7337E4,2.2992E4,2.40682E5,1.8967E4,4.7187E4,4.6377E4,1.2216E4,1.597E3,6.4805E4,5.846E3],"tree_param":{"num_deleted":"0","num_feature":"176","num_nodes":"31","size_leaf_vector":"1"}},{"base_weights":[-2.7377705E-6,-1.5673302E-4,1.9394616E-3,-3.680933E-4,6.5804773E-4,9.2987565E-4,6.2470906E-3,2.076728E-5,-7.609471E-4,1.4946212E-4,2.3912075E-3,3.850775E-3,-1.754258E-4,5.039152E-3,1.5458212E-2,3.9148734E-5,-2.1568655E-6,-4.85016E-5,-6.653123E-6,-9.542502E-6,2.602598E-5,5.522833E-5,5.190017E-6,3.7391874E-5,1.8512354E-4,2.6124737E-6,-2.9189547E-4,1.1992291E-4,2.4135054E-5,2.607012E-5,3.148666E-4],"categories":[],"categories_nodes":[],"categories_segments":[],"categories_sizes":[],"default_left":[0,0,0,0,0,0,0,0,0,0,0,1,1,0,0,0,0,0,0,0,0,0,0,0,0,0,0,0,0,0,0],"id":21,"left_children":[1,3,5,7,9,11,13,15,17,19,21,23,25,27,29,-1,-1,-1,-1,-1,-1,-1,-1,-1,-1,-1,-1,-1,-1,-1,-1],"loss_changes":[1.2085718E0,6.4549744E-1,1.2836976E0,4.5574635E-1,6.774637E-1,7.805863E-1,6.043358E-1,5.7178E-1,1.1592103E0,6.6454685E-1,3.8448656E-1,7.6072323E-1,1.0924911E0,4.2780304E-1,3.6111498E-1,0E0,0E0,0E0,0E0,0E0,0E0,0E0,0E0,0E0,0E0,0E0,0E0,0E0,0E0,0E0,0E0],"parents":[2147483647,0,0,1,1,2,2,3,3,4,4,5,5,6,6,7,7,8,8,9,9,10,10,11,11,12,12,13,13,14,14],"right_children":[2,4,6,8,10,12,14,16,18,20,22,24,26,28,30,-1,-1,-1,-1,-1,-1,-1,-1,-1,-1,-1,-1,-1,-1,-1,-1],"split_conditions":[1.8837778E-2,4E0,4E0,2E0,2.0127388E-2,1E0,6.0324293E-2,-2.4933197E-2,-3.9942E-3,1E0,1E0,2.8472936E-2,4.9628355E-2,1.7830977E-2,-5.280322E-3,3.9148734E-5,-2.1568655E-6,-4.85016E-5,-6.653123E-6,-9.542502E-6,2.602598E-5,5.522833E-5,5.190017E-6,3.7391874E-5,1.8512354E-4,2.6124737E-6,-2.9189547E-4,1.1992291E-4,2.4135054E-5,2.607012E-5,3.148666E-4],"split_indices":[143,18,18,18,145,18,98,59,126,25,25,99,53,121,118,0,0,0,0,0,0,0,0,0,0,0,0,0,0,0,0],"split_type":[0,0,0,0,0,0,0,0,0,0,0,0,0,0,0,0,0,0,0,0,0,0,0,0,0,0,0,0,0,0,0],"sum_hessian":[4.04674E6,3.749926E6,2.96814E5,2.9785E6,7.71426E5,2.40648E5,5.6166E4,1.495591E6,1.482909E6,5.96858E5,1.74568E5,6.6308E4,1.7434E5,4.9755E4,6.411E3,9.0449E4,1.405142E6,1.93266E5,1.289643E6,3.96347E5,2.00511E5,1.14424E5,6.0144E4,5.5678E4,1.063E4,1.7109E5,3.25E3,2.8979E4,2.0776E4,1.581E3,4.83E3],"tree_param":{"num_deleted":"0","num_feature":"176","num_nodes":"31","size_leaf_vector":"1"}},{"base_weights":[-5.6648933E-6,-2.6861194E-4,1.0665472E-3,-2.8330912E-3,-2.0056615E-4,3.7426795E-4,3.8724074E-3,-7.6743646E-4,-1.3628057E-2,-3.7260013E-4,4.5978365E-4,1.2124211E-3,-2.2839296E-3,1.3600904E-3,7.503895E-3,-3.991599E-6,-6.9205526E-5,-3.4817545E-5,-3.982614E-4,-5.585391E-6,-1.15013085E-4,1.4869503E-6,2.9907906E-5,7.1762945E-5,1.0536972E-5,-1.2039887E-4,-2.2355282E-5,1.231878E-5,2.2576984E-4,9.679026E-5,2.852445E-4],"categories":[],"categories_nodes":[],"categories_segments":[],"categories_sizes":[],"default_left":[0,0,0,0,0,0,0,0,0,0,0,1,0,0,0,0,0,0,0,0,0,0,0,0,0,0,0,0,0,0,0],"id":22,"left_children":[1,3,5,7,9,11,13,15,17,19,21,23,25,27,29,-1,-1,-1,-1,-1,-1,-1,-1,-1,-1,-1,-1,-1,-1,-1,-1],"loss_changes":[1.1400224E0,5.641589E-1,1.5422592E0,1.850632E0,3.5964686E-1,1.4223626E0,1.42605E0,1.254062E-1,1.7119656E0,3.6890197E-1,3.3753118E-1,8.765604E-1,7.0100856E-1,6.852346E-1,9.2784786E-1,0E0,0E0,0E0,0E0,0E0,0E0,0E0,0E0,0E0,0E0,0E0,0E0,0E0,0E0,0E0,0E0],"parents":[2147483647,0,0,1,1,2,2,3,3,4,4,5,5,6,6,7,7,8,8,9,9,10,10,11,11,12,12,13,13,14,14],"right_children":[2,4,6,8,10,12,14,16,18,20,22,24,26,28,30,-1,-1,-1,-1,-1,-1,-1,-1,-1,-1,-1,-1,-1,-1,-1,-1],"split_conditions":[2.8957042E-3,-1.6306924E-2,4E0,1E0,4E0,3E0,1E0,1.8E1,3E0,7.952143E-2,1.1162584E-2,-1.5526E-2,-7.576674E-3,5.2303486E-2,1.6936248E-2,-3.991599E-6,-6.9205526E-5,-3.4817545E-5,-3.982614E-4,-5.585391E-6,-1.15013085E-4,1.4869503E-6,2.9907906E-5,7.1762945E-5,1.0536972E-5,-1.2039887E-4,-2.2355282E-5,1.231878E-5,2.2576984E-4,9.679026E-5,2.852445E-4],"split_indices":[133,56,18,26,18,18,26,39,18,59,59,34,100,101,77,0,0,0,0,0,0,0,0,0,0,0,0,0,0,0,0],"split_type":[0,0,0,0,0,0,0,0,0,0,0,0,0,0,0,0,0,0,0,0,0,0,0,0,0,0,0,0,0,0,0],"sum_hessian":[4.046363E6,3.250215E6,7.96148E5,8.3631E4,3.166584E6,6.38878E5,1.5727E5,7.0279E4,1.3352E4,2.513319E6,6.53265E5,4.8601E5,1.52868E5,9.3124E4,6.4146E4,6.1656E4,8.623E3,6.704E3,6.648E3,2.50547E6,7.849E3,5.19704E5,1.33561E5,6.9359E4,4.16651E5,2.1688E4,1.3118E5,8.9127E4,3.997E3,5.6506E4,7.64E3],"tree_param":{"num_deleted":"0","num_feature":"176","num_nodes":"31","size_leaf_vector":"1"}},{"base_weights":[-1.3846587E-6,-2.7083725E-4,1.0962656E-3,6.0840626E-4,-5.240381E-4,1.8832992E-3,-2.2084506E-3,1.232159E-3,9.305738E-5,-2.6808942E-3,-4.50619E-5,1.3591421E-3,5.548926E-3,-5.7687764E-3,1.5297263E-5,2.3464136E-5,3.0160274E-6,8.966168E-6,-2.3645613E-5,-1.8813644E-5,-1.4198234E-4,4.1689855E-6,-2.2467122E-5,1.2486636E-5,4.9043552E-5,1.0008436E-4,-1.3431415E-4,5.2541887E-5,-2.0302745E-4,1.60058E-5,-6.350086E-5],"categories":[],"categories_nodes":[],"categories_segments":[],"categories_sizes":[],"default_left":[0,0,0,0,0,1,0,0,0,0,0,0,0,0,0,0,0,0,0,0,0,0,0,0,0,0,0,0,0,0,0],"id":23,"left_children":[1,3,5,7,9,11,13,15,17,19,21,23,25,27,29,-1,-1,-1,-1,-1,-1,-1,-1,-1,-1,-1,-1,-1,-1,-1,-1],"loss_changes":[1.1962517E0,7.235323E-1,2.0726345E0,2.3201647E-1,2.60532E0,1.2303741E0,1.2175229E0,8.0752015E-2,2.9449007E-1,4.2753186E0,8.6703634E-1,5.538069E-1,8.24579E-1,3.745235E0,3.696681E-1,0E0,0E0,0E0,0E0,0E0,0E0,0E0,0E0,0E0,0E0,0E0,0E0,0E0,0E0,0E0,0E0],"parents":[2147483647,0,0,1,1,2,2,3,3,4,4,5,5,6,6,7,7,8,8,9,9,10,10,11,11,12,12,13,13,14,14],"right_children":[2,4,6,8,10,12,14,16,18,20,22,24,26,28,30,-1,-1,-1,-1,-1,-1,-1,-1,-1,-1,-1,-1,-1,-1,-1,-1],"split_conditions":[2.8957042E-3,3E0,1E0,7.5914715E-3,5E0,1.8750058E-2,5E0,2.9717872E-3,1E0,1E0,1.2E1,1E0,3.7216403E-2,3E0,1.1E1,2.3464136E-5,3.0160274E-6,8.966168E-6,-2.3645613E-5,-1.8813644E-5,-1.4198234E-4,4.1689855E-6,-2.2467122E-5,1.2486636E-5,4.9043552E-5,1.0008436E-4,-1.3431415E-4,5.2541887E-5,-2.0302745E-4,1.60058E-5,-6.350086E-5],"split_indices":[133,38,23,121,38,163,38,122,24,23,38,24,56,38,38,0,0,0,0,0,0,0,0,0,0,0,0,0,0,0,0],"split_type":[0,0,0,0,0,0,0,0,0,0,0,0,0,0,0,0,0,0,0,0,0,0,0,0,0,0,0,0,0,0,0],"sum_hessian":[4.047366E6,3.250368E6,7.96998E5,7.25866E5,2.524502E6,6.43942E5,1.53056E5,3.27521E5,3.98345E5,4.58366E5,2.066136E6,5.63624E5,8.0318E4,5.9013E4,9.4043E4,2.65206E5,6.2315E4,3.07413E5,9.0932E4,3.69633E5,8.8733E4,1.686498E6,3.79638E5,4.22873E5,1.40751E5,7.6372E4,3.946E3,2.5607E4,3.3406E4,7.56E4,1.8443E4],"tree_param":{"num_deleted":"0","num_feature":"176","num_nodes":"31","size_leaf_vector":"1"}},{"base_weights":[4.1831886E-6,-1.8037936E-4,1.5290331E-3,-2.4292784E-5,-1.3721074E-3,7.0184947E-4,4.979917E-3,-2.1328412E-4,1.3740382E-3,-1.6385403E-3,8.8508055E-4,3.2689518E-3,-2.222477E-4,-1.9356009E-3,6.3384115E-3,9.42688E-6,-8.424773E-6,1.2649509E-5,5.4853663E-5,-4.5726396E-5,-2.0420008E-5,2.8592016E-5,-4.5015764E-5,-9.680219E-6,1.1526065E-4,6.998624E-7,-2.635491E-4,-8.024729E-5,2.8940823E-4,8.534534E-5,2.728568E-4],"categories":[],"categories_nodes":[],"categories_segments":[],"categories_sizes":[],"default_left":[0,0,0,0,0,0,0,0,0,0,0,0,0,0,0,0,0,0,0,0,0,0,0,0,0,0,0,0,0,0,0],"id":24,"left_children":[1,3,5,7,9,11,13,15,17,19,21,23,25,27,29,-1,-1,-1,-1,-1,-1,-1,-1,-1,-1,-1,-1,-1,-1,-1,-1],"loss_changes":[1.1399535E0,6.698272E-1,1.2429191E0,8.42217E-1,2.5161958E-1,8.4058106E-1,7.967727E-1,7.148919E-1,4.5110333E-1,1.5991521E-1,1.4649504E-1,1.4488908E0,1.1434869E0,8.442742E-1,7.237568E-1,0E0,0E0,0E0,0E0,0E0,0E0,0E0,0E0,0E0,0E0,0E0,0E0,0E0,0E0,0E0,0E0],"parents":[2147483647,0,0,1,1,2,2,3,3,4,4,5,5,6,6,7,7,8,8,9,9,10,10,11,11,12,12,13,13,14,14],"right_children":[2,4,6,8,10,12,14,16,18,20,22,24,26,28,30,-1,-1,-1,-1,-1,-1,-1,-1,-1,-1,-1,-1,-1,-1,-1,-1],"split_conditions":[1.6711893E-2,1.2E1,4E0,1.1E1,6.1296048E-3,1E0,3E0,3E0,1E0,1E0,4E0,1E0,3.7216403E-2,4.2427886E-2,4.853096E-2,9.42688E-6,-8.424773E-6,1.2649509E-5,5.4853663E-5,-4.5726396E-5,-2.0420008E-5,2.8592016E-5,-4.5015764E-5,-9.680219E-6,1.1526065E-4,6.998624E-7,-2.635491E-4,-8.024729E-5,2.8940823E-4,8.534534E-5,2.728568E-4],"split_indices":[143,38,18,38,100,18,38,38,21,18,18,26,56,59,101,0,0,0,0,0,0,0,0,0,0,0,0,0,0,0,0],"split_type":[0,0,0,0,0,0,0,0,0,0,0,0,0,0,0,0,0,0,0,0,0,0,0,0,0,0,0,0,0,0,0],"sum_hessian":[4.045813E6,3.608416E6,4.37397E5,3.191275E6,4.17141E5,3.5306E5,8.4337E4,2.81194E6,3.79335E5,3.73495E5,4.3646E4,9.3734E4,2.59326E5,1.3727E4,7.061E4,7.91151E5,2.020789E6,2.96737E5,8.2598E4,8.3104E4,2.90391E5,3.5266E4,8.38E3,4.7292E4,4.6442E4,2.5511E5,4.216E3,1.1937E4,1.79E3,6.4828E4,5.782E3],"tree_param":{"num_deleted":"0","num_feature":"176","num_nodes":"31","size_leaf_vector":"1"}},{"base_weights":[-2.347517E-6,-2.564177E-4,1.0341806E-3,-2.793853E-3,-1.8915471E-4,1.7949516E-3,-2.165807E-3,-3.914023E-3,2.28966E-4,-3.5601392E-4,4.5162975E-4,1.3177984E-3,5.5053853E-3,-7.514054E-3,-1.2686629E-3,-2.6476231E-5,-1.06666135E-4,-1.2402216E-5,7.747996E-5,-5.3153944E-6,-1.14871415E-4,4.88608E-6,6.579613E-5,1.1683788E-5,4.891753E-5,9.995121E-5,-1.3203752E-4,1.05682506E-4,-1.5035232E-4,-1.3996548E-5,-1.406814E-4],"categories":[],"categories_nodes":[],"categories_segments":[],"categories_sizes":[],"default_left":[0,0,0,0,0,1,0,0,0,0,0,0,0,0,1,0,0,0,0,0,0,0,0,0,0,0,0,0,0,0,0],"id":25,"left_children":[1,3,5,7,9,11,13,15,17,19,21,23,25,27,29,-1,-1,-1,-1,-1,-1,-1,-1,-1,-1,-1,-1,-1,-1,-1,-1],"loss_changes":[1.0650655E0,5.51946E-1,1.9374152E0,2.86659E-1,3.3859476E-1,1.132201E0,7.236416E-1,3.7540394E-1,1.0855142E-1,3.7586984E-1,3.4369063E-1,5.8047897E-1,7.754922E-1,5.9666777E-1,3.7624347E-1,0E0,0E0,0E0,0E0,0E0,0E0,0E0,0E0,0E0,0E0,0E0,0E0,0E0,0E0,0E0,0E0],"parents":[2147483647,0,0,1,1,2,2,3,3,4,4,5,5,6,6,7,7,8,8,9,9,10,10,11,11,12,12,13,13,14,14],"right_children":[2,4,6,8,10,12,14,16,18,20,22,24,26,28,30,-1,-1,-1,-1,-1,-1,-1,-1,-1,-1,-1,-1,-1,-1,-1,-1],"split_conditions":[2.8957042E-3,-1.6306924E-2,1E0,1E0,4E0,1.9679843E-2,-7.576674E-3,3E0,4E0,7.952143E-2,3.0180741E-2,3E0,3.7216403E-2,-9.729688E-3,2.4147497E-2,-2.6476231E-5,-1.06666135E-4,-1.2402216E-5,7.747996E-5,-5.3153944E-6,-1.14871415E-4,4.88608E-6,6.579613E-5,1.1683788E-5,4.891753E-5,9.995121E-5,-1.3203752E-4,1.05682506E-4,-1.5035232E-4,-1.3996548E-5,-1.406814E-4],"split_indices":[133,56,23,28,18,99,100,18,18,59,149,18,56,118,99,0,0,0,0,0,0,0,0,0,0,0,0,0,0,0,0],"split_type":[0,0,0,0,0,0,0,0,0,0,0,0,0,0,0,0,0,0,0,0,0,0,0,0,0,0,0,0,0,0,0],"sum_hessian":[4.047203E6,3.251232E6,7.95971E5,8.3574E4,3.167658E6,6.43335E5,1.52636E5,6.1216E4,2.2358E4,2.514449E6,6.53209E5,5.70272E5,7.3063E4,2.1763E4,1.30873E5,3.4046E4,2.717E4,1.8193E4,4.165E3,2.506471E6,7.978E3,6.28742E5,2.4467E4,4.28232E5,1.4204E5,6.9266E4,3.797E3,2.546E3,1.9217E4,1.2459E5,6.283E3],"tree_param":{"num_deleted":"0","num_feature":"176","num_nodes":"31","size_leaf_vector":"1"}},{"base_weights":[3.5531534E-7,-1.4609132E-4,1.856867E-3,3.2813102E-6,-1.3128445E-3,9.0857915E-4,5.8955657E-3,-2.520741E-4,9.844556E-4,-2.704884E-3,-9.108804E-4,3.7237138E-3,-1.5942378E-4,4.739448E-3,1.4776204E-2,-1.6933021E-5,7.0292635E-6,-4.945635E-5,1.9587536E-5,-3.107143E-5,-6.9179165E-5,-2.0122392E-5,2.2343102E-5,8.0661186E-5,-1.1536381E-4,2.7956135E-6,-2.8683513E-4,6.2324248E-6,1.15901385E-4,2.1714097E-6,2.9817194E-4],"categories":[],"categories_nodes":[],"categories_segments":[],"categories_sizes":[],"default_left":[0,0,0,0,0,0,0,0,0,0,0,0,1,0,0,0,0,0,0,0,0,0,0,0,0,0,0,0,0,0,0],"id":26,"left_children":[1,3,5,7,9,11,13,15,17,19,21,23,25,27,29,-1,-1,-1,-1,-1,-1,-1,-1,-1,-1,-1,-1,-1,-1,-1,-1],"loss_changes":[1.102109E0,6.5502644E-1,1.1284863E0,8.3368254E-1,2.3503566E-1,7.25899E-1,5.570272E-1,1.4842266E0,6.884557E-1,1.1110228E-1,2.7039468E-1,9.739544E-1,1.0578121E0,5.420842E-1,3.4935558E-1,0E0,0E0,0E0,0E0,0E0,0E0,0E0,0E0,0E0,0E0,0E0,0E0,0E0,0E0,0E0,0E0],"parents":[2147483647,0,0,1,1,2,2,3,3,4,4,5,5,6,6,7,7,8,8,9,9,10,10,11,11,12,12,13,13,14,14],"right_children":[2,4,6,8,10,12,14,16,18,20,22,24,26,28,30,-1,-1,-1,-1,-1,-1,-1,-1,-1,-1,-1,-1,-1,-1,-1,-1],"split_conditions":[1.8837778E-2,1.2E1,4E0,4E0,1E0,1E0,6.0324293E-2,6E0,-2.7674928E-2,3.7937718E-3,5.471188E-3,1E0,4.9628355E-2,1E0,-6.271497E-3,-1.6933021E-5,7.0292635E-6,-4.945635E-5,1.9587536E-5,-3.107143E-5,-6.9179165E-5,-2.0122392E-5,2.2343102E-5,8.0661186E-5,-1.1536381E-4,2.7956135E-6,-2.8683513E-4,6.2324248E-6,1.15901385E-4,2.1714097E-6,2.9817194E-4],"split_indices":[143,38,18,18,18,18,98,38,59,57,100,28,53,26,118,0,0,0,0,0,0,0,0,0,0,0,0,0,0,0,0],"split_type":[0,0,0,0,0,0,0,0,0,0,0,0,0,0,0,0,0,0,0,0,0,0,0,0,0,0,0,0,0,0,0],"sum_hessian":[4.047413E6,3.750994E6,2.96419E5,3.324528E6,4.26466E5,2.40257E5,5.6162E4,2.637181E6,6.87347E5,9.4996E4,3.3147E5,6.6332E4,1.73925E5,4.9797E4,6.365E3,1.216056E6,1.421125E6,3.8696E4,6.48651E5,6.5494E4,2.9502E4,2.88001E5,4.3469E4,5.9186E4,7.146E3,1.70671E5,3.254E3,1.8502E4,3.1295E4,1.406E3,4.959E3],"tree_param":{"num_deleted":"0","num_feature":"176","num_nodes":"31","size_leaf_vector":"1"}},{"base_weights":[-6.2466333E-6,-1.9570593E-4,1.38555E-3,-4.4410423E-5,-1.345503E-3,2.1311815E-3,-1.78989E-3,-2.3272692E-4,1.3412674E-3,-1.6039596E-3,7.985931E-4,3.3484693E-4,3.7817073E-3,6.69811E-3,-3.3383206E-3,9.293021E-6,-8.831077E-6,2.8727407E-5,-1.6438353E-5,-4.4045246E-5,-2.0208858E-5,2.7415042E-5,-4.7686524E-5,-1.298699E-5,3.1048985E-5,3.1381358E-5,1.3992516E-4,4.1365824E-4,8.158952E-5,-1.8730841E-4,2.3285081E-6],"categories":[],"categories_nodes":[],"categories_segments":[],"categories_sizes":[],"default_left":[0,0,0,0,0,0,0,0,0,0,0,0,0,0,0,0,0,0,0,0,0,0,0,0,0,0,0,0,0,0,0],"id":27,"left_children":[1,3,5,7,9,11,13,15,17,19,21,23,25,27,29,-1,-1,-1,-1,-1,-1,-1,-1,-1,-1,-1,-1,-1,-1,-1,-1],"loss_changes":[1.0658696E0,6.1833376E-1,1.1468503E0,8.2060003E-1,2.2993946E-1,1.1593292E0,1.2036729E0,7.2837955E-1,4.13805E-1,1.397475E-1,1.5303983E-1,3.5073254E-1,1.8403115E0,3.957417E-1,2.294084E0,0E0,0E0,0E0,0E0,0E0,0E0,0E0,0E0,0E0,0E0,0E0,0E0,0E0,0E0,0E0,0E0],"parents":[2147483647,0,0,1,1,2,2,3,3,4,4,5,5,6,6,7,7,8,8,9,9,10,10,11,11,12,12,13,13,14,14],"right_children":[2,4,6,8,10,12,14,16,18,20,22,24,26,28,30,-1,-1,-1,-1,-1,-1,-1,-1,-1,-1,-1,-1,-1,-1,-1,-1],"split_conditions":[1.614118E-2,1.2E1,1E0,1.1E1,6.012768E-3,1E0,3E0,3E0,1E0,1E0,4E0,8.9216285E-4,5.8392147E-3,-6.581666E-2,5E0,9.293021E-6,-8.831077E-6,2.8727407E-5,-1.6438353E-5,-4.4045246E-5,-2.0208858E-5,2.7415042E-5,-4.7686524E-5,-1.298699E-5,3.1048985E-5,3.1381358E-5,1.3992516E-4,4.1365824E-4,8.158952E-5,-1.8730841E-4,2.3285081E-6],"split_indices":[143,38,23,38,100,26,38,38,23,18,18,140,88,59,38,0,0,0,0,0,0,0,0,0,0,0,0,0,0,0,0],"split_type":[0,0,0,0,0,0,0,0,0,0,0,0,0,0,0,0,0,0,0,0,0,0,0,0,0,0,0,0,0,0,0],"sum_hessian":[4.046616E6,3.562398E6,4.84218E5,3.148916E6,4.13482E5,3.92393E5,9.1825E4,2.772805E6,3.76111E5,3.69415E5,4.4067E4,1.88187E5,2.04206E5,1.4066E4,7.7759E4,7.83192E5,1.989613E6,3.15106E5,6.1005E4,8.1996E4,2.87419E5,3.5655E4,8.412E3,1.09542E5,7.8645E4,1.50095E5,5.4111E4,1.01E3,1.3056E4,2.2834E4,5.4925E4],"tree_param":{"num_deleted":"0","num_feature":"176","num_nodes":"31","size_leaf_vector":"1"}},{"base_weights":[-4.9803484E-6,-1.4739968E-4,1.6946612E-3,-3.571574E-3,-1.0077959E-4,7.8065E-4,5.58043E-3,-7.078491E-5,-1.6919719E-2,-2.9436452E-4,6.4588606E-4,-2.2990229E-4,3.461268E-3,1.2380253E-3,7.85762E-3,3.2457672E-5,-3.5112083E-5,-1.2700005E-4,-5.8830646E-4,-1.8465814E-6,-1.098952E-5,1.5879186E-6,3.662011E-5,1.6475959E-6,-2.9228601E-4,7.683651E-5,-1.1398284E-4,-4.1390154E-5,6.00987E-5,1.0337345E-4,2.7707653E-4],"categories":[],"categories_nodes":[],"categories_segments":[],"categories_sizes":[],"default_left":[0,0,0,0,0,0,0,0,0,0,0,1,0,0,0,0,0,0,0,0,0,0,0,0,0,0,0,0,0,0,0],"id":28,"left_children":[1,3,5,7,9,11,13,15,17,19,21,23,25,27,29,-1,-1,-1,-1,-1,-1,-1,-1,-1,-1,-1,-1,-1,-1,-1,-1],"loss_changes":[9.782203E-1,5.926172E-1,1.1031982E0,2.3142235E0,5.3233147E-1,6.888856E-1,5.7714975E-1,1.7833415E-1,1.8000903E0,2.0588759E-1,6.819608E-1,1.1271465E0,1.0052018E0,2.0114525E-1,4.8085666E-1,0E0,0E0,0E0,0E0,0E0,0E0,0E0,0E0,0E0,0E0,0E0,0E0,0E0,0E0,0E0,0E0],"parents":[2147483647,0,0,1,1,2,2,3,3,4,4,5,5,6,6,7,7,8,8,9,9,10,10,11,11,12,12,13,13,14,14],"right_children":[2,4,6,8,10,12,14,16,18,20,22,24,26,28,30,-1,-1,-1,-1,-1,-1,-1,-1,-1,-1,-1,-1,-1,-1,-1,-1],"split_conditions":[1.857076E-2,-3.7259646E-2,1E0,1E0,1E0,1E0,4.4427076E-3,1E0,1E0,1E0,1.942285E-2,4.9628355E-2,1E0,1E0,5.060803E-2,3.2457672E-5,-3.5112083E-5,-1.2700005E-4,-5.8830646E-4,-1.8465814E-6,-1.098952E-5,1.5879186E-6,3.662011E-5,1.6475959E-6,-2.9228601E-4,7.683651E-5,-1.1398284E-4,-4.1390154E-5,6.00987E-5,1.0337345E-4,2.7707653E-4],"split_indices":[143,57,24,26,24,20,132,25,23,25,145,53,28,26,107,0,0,0,0,0,0,0,0,0,0,0,0,0,0,0,0],"split_type":[0,0,0,0,0,0,0,0,0,0,0,0,0,0,0,0,0,0,0,0,0,0,0,0,0,0,0,0,0,0,0],"sum_hessian":[4.047531E6,3.735137E6,3.12394E5,4.9881E4,3.685256E6,2.53116E5,5.9278E4,3.9579E4,1.0302E4,2.927568E6,7.57688E5,1.83553E5,6.9563E4,2.0544E4,3.8734E4,1.9673E4,1.9906E4,7.159E3,3.143E3,2.019571E6,9.07997E5,5.70025E5,1.87663E5,1.80188E5,3.365E3,6.1731E4,7.832E3,8.019E3,1.2525E4,3.3979E4,4.755E3],"tree_param":{"num_deleted":"0","num_feature":"176","num_nodes":"31","size_leaf_vector":"1"}},{"base_weights":[1.1918724E-5,-2.5035173E-4,9.865697E-4,6.222074E-4,-5.0332263E-4,1.7194928E-3,-2.0887656E-3,1.2355056E-3,1.107248E-4,-2.6352503E-3,-3.5997356E-5,4.111034E-4,3.5908355E-3,-5.558558E-3,8.1996935E-5,2.4061603E-5,6.955665E-6,9.237075E-6,-2.3408897E-5,-1.8990126E-5,-1.3725965E-4,3.9686583E-6,-2.0669899E-5,-2.6137134E-6,3.2567525E-5,3.2663556E-5,1.1853652E-4,5.0815466E-5,-1.9583499E-4,1.6516042E-5,-5.964842E-5],"categories":[],"categories_nodes":[],"categories_segments":[],"categories_sizes":[],"default_left":[0,0,0,0,0,0,0,0,0,0,0,0,0,0,0,0,0,0,0,0,0,0,0,0,0,0,0,0,0,0,0],"id":29,"left_children":[1,3,5,7,9,11,13,15,17,19,21,23,25,27,29,-1,-1,-1,-1,-1,-1,-1,-1,-1,-1,-1,-1,-1,-1,-1,-1],"loss_changes":[1.0353681E0,7.036897E-1,1.9358635E0,2.2319245E-1,2.4609637E0,1.6951435E0,1.248718E0,6.9479465E-2,2.8930187E-1,3.825214E0,7.311703E-1,3.860337E-1,1.6825588E0,3.765132E0,3.6791733E-1,0E0,0E0,0E0,0E0,0E0,0E0,0E0,0E0,0E0,0E0,0E0,0E0,0E0,0E0,0E0,0E0],"parents":[2147483647,0,0,1,1,2,2,3,3,4,4,5,5,6,6,7,7,8,8,9,9,10,10,11,11,12,12,13,13,14,14],"right_children":[2,4,6,8,10,12,14,16,18,20,22,24,26,28,30,-1,-1,-1,-1,-1,-1,-1,-1,-1,-1,-1,-1,-1,-1,-1,-1],"split_conditions":[2.7921682E-3,3E0,1E0,7.5914715E-3,5E0,1E0,5E0,2.3495161E-3,4E0,1E0,1.2E1,1.4722754E-3,3.353603E-3,3E0,1.1E1,2.4061603E-5,6.955665E-6,9.237075E-6,-2.3408897E-5,-1.8990126E-5,-1.3725965E-4,3.9686583E-6,-2.0669899E-5,-2.6137134E-6,3.2567525E-5,3.2663556E-5,1.1853652E-4,5.0815466E-5,-1.9583499E-4,1.6516042E-5,-5.964842E-5],"split_indices":[133,38,23,121,38,26,38,122,18,23,38,140,89,38,38,0,0,0,0,0,0,0,0,0,0,0,0,0,0,0,0],"split_type":[0,0,0,0,0,0,0,0,0,0,0,0,0,0,0,0,0,0,0,0,0,0,0,0,0,0,0,0,0,0,0],"sum_hessian":[4.047521E6,3.188506E6,8.59015E5,7.15757E5,2.472749E6,6.93954E5,1.65061E5,3.24599E5,3.91158E5,4.44196E5,2.028553E6,4.08722E5,2.85232E5,6.3697E4,1.01364E5,2.40438E5,8.4161E4,3.02094E5,8.9064E4,3.58041E5,8.6155E4,1.653968E6,3.74585E5,3.01853E5,1.06869E5,2.03976E5,8.1256E4,2.7651E4,3.6046E4,8.1331E4,2.0033E4],"tree_param":{"num_deleted":"0","num_feature":"176","num_nodes":"31","size_leaf_vector":"1"}},{"base_weights":[-1.1489236E-7,-2.118397E-4,1.1249243E-3,6.06992E-4,-4.441157E-4,4.516504E-4,3.8521728E-3,1.2002578E-3,1.2876917E-4,-2.3839471E-3,-2.0097066E-6,1.2571192E-3,-2.1203326E-3,1.1985783E-3,7.5998832E-3,2.3172226E-5,6.403078E-6,9.803075E-6,-2.4042252E-5,-5.822848E-5,5.4573953E-5,4.425807E-6,-2.019272E-5,7.473083E-5,1.1202279E-5,-9.070336E-5,1.418584E-6,8.274707E-6,2.3578564E-4,4.8392886E-4,1.1016246E-4],"categories":[],"categories_nodes":[],"categories_segments":[],"categories_sizes":[],"default_left":[0,0,0,0,0,0,0,0,0,0,0,1,0,0,0,0,0,0,0,0,0,0,0,0,0,0,0,0,0,0,0],"id":30,"left_children":[1,3,5,7,9,11,13,15,17,19,21,23,25,27,29,-1,-1,-1,-1,-1,-1,-1,-1,-1,-1,-1,-1,-1,-1,-1,-1],"loss_changes":[9.6309125E-1,6.477913E-1,1.1713445E0,2.1200398E-1,2.2744937E0,1.0635341E0,1.2489899E0,6.622821E-2,3.319291E-1,3.6409447E0,7.673591E-1,7.39441E-1,9.7117317E-1,6.703499E-1,7.748375E-1,0E0,0E0,0E0,0E0,0E0,0E0,0E0,0E0,0E0,0E0,0E0,0E0,0E0,0E0,0E0,0E0],"parents":[2147483647,0,0,1,1,2,2,3,3,4,4,5,5,6,6,7,7,8,8,9,9,10,10,11,11,12,12,13,13,14,14],"right_children":[2,4,6,8,10,12,14,16,18,20,22,24,26,28,30,-1,-1,-1,-1,-1,-1,-1,-1,-1,-1,-1,-1,-1,-1,-1,-1],"split_conditions":[3.2152792E-3,3E0,4E0,7.5914715E-3,5E0,3E0,1E0,2.4913E-3,4E0,4E0,1.2E1,-1.7122475E-2,5E0,5.2303486E-2,-1.9306855E-2,2.3172226E-5,6.403078E-6,9.803075E-6,-2.4042252E-5,-5.822848E-5,5.4573953E-5,4.425807E-6,-2.019272E-5,7.473083E-5,1.1202279E-5,-9.070336E-5,1.418584E-6,8.274707E-6,2.3578564E-4,4.8392886E-4,1.1016246E-4],"split_indices":[133,38,18,121,38,18,26,126,18,18,38,59,38,101,100,0,0,0,0,0,0,0,0,0,0,0,0,0,0,0,0],"split_type":[0,0,0,0,0,0,0,0,0,0,0,0,0,0,0,0,0,0,0,0,0,0,0,0,0,0,0,0,0,0,0],"sum_hessian":[4.04702E6,3.406773E6,6.40247E5,7.51891E5,2.654882E6,5.13779E5,1.26468E5,3.34653E5,4.17238E5,4.92347E5,2.162535E6,3.91546E5,1.22233E5,7.42E4,5.2268E4,2.52719E5,8.1934E4,3.22136E5,9.5102E4,4.0404E5,8.8307E4,1.770314E6,3.92221E5,5.409E4,3.37456E5,4.6854E4,7.5379E4,7.0747E4,3.453E3,1.472E3,5.0796E4],"tree_param":{"num_deleted":"0","num_feature":"176","num_nodes":"31","size_leaf_vector":"1"}},{"base_weights":[-2.4861595E-6,-2.3721014E-4,1.0019611E-3,6.069178E-4,-4.7981317E-4,1.723105E-3,-2.0298532E-3,1.0399796E-3,-7.0156835E-5,-2.4722735E-3,-3.5009783E-5,3.6239566E-4,3.6381236E-3,-5.4270136E-3,8.451078E-5,2.085088E-5,2.0317145E-6,7.738686E-6,-3.1348543E-5,-1.6182945E-5,-1.3581464E-4,3.849063E-6,-2.0213354E-5,-3.8089913E-6,3.2565167E-5,1.6516184E-4,4.315195E-5,5.504756E-5,-1.9426123E-4,1.6514536E-5,-6.046879E-5],"categories":[],"categories_nodes":[],"categories_segments":[],"categories_sizes":[],"default_left":[0,0,0,0,0,0,0,0,0,0,0,0,0,0,0,0,0,0,0,0,0,0,0,0,0,0,0,0,0,0,0],"id":31,"left_children":[1,3,5,7,9,11,13,15,17,19,21,23,25,27,29,-1,-1,-1,-1,-1,-1,-1,-1,-1,-1,-1,-1,-1,-1,-1,-1],"loss_changes":[9.532745E-1,6.717447E-1,1.6737881E0,2.1544898E-1,2.2568474E0,1.6085488E0,1.0602212E0,1.08436376E-1,3.0178612E-1,4.089613E0,7.1295387E-1,3.682802E-1,1.5918899E0,3.4090424E0,3.3133E-1,0E0,0E0,0E0,0E0,0E0,0E0,0E0,0E0,0E0,0E0,0E0,0E0,0E0,0E0,0E0,0E0],"parents":[2147483647,0,0,1,1,2,2,3,3,4,4,5,5,6,6,7,7,8,8,9,9,10,10,11,11,12,12,13,13,14,14],"right_children":[2,4,6,8,10,12,14,16,18,20,22,24,26,28,30,-1,-1,-1,-1,-1,-1,-1,-1,-1,-1,-1,-1,-1,-1,-1,-1],"split_conditions":[2.9515277E-3,3E0,1E0,9.168E-3,5E0,1E0,5E0,2.820661E-3,4E0,1E0,1.2E1,1.4722754E-3,-1.7122475E-2,3E0,1.1E1,2.085088E-5,2.0317145E-6,7.738686E-6,-3.1348543E-5,-1.6182945E-5,-1.3581464E-4,3.849063E-6,-2.0213354E-5,-3.8089913E-6,3.2565167E-5,1.6516184E-4,4.315195E-5,5.504756E-5,-1.9426123E-4,1.6514536E-5,-6.046879E-5],"split_indices":[133,38,23,121,38,26,38,122,18,23,38,140,59,38,38,0,0,0,0,0,0,0,0,0,0,0,0,0,0,0,0],"split_type":[0,0,0,0,0,0,0,0,0,0,0,0,0,0,0,0,0,0,0,0,0,0,0,0,0,0,0,0,0,0,0],"sum_hessian":[4.046485E6,3.280802E6,7.65683E5,7.31496E5,2.549306E6,6.1882E5,1.46863E5,4.47033E5,2.84463E5,4.64841E5,2.084465E6,3.62073E5,2.56747E5,5.6518E4,9.0345E4,3.44302E5,1.02731E5,2.19611E5,6.4852E4,3.74879E5,8.9962E4,1.70208E6,3.82385E5,2.6628E5,9.5793E4,3.0977E4,2.2577E5,2.4384E4,3.2134E4,7.2751E4,1.7594E4],"tree_param":{"num_deleted":"0","num_feature":"176","num_nodes":"31","size_leaf_vector":"1"}},{"base_weights":[5.3140593E-7,-2.500814E-4,9.322504E-4,-2.4228895E-3,-1.786352E-4,1.6422038E-3,-2.047864E-3,-6.192346E-4,-1.2549432E-2,-1.6529318E-4,-6.1972793E-3,3.7705404E-4,3.4522247E-3,-7.138212E-3,-1.1963759E-3,9.239432E-6,-2.8342358E-5,-2.722923E-4,2.2735876E-4,-3.271547E-6,3.055934E-5,-2.9391762E-5,-3.7618182E-4,-3.3781334E-6,3.325019E-5,8.1718084E-5,-2.3177148E-5,-1.2017155E-5,-2.5628897E-4,-1.3055777E-5,-1.3641678E-4],"categories":[],"categories_nodes":[],"categories_segments":[],"categories_sizes":[],"default_left":[0,0,0,0,0,0,0,0,0,0,0,0,0,0,1,0,0,0,0,0,0,0,0,0,0,0,0,0,0,0,0],"id":32,"left_children":[1,3,5,7,9,11,13,15,17,19,21,23,25,27,29,-1,-1,-1,-1,-1,-1,-1,-1,-1,-1,-1,-1,-1,-1,-1,-1],"loss_changes":[9.4576454E-1,4.924305E-1,1.8165281E0,1.8329499E0,2.416269E-1,1.5849859E0,7.066766E-1,1.2073252E-1,1.8583777E0,2.5608838E-1,4.799577E-1,4.138418E-1,2.353375E0,1.3250326E0,3.8330102E-1,0E0,0E0,0E0,0E0,0E0,0E0,0E0,0E0,0E0,0E0,0E0,0E0,0E0,0E0,0E0,0E0],"parents":[2147483647,0,0,1,1,2,2,3,3,4,4,5,5,6,6,7,7,8,8,9,9,10,10,11,11,12,12,13,13,14,14],"right_children":[2,4,6,8,10,12,14,16,18,20,22,24,26,28,30,-1,-1,-1,-1,-1,-1,-1,-1,-1,-1,-1,-1,-1,-1,-1,-1],"split_conditions":[2.7921682E-3,-1.4780081E-2,1E0,1E0,3.7216403E-2,1E0,-7.576674E-3,1E0,1E0,4.3686055E-2,1.8E1,1E0,1E0,1E0,2.4147497E-2,9.239432E-6,-2.8342358E-5,-2.722923E-4,2.2735876E-4,-3.271547E-6,3.055934E-5,-2.9391762E-5,-3.7618182E-4,-3.3781334E-6,3.325019E-5,8.1718084E-5,-2.3177148E-5,-1.2017155E-5,-2.5628897E-4,-1.3055777E-5,-1.3641678E-4],"split_indices":[133,56,23,26,56,26,100,25,20,76,39,21,21,26,99,0,0,0,0,0,0,0,0,0,0,0,0,0,0,0,0],"split_type":[0,0,0,0,0,0,0,0,0,0,0,0,0,0,0,0,0,0,0,0,0,0,0,0,0,0,0,0,0,0,0],"sum_hessian":[4.047466E6,3.188709E6,8.58757E5,1.01067E5,3.087642E6,6.93806E5,1.64951E5,8.5874E4,1.5193E4,3.080981E6,6.661E3,4.08694E5,2.85112E5,2.3467E4,1.41484E5,4.181E4,4.4064E4,1.3023E4,2.17E3,3.023232E6,5.7749E4,5.379E3,1.282E3,3.03575E5,1.05119E5,2.12576E5,7.2536E4,1.3768E4,9.699E3,1.34739E5,6.745E3],"tree_param":{"num_deleted":"0","num_feature":"176","num_nodes":"31","size_leaf_vector":"1"}},{"base_weights":[-0E0,-1.323864E-4,1.6730262E-3,6.9374532E-6,-1.2202861E-3,7.6978345E-4,5.5117756E-3,-2.3661593E-4,9.407704E-4,-1.6085008E-3,1.6947267E-4,3.3890493E-3,-2.2262306E-4,4.353521E-3,1.4298708E-2,-1.5947311E-5,6.629901E-6,-5.5009106E-5,1.8249419E-5,-3.2067444E-5,-2.4671813E-6,-1.2025126E-5,5.6396264E-5,7.4609365E-5,-1.129414E-4,5.7474626E-6,-1.0228941E-4,-5.996189E-5,8.808144E-5,2.5554062E-4,-1.6926101E-4],"categories":[],"categories_nodes":[],"categories_segments":[],"categories_sizes":[],"default_left":[0,0,0,0,0,0,0,0,0,0,0,0,0,0,0,0,0,0,0,0,0,0,0,0,0,0,0,0,0,0,0],"id":33,"left_children":[1,3,5,7,9,11,13,15,17,19,21,23,25,27,29,-1,-1,-1,-1,-1,-1,-1,-1,-1,-1,-1,-1,-1,-1,-1,-1],"loss_changes":[8.9757067E-1,5.69563E-1,1.0242212E0,7.5654364E-1,2.3154366E-1,6.290703E-1,5.552558E-1,1.3164122E0,6.1848617E-1,1.945256E-1,2.913876E-1,9.0028805E-1,6.369136E-1,4.792397E-1,2.8783405E-1,0E0,0E0,0E0,0E0,0E0,0E0,0E0,0E0,0E0,0E0,0E0,0E0,0E0,0E0,0E0,0E0],"parents":[2147483647,0,0,1,1,2,2,3,3,4,4,5,5,6,6,7,7,8,8,9,9,10,10,11,11,12,12,13,13,14,14],"right_children":[2,4,6,8,10,12,14,16,18,20,22,24,26,28,30,-1,-1,-1,-1,-1,-1,-1,-1,-1,-1,-1,-1,-1,-1,-1,-1],"split_conditions":[1.8837778E-2,1.2E1,4E0,4E0,1E0,1E0,6.0324293E-2,6E0,-3.1289008E-2,1E0,3.4798782E-3,1E0,7.252673E-2,3E0,1.2E1,-1.5947311E-5,6.629901E-6,-5.5009106E-5,1.8249419E-5,-3.2067444E-5,-2.4671813E-6,-1.2025126E-5,5.6396264E-5,7.4609365E-5,-1.129414E-4,5.7474626E-6,-1.0228941E-4,-5.996189E-5,8.808144E-5,2.5554062E-4,-1.6926101E-4],"split_indices":[143,38,18,18,21,18,162,38,59,23,152,28,58,38,38,0,0,0,0,0,0,0,0,0,0,0,0,0,0,0,0],"split_type":[0,0,0,0,0,0,0,0,0,0,0,0,0,0,0,0,0,0,0,0,0,0,0,0,0,0,0,0,0,0,0],"sum_hessian":[4.046993E6,3.749803E6,2.9719E5,3.323292E6,4.26511E5,2.40795E5,5.6395E4,2.634998E6,6.88294E5,3.33941E5,9.257E4,6.6437E4,1.74358E5,4.9932E4,6.463E3,1.214251E6,1.420747E6,3.0484E4,6.5781E5,2.60613E5,7.3328E4,7.2421E4,2.0149E4,5.9212E4,7.225E3,1.59218E5,1.514E4,6.217E3,4.3715E4,6.078E3,3.85E2],"tree_param":{"num_deleted":"0","num_feature":"176","num_nodes":"31","size_leaf_vector":"1"}},{"base_weights":[-5.672444E-6,-2.0650569E-4,1.0613109E-3,5.9264613E-4,-4.3316538E-4,4.0854744E-4,3.7160248E-3,1.0249751E-3,-6.754209E-5,-2.2869785E-3,-9.870582E-6,1.1777886E-3,-2.0443685E-3,9.5150614E-4,6.114288E-3,2.7023252E-5,1.0095551E-5,7.981459E-6,-3.1991785E-5,-5.6207515E-5,5.3751304E-5,4.1159637E-6,-1.949954E-5,7.4294054E-5,1.069329E-5,-8.59204E-5,3.7528582E-7,7.879672E-5,5.235441E-6,-3.1387633E-5,1.1922936E-4],"categories":[],"categories_nodes":[],"categories_segments":[],"categories_sizes":[],"default_left":[0,0,0,0,0,0,0,0,0,0,0,1,0,0,0,0,0,0,0,0,0,0,0,0,0,0,0,0,0,0,0],"id":34,"left_children":[1,3,5,7,9,11,13,15,17,19,21,23,25,27,29,-1,-1,-1,-1,-1,-1,-1,-1,-1,-1,-1,-1,-1,-1,-1,-1],"loss_changes":[8.661826E-1,6.167866E-1,1.1052405E0,2.1547255E-1,2.080635E0,9.6924245E-1,8.286334E-1,1.17259055E-1,3.2889915E-1,3.468784E0,7.0539385E-1,6.8632525E-1,8.537461E-1,1.4097172E-1,7.5246835E-1,0E0,0E0,0E0,0E0,0E0,0E0,0E0,0E0,0E0,0E0,0E0,0E0,0E0,0E0,0E0,0E0],"parents":[2147483647,0,0,1,1,2,2,3,3,4,4,5,5,6,6,7,7,8,8,9,9,10,10,11,11,12,12,13,13,14,14],"right_children":[2,4,6,8,10,12,14,16,18,20,22,24,26,28,30,-1,-1,-1,-1,-1,-1,-1,-1,-1,-1,-1,-1,-1,-1,-1,-1],"split_conditions":[3.2152792E-3,3E0,4E0,9.168E-3,5E0,3E0,2.0669693E-2,-8.799999E-4,4E0,4E0,1.2E1,-1.7133E-2,5E0,-2.1532166E-3,3E0,2.7023252E-5,1.0095551E-5,7.981459E-6,-3.1991785E-5,-5.6207515E-5,5.3751304E-5,4.1159637E-6,-1.949954E-5,7.4294054E-5,1.069329E-5,-8.59204E-5,3.7528582E-7,7.879672E-5,5.235441E-6,-3.1387633E-5,1.1922936E-4],"split_indices":[133,38,18,121,38,18,145,82,18,18,38,35,38,150,38,0,0,0,0,0,0,0,0,0,0,0,0,0,0,0,0],"split_type":[0,0,0,0,0,0,0,0,0,0,0,0,0,0,0,0,0,0,0,0,0,0,0,0,0,0,0,0,0,0,0],"sum_hessian":[4.046133E6,3.405975E6,6.40158E5,7.51604E5,2.654371E6,5.1412E5,1.26038E5,4.55087E5,2.96517E5,4.92986E5,2.161385E6,3.91691E5,1.22429E5,5.8743E4,6.7295E4,1.6647E5,2.88617E5,2.2894E5,6.7577E4,4.04415E5,8.8571E4,1.769623E6,3.91762E5,4.9403E4,3.42288E5,4.6901E4,7.5528E4,7.701E3,5.1042E4,9.662E3,5.7633E4],"tree_param":{"num_deleted":"0","num_feature":"176","num_nodes":"31","size_leaf_vector":"1"}},{"base_weights":[5.7345405E-6,-1.6625112E-4,1.2736113E-3,5.7846966E-4,-3.762279E-4,5.5126037E-4,4.2729774E-3,9.4757695E-4,-3.053758E-4,-2.1897976E-3,3.2922282E-5,2.848587E-3,-2.6438723E-4,-1.8333842E-3,5.491363E-3,1.9315486E-5,6.559472E-7,6.7119245E-6,-4.421953E-5,-9.225404E-6,-1.4119655E-4,5.017393E-6,-1.9585574E-5,-1.4194449E-5,1.07213695E-4,-3.1660892E-7,-2.4925362E-4,-7.299224E-5,2.940273E-4,6.665531E-5,1.9700234E-4],"categories":[],"categories_nodes":[],"categories_segments":[],"categories_sizes":[],"default_left":[0,0,0,0,0,0,0,0,0,0,0,0,1,0,0,0,0,0,0,0,0,0,0,0,0,0,0,0,0,0,0],"id":35,"left_children":[1,3,5,7,9,11,13,15,17,19,21,23,25,27,29,-1,-1,-1,-1,-1,-1,-1,-1,-1,-1,-1,-1,-1,-1,-1,-1],"loss_changes":[8.837554E-1,5.5706257E-1,1.0442414E0,2.5599876E-1,2.0656285E0,7.3425245E-1,7.008532E-1,1.3174164E-1,4.1514295E-1,5.499668E0,8.073642E-1,1.496582E0,1.0674591E0,8.4926367E-1,6.863451E-1,0E0,0E0,0E0,0E0,0E0,0E0,0E0,0E0,0E0,0E0,0E0,0E0,0E0,0E0,0E0,0E0],"parents":[2147483647,0,0,1,1,2,2,3,3,4,4,5,5,6,6,7,7,8,8,9,9,10,10,11,11,12,12,13,13,14,14],"right_children":[2,4,6,8,10,12,14,16,18,20,22,24,26,28,30,-1,-1,-1,-1,-1,-1,-1,-1,-1,-1,-1,-1,-1,-1,-1,-1],"split_conditions":[1.614118E-2,3E0,4E0,1.7740982E-2,5E0,1E0,3E0,2.820661E-3,4E0,1E0,1.2E1,1E0,4.9628355E-2,4.574E-2,7.800772E-3,1.9315486E-5,6.559472E-7,6.7119245E-6,-4.421953E-5,-9.225404E-6,-1.4119655E-4,5.017393E-6,-1.9585574E-5,-1.4194449E-5,1.07213695E-4,-3.1660892E-7,-2.4925362E-4,-7.299224E-5,2.940273E-4,6.665531E-5,1.9700234E-4],"split_indices":[143,38,18,123,38,18,38,122,18,23,38,26,53,34,66,0,0,0,0,0,0,0,0,0,0,0,0,0,0,0,0],"split_type":[0,0,0,0,0,0,0,0,0,0,0,0,0,0,0,0,0,0,0,0,0,0,0,0,0,0,0,0,0,0,0],"sum_hessian":[4.047827E6,3.563645E6,4.84182E5,7.8275E5,2.780895E6,3.90477E5,9.3705E4,5.52951E5,2.29799E5,5.1234E5,2.268555E6,1.02627E5,2.8785E5,1.5451E4,7.8254E4,4.26887E5,1.26064E5,1.77266E5,5.2533E4,4.12897E5,9.9443E4,1.854905E6,4.1365E5,5.2154E4,5.0473E4,2.83415E5,4.435E3,1.3653E4,1.798E3,6.5897E4,1.2357E4],"tree_param":{"num_deleted":"0","num_feature":"176","num_nodes":"31","size_leaf_vector":"1"}},{"base_weights":[-5.6317735E-6,-1.7537255E-4,1.2418646E-3,5.577753E-4,-3.8250483E-4,5.306273E-4,4.19064E-3,9.1896934E-4,-3.0858064E-4,-2.1749132E-3,2.2117913E-5,2.7870524E-3,-2.7100497E-4,-1.9171037E-3,5.4119094E-3,1.8923576E-5,5.7640586E-9,6.0380703E-6,-4.2131138E-5,-5.4461965E-5,5.5791337E-5,4.753096E-6,-1.9336203E-5,-1.4162711E-5,1.05364634E-4,-5.974604E-7,-2.3303645E-4,-7.584782E-5,2.728336E-4,6.541303E-5,1.949911E-4],"categories":[],"categories_nodes":[],"categories_segments":[],"categories_sizes":[],"default_left":[0,0,0,0,0,0,0,0,0,0,0,0,0,0,0,0,0,0,0,0,0,0,0,0,0,0,0,0,0,0,0],"id":36,"left_children":[1,3,5,7,9,11,13,15,17,19,21,23,25,27,29,-1,-1,-1,-1,-1,-1,-1,-1,-1,-1,-1,-1,-1,-1,-1,-1],"loss_changes":[8.561046E-1,5.4102844E-1,1.0106459E0,2.4594398E-1,2.0182083E0,7.085162E-1,7.0322454E-1,1.3592333E-1,3.7174162E-1,3.6225207E0,7.737942E-1,1.4507082E0,9.501778E-1,8.282714E-1,6.8146706E-1,0E0,0E0,0E0,0E0,0E0,0E0,0E0,0E0,0E0,0E0,0E0,0E0,0E0,0E0,0E0,0E0],"parents":[2147483647,0,0,1,1,2,2,3,3,4,4,5,5,6,6,7,7,8,8,9,9,10,10,11,11,12,12,13,13,14,14],"right_children":[2,4,6,8,10,12,14,16,18,20,22,24,26,28,30,-1,-1,-1,-1,-1,-1,-1,-1,-1,-1,-1,-1,-1,-1,-1,-1],"split_conditions":[1.614118E-2,3E0,4E0,1.7740982E-2,5E0,1E0,3E0,2.820661E-3,4E0,4E0,1.2E1,1E0,3.7216403E-2,4.2427886E-2,7.800772E-3,1.8923576E-5,5.7640586E-9,6.0380703E-6,-4.2131138E-5,-5.4461965E-5,5.5791337E-5,4.753096E-6,-1.9336203E-5,-1.4162711E-5,1.05364634E-4,-5.974604E-7,-2.3303645E-4,-7.584782E-5,2.728336E-4,6.541303E-5,1.949911E-4],"split_indices":[143,38,18,123,38,18,38,122,18,18,38,26,56,59,66,0,0,0,0,0,0,0,0,0,0,0,0,0,0,0,0],"split_type":[0,0,0,0,0,0,0,0,0,0,0,0,0,0,0,0,0,0,0,0,0,0,0,0,0,0,0,0,0,0,0],"sum_hessian":[4.047964E6,3.563847E6,4.84117E5,7.84016E5,2.779831E6,3.90315E5,9.3802E4,5.54135E5,2.29881E5,5.12404E5,2.267427E6,1.02638E5,2.87677E5,1.5495E4,7.8307E4,4.27663E5,1.26472E5,1.77288E5,5.2593E4,4.20403E5,9.2001E4,1.853849E6,4.13578E5,5.2234E4,5.0404E4,2.83147E5,4.53E3,1.3529E4,1.966E3,6.5882E4,1.2425E4],"tree_param":{"num_deleted":"0","num_feature":"176","num_nodes":"31","size_leaf_vector":"1"}},{"base_weights":[3.3660906E-6,-2.2431067E-4,9.3372253E-4,5.806964E-4,-4.5629495E-4,3.301111E-4,3.3729062E-3,1.1406795E-3,1.1763377E-4,-2.3464954E-3,-3.6999594E-5,-3.520259E-4,2.3397293E-3,1.1256278E-3,6.611301E-3,2.0467569E-5,-1.4721086E-6,8.894966E-6,-2.1681717E-5,-5.654707E-5,4.966923E-5,3.4455886E-6,-1.85131E-5,-2.286799E-5,1.4676871E-5,-1.02017975E-5,1.0779033E-4,8.7604585E-6,2.0543548E-4,8.308054E-5,2.594303E-4],"categories":[],"categories_nodes":[],"categories_segments":[],"categories_sizes":[],"default_left":[0,0,0,0,0,0,0,0,0,0,0,0,0,0,0,0,0,0,0,0,0,0,0,0,0,0,0,0,0,0,0],"id":37,"left_children":[1,3,5,7,9,11,13,15,17,19,21,23,25,27,29,-1,-1,-1,-1,-1,-1,-1,-1,-1,-1,-1,-1,-1,-1,-1,-1],"loss_changes":[8.577511E-1,6.067662E-1,1.1687987E0,1.8702036E-1,1.997812E0,8.775295E-1,1.1395929E0,5.960098E-2,2.5903124E-1,3.0136633E0,5.9009033E-1,6.583464E-1,2.1474698E0,6.185493E-1,8.4748125E-1,0E0,0E0,0E0,0E0,0E0,0E0,0E0,0E0,0E0,0E0,0E0,0E0,0E0,0E0,0E0,0E0],"parents":[2147483647,0,0,1,1,2,2,3,3,4,4,5,5,6,6,7,7,8,8,9,9,10,10,11,11,12,12,13,13,14,14],"right_children":[2,4,6,8,10,12,14,16,18,20,22,24,26,28,30,-1,-1,-1,-1,-1,-1,-1,-1,-1,-1,-1,-1,-1,-1,-1,-1],"split_conditions":[2.8957042E-3,3E0,1E0,7.5914715E-3,5E0,1E0,1E0,3.9980835E-3,1E0,1E0,1.2E1,6E0,1E0,3.934782E-2,1.653114E-2,2.0467569E-5,-1.4721086E-6,8.894966E-6,-2.1681717E-5,-5.654707E-5,4.966923E-5,3.4455886E-6,-1.85131E-5,-2.286799E-5,1.4676871E-5,-1.02017975E-5,1.0779033E-4,8.7604585E-6,2.0543548E-4,8.308054E-5,2.594303E-4],"split_indices":[133,38,24,171,38,20,26,128,24,24,38,38,26,59,77,0,0,0,0,0,0,0,0,0,0,0,0,0,0,0,0],"split_type":[0,0,0,0,0,0,0,0,0,0,0,0,0,0,0,0,0,0,0,0,0,0,0,0,0,0,0,0,0,0,0],"sum_hessian":[4.046094E6,3.249752E6,7.96342E5,7.26041E5,2.523711E6,6.38698E5,1.57644E5,3.27657E5,3.98384E5,4.57754E5,2.065957E6,4.76475E5,1.62223E5,9.3247E4,6.4397E4,2.93991E5,3.3666E4,3.07417E5,9.0967E4,3.75247E5,8.2507E4,1.685631E6,3.80326E5,2.57826E5,2.18649E5,9.6838E4,6.5385E4,8.8986E4,4.261E3,5.6384E4,8.013E3],"tree_param":{"num_deleted":"0","num_feature":"176","num_nodes":"31","size_leaf_vector":"1"}},{"base_weights":[-2.293706E-6,-1.7152875E-4,1.1555705E-3,5.4485595E-4,-3.7440215E-4,4.6821317E-4,4.0049967E-3,9.052309E-4,-2.981882E-4,-2.1306376E-3,1.9424971E-5,-3.047089E-4,2.6614293E-3,-1.9163991E-3,5.206804E-3,1.86498E-5,-0E0,5.893155E-6,-4.107569E-5,-9.144619E-6,-1.3676359E-4,4.5890188E-6,-1.880669E-5,-1.1899422E-6,-2.3944813E-4,-1.5276793E-5,1.0311769E-4,-7.1479335E-5,2.9197513E-4,5.610447E-5,1.547295E-4],"categories":[],"categories_nodes":[],"categories_segments":[],"categories_sizes":[],"default_left":[0,0,0,0,0,0,0,0,0,0,0,0,0,0,0,0,0,0,0,0,0,0,0,0,0,0,0,0,0,0,0],"id":38,"left_children":[1,3,5,7,9,11,13,15,17,19,21,23,25,27,29,-1,-1,-1,-1,-1,-1,-1,-1,-1,-1,-1,-1,-1,-1,-1,-1],"loss_changes":[7.920442E-1,5.131111E-1,1.004888E0,2.3707205E-1,1.9064584E0,7.066406E-1,7.1403635E-1,1.3130572E-1,3.5624784E-1,5.0642433E0,7.2449356E-1,1.0247158E0,1.5051305E0,8.572027E-1,6.1816144E-1,0E0,0E0,0E0,0E0,0E0,0E0,0E0,0E0,0E0,0E0,0E0,0E0,0E0,0E0,0E0,0E0],"parents":[2147483647,0,0,1,1,2,2,3,3,4,4,5,5,6,6,7,7,8,8,9,9,10,10,11,11,12,12,13,13,14,14],"right_children":[2,4,6,8,10,12,14,16,18,20,22,24,26,28,30,-1,-1,-1,-1,-1,-1,-1,-1,-1,-1,-1,-1,-1,-1,-1,-1],"split_conditions":[1.5804434E-2,3E0,1E0,1.7553268E-2,5E0,1E0,3E0,2.820661E-3,1E0,1E0,1.2E1,3.7216403E-2,1E0,4.4673E-2,5.904833E-3,1.86498E-5,-0E0,5.893155E-6,-4.107569E-5,-9.144619E-6,-1.3676359E-4,4.5890188E-6,-1.880669E-5,-1.1899422E-6,-2.3944813E-4,-1.5276793E-5,1.0311769E-4,-7.1479335E-5,2.9197513E-4,5.610447E-5,1.547295E-4],"split_indices":[143,38,24,123,38,20,38,122,24,23,38,56,26,35,88,0,0,0,0,0,0,0,0,0,0,0,0,0,0,0,0],"split_type":[0,0,0,0,0,0,0,0,0,0,0,0,0,0,0,0,0,0,0,0,0,0,0,0,0,0,0,0,0,0,0],"sum_hessian":[4.04702E6,3.531684E6,5.15336E5,7.78336E5,2.753348E6,4.15467E5,9.9869E4,5.4608E5,2.32256E5,5.04789E5,2.248559E6,3.06872E5,1.08595E5,1.671E4,8.3159E4,4.22006E5,1.24074E5,1.793E5,5.2956E4,4.06879E5,9.791E4,1.837917E6,4.10642E5,3.02225E5,4.647E3,5.5576E4,5.3019E4,1.4873E4,1.837E3,6.0716E4,2.2443E4],"tree_param":{"num_deleted":"0","num_feature":"176","num_nodes":"31","size_leaf_vector":"1"}},{"base_weights":[-1.1418422E-7,-2.3303564E-4,8.627038E-4,-2.6070036E-3,-1.7161688E-4,1.5267923E-3,-1.9235004E-3,-5.667888E-4,-1.3401571E-2,-3.119232E-4,3.66402E-4,3.3051736E-4,3.2369518E-3,-6.30466E-3,-1.0538917E-3,-1.0568475E-6,-6.335812E-5,-2.8133506E-4,2.2214821E-4,-4.647824E-6,-1.0716634E-4,-4.498851E-6,2.5741434E-5,-4.088792E-6,3.245591E-5,7.7041375E-5,-2.2807817E-5,-1.0906953E-5,-2.2091485E-4,-1.2073379E-5,-1.5726406E-4],"categories":[],"categories_nodes":[],"categories_segments":[],"categories_sizes":[],"default_left":[0,0,0,0,0,0,0,0,0,0,0,0,0,0,1,0,0,0,0,0,0,0,0,0,0,0,0,0,0,0,0],"id":39,"left_children":[1,3,5,7,9,11,13,15,17,19,21,23,25,27,29,-1,-1,-1,-1,-1,-1,-1,-1,-1,-1,-1,-1,-1,-1,-1,-1],"loss_changes":[8.124692E-1,4.618896E-1,1.5892475E0,1.7470951E0,2.3446998E-1,1.4163746E0,6.215866E-1,1.1094445E-1,1.4783041E0,3.104961E-1,5.214006E-1,4.1164473E-1,2.1361513E0,1.1401336E0,3.4926608E-1,0E0,0E0,0E0,0E0,0E0,0E0,0E0,0E0,0E0,0E0,0E0,0E0,0E0,0E0,0E0,0E0],"parents":[2147483647,0,0,1,1,2,2,3,3,4,4,5,5,6,6,7,7,8,8,9,9,10,10,11,11,12,12,13,13,14,14],"right_children":[2,4,6,8,10,12,14,16,18,20,22,24,26,28,30,-1,-1,-1,-1,-1,-1,-1,-1,-1,-1,-1,-1,-1,-1,-1,-1],"split_conditions":[2.7921682E-3,-1.6306924E-2,1E0,1E0,1E0,1E0,-5.9149E-3,1.8E1,1E0,7.952143E-2,1E0,1E0,1E0,1E0,2.8472936E-2,-1.0568475E-6,-6.335812E-5,-2.8133506E-4,2.2214821E-4,-4.647824E-6,-1.0716634E-4,-4.498851E-6,2.5741434E-5,-4.088792E-6,3.245591E-5,7.7041375E-5,-2.2807817E-5,-1.0906953E-5,-2.2091485E-4,-1.2073379E-5,-1.5726406E-4],"split_indices":[133,56,23,26,24,26,104,39,20,59,25,21,21,26,163,0,0,0,0,0,0,0,0,0,0,0,0,0,0,0,0],"split_type":[0,0,0,0,0,0,0,0,0,0,0,0,0,0,0,0,0,0,0,0,0,0,0,0,0,0,0,0,0,0,0],"sum_hessian":[4.045862E6,3.18674E6,8.59122E5,7.9956E4,3.106784E6,6.94053E5,1.65069E5,6.7327E4,1.2629E4,2.465633E6,6.41151E5,4.08728E5,2.85325E5,2.7145E4,1.37924E5,5.8972E4,8.355E3,1.0958E4,1.671E3,2.458107E6,7.526E3,4.21536E5,2.19615E5,3.037E5,1.05028E5,2.12634E5,7.2691E4,1.5655E4,1.149E4,1.33563E5,4.361E3],"tree_param":{"num_deleted":"0","num_feature":"176","num_nodes":"31","size_leaf_vector":"1"}},{"base_weights":[-5.405892E-6,-1.6872524E-4,1.1940986E-3,5.3517264E-4,-3.6740644E-4,5.2546384E-4,3.9689587E-3,8.837511E-4,-2.9976378E-4,-2.0841523E-3,1.9919691E-5,2.6569166E-3,-2.3311935E-4,-1.887772E-3,5.137702E-3,1.8311992E-5,-1.749859E-7,5.951419E-6,-4.1286476E-5,-8.572713E-6,-1.3536803E-4,4.5061724E-6,-1.8422827E-5,-1.3084466E-5,9.999629E-5,-2.57976E-8,-2.3411945E-4,-7.14586E-5,2.7550737E-4,5.8303554E-5,1.6371899E-4],"categories":[],"categories_nodes":[],"categories_segments":[],"categories_sizes":[],"default_left":[0,0,0,0,0,0,0,0,0,0,0,0,1,0,0,0,0,0,0,0,0,0,0,0,0,0,0,0,0,0,0],"id":40,"left_children":[1,3,5,7,9,11,13,15,17,19,21,23,25,27,29,-1,-1,-1,-1,-1,-1,-1,-1,-1,-1,-1,-1,-1,-1,-1,-1],"loss_changes":[7.91624E-1,4.979776E-1,8.938165E-1,2.2845961E-1,1.849899E0,6.336959E-1,6.447829E-1,1.3286835E-1,3.570173E-1,5.0696354E0,7.008592E-1,1.3010968E0,9.487615E-1,7.5838685E-1,5.804088E-1,0E0,0E0,0E0,0E0,0E0,0E0,0E0,0E0,0E0,0E0,0E0,0E0,0E0,0E0,0E0,0E0],"parents":[2147483647,0,0,1,1,2,2,3,3,4,4,5,5,6,6,7,7,8,8,9,9,10,10,11,11,12,12,13,13,14,14],"right_children":[2,4,6,8,10,12,14,16,18,20,22,24,26,28,30,-1,-1,-1,-1,-1,-1,-1,-1,-1,-1,-1,