{"learner":{"attributes":{},"feature_names":["open","high","low","close","volume","slot_count","lag_close_1","lag_close_5","lag_close_10","close_diff_1","close_diff_5","pct_change_1","pct_change_5","log_return_1","sma_close_5","sma_close_10","sma_close_20","sma_volume_5","day_of_week","hour_of_day","day_monday","day_tuesday","day_wednesday","day_thursday","day_friday","quarter_1","quarter_2","quarter_3","quarter_4","hour_early_morning","hour_mid_morning","hour_afternoon","hour_late_afternoon","previous_close","overnight_gap_pct","overnight_log_return","is_gap_up","is_gap_down","month_of_year","slot_idx","bars_seen","bars_remaining","minutes_seen","intraday_progress","cutoff_close","cutoff_high_seen","cutoff_low_seen","cutoff_volume_seen","cutoff_slot_idx","close_open_log_return","high_low_log_range","close_vs_lag_close_1","close_vs_lag_close_5","close_vs_lag_close_10","close_vs_sma_close_5","close_vs_sma_close_10","close_vs_sma_close_20","cutoff_return_from_open","cutoff_range_seen","cutoff_price_vs_prev_close","log_volume","log_slot_count","log_cutoff_volume_seen","volume_vs_sma_volume_5","close_open_log_return_mean_5d","close_open_log_return_std_5d","high_low_log_range_mean_5d","high_low_log_range_std_5d","pct_change_1_mean_5d","pct_change_1_std_5d","pct_change_5_mean_5d","pct_change_5_std_5d","log_return_1_mean_5d","log_return_1_std_5d","cutoff_return_from_open_mean_5d","cutoff_return_from_open_std_5d","cutoff_range_seen_mean_5d","cutoff_range_seen_std_5d","cutoff_price_vs_prev_close_mean_5d","cutoff_price_vs_prev_close_std_5d","cutoff_volume_seen_mean_5d","cutoff_volume_seen_std_5d","overnight_gap_pct_mean_5d","overnight_gap_pct_std_5d","overnight_log_return_mean_5d","overnight_log_return_std_5d","close_open_log_return_mean_10d","close_open_log_return_std_10d","high_low_log_range_mean_10d","high_low_log_range_std_10d","pct_change_1_mean_10d","pct_change_1_std_10d","pct_change_5_mean_10d","pct_change_5_std_10d","log_return_1_mean_10d","log_return_1_std_10d","cutoff_return_from_open_mean_10d","cutoff_return_from_open_std_10d","cutoff_range_seen_mean_10d","cutoff_range_seen_std_10d","cutoff_price_vs_prev_close_mean_10d","cutoff_price_vs_prev_close_std_10d","cutoff_volume_seen_mean_10d","cutoff_volume_seen_std_10d","overnight_gap_pct_mean_10d","overnight_gap_pct_std_10d","overnight_log_return_mean_10d","overnight_log_return_std_10d","close_open_log_return_mean_20d","close_open_log_return_std_20d","high_low_log_range_mean_20d","high_low_log_range_std_20d","pct_change_1_mean_20d","pct_change_1_std_20d","pct_change_5_mean_20d","pct_change_5_std_20d","log_return_1_mean_20d","log_return_1_std_20d","cutoff_return_from_open_mean_20d","cutoff_return_from_open_std_20d","cutoff_range_seen_mean_20d","cutoff_range_seen_std_20d","cutoff_price_vs_prev_close_mean_20d","cutoff_price_vs_prev_close_std_20d","cutoff_volume_seen_mean_20d","cutoff_volume_seen_std_20d","overnight_gap_pct_mean_20d","overnight_gap_pct_std_20d","overnight_log_return_mean_20d","overnight_log_return_std_20d","close_open_log_return_mean_60d","close_open_log_return_std_60d","high_low_log_range_mean_60d","high_low_log_range_std_60d","pct_change_1_mean_60d","pct_change_1_std_60d","pct_change_5_mean_60d","pct_change_5_std_60d","log_return_1_mean_60d","log_return_1_std_60d","cutoff_return_from_open_mean_60d","cutoff_return_from_open_std_60d","cutoff_range_seen_mean_60d","cutoff_range_seen_std_60d","cutoff_price_vs_prev_close_mean_60d","cutoff_price_vs_prev_close_std_60d","cutoff_volume_seen_mean_60d","cutoff_volume_seen_std_60d","overnight_gap_pct_mean_60d","overnight_gap_pct_std_60d","overnight_log_return_mean_60d","overnight_log_return_std_60d","cutoff_return_from_open_mean_5cut","cutoff_return_from_open_std_5cut","cutoff_range_seen_mean_5cut","cutoff_range_seen_std_5cut","cutoff_volume_seen_mean_5cut","cutoff_volume_seen_std_5cut","pct_change_1_mean_5cut","pct_change_1_std_5cut","cutoff_return_from_open_mean_10cut","cutoff_return_from_open_std_10cut","cutoff_range_seen_mean_10cut","cutoff_range_seen_std_10cut","cutoff_volume_seen_mean_10cut","cutoff_volume_seen_std_10cut","pct_change_1_mean_10cut","pct_change_1_std_10cut","cutoff_return_from_open_mean_20cut","cutoff_return_from_open_std_20cut","cutoff_range_seen_mean_20cut","cutoff_range_seen_std_20cut","cutoff_volume_seen_mean_20cut","cutoff_volume_seen_std_20cut","pct_change_1_mean_20cut","pct_change_1_std_20cut"],"feature_types":["float","float","float","float","float","int","float","float","float","float","float","float","float","float","float","float","float","float","int","int","int","int","int","int","int","int","int","int","int","int","int","int","int","float","float","float","int","int","int","int","int","int","float","float","float","float","float","float","int","float","float","float","float","float","float","float","float","float","float","float","float","float","float","float","float","float","float","float","float","float","float","float","float","float","float","float","float","float","float","float","float","float","float","float","float","float","float","float","float","float","float","float","float","float","float","float","float","float","float","float","float","float","float","float","float","float","float","float","float","float","float","float","float","float","float","float","float","float","float","float","float","float","float","float","float","float","float","float","float","float","float","float","float","float","float","float","float","float","float","float","float","float","float","float","float","float","float","float","float","float","float","float","float","float","float","float","float","float","float","float","float","float","float","float","float","float","float","float","float","float","float","float","float","float","float","float"],"gradient_booster":{"model":{"gbtree_model_param":{"num_parallel_tree":"1","num_trees":"640"},"iteration_indptr":[0,1,2,3,4,5,6,7,8,9,10,11,12,13,14,15,16,17,18,19,20,21,22,23,24,25,26,27,28,29,30,31,32,33,34,35,36,37,38,39,40,41,42,43,44,45,46,47,48,49,50,51,52,53,54,55,56,57,58,59,60,61,62,63,64,65,66,67,68,69,70,71,72,73,74,75,76,77,78,79,80,81,82,83,84,85,86,87,88,89,90,91,92,93,94,95,96,97,98,99,100,101,102,103,104,105,106,107,108,109,110,111,112,113,114,115,116,117,118,119,120,121,122,123,124,125,126,127,128,129,130,131,132,133,134,135,136,137,138,139,140,141,142,143,144,145,146,147,148,149,150,151,152,153,154,155,156,157,158,159,160,161,162,163,164,165,166,167,168,169,170,171,172,173,174,175,176,177,178,179,180,181,182,183,184,185,186,187,188,189,190,191,192,193,194,195,196,197,198,199,200,201,202,203,204,205,206,207,208,209,210,211,212,213,214,215,216,217,218,219,220,221,222,223,224,225,226,227,228,229,230,231,232,233,234,235,236,237,238,239,240,241,242,243,244,245,246,247,248,249,250,251,252,253,254,255,256,257,258,259,260,261,262,263,264,265,266,267,268,269,270,271,272,273,274,275,276,277,278,279,280,281,282,283,284,285,286,287,288,289,290,291,292,293,294,295,296,297,298,299,300,301,302,303,304,305,306,307,308,309,310,311,312,313,314,315,316,317,318,319,320,321,322,323,324,325,326,327,328,329,330,331,332,333,334,335,336,337,338,339,340,341,342,343,344,345,346,347,348,349,350,351,352,353,354,355,356,357,358,359,360,361,362,363,364,365,366,367,368,369,370,371,372,373,374,375,376,377,378,379,380,381,382,383,384,385,386,387,388,389,390,391,392,393,394,395,396,397,398,399,400,401,402,403,404,405,406,407,408,409,410,411,412,413,414,415,416,417,418,419,420,421,422,423,424,425,426,427,428,429,430,431,432,433,434,435,436,437,438,439,440,441,442,443,444,445,446,447,448,449,450,451,452,453,454,455,456,457,458,459,460,461,462,463,464,465,466,467,468,469,470,471,472,473,474,475,476,477,478,479,480,481,482,483,484,485,486,487,488,489,490,491,492,493,494,495,496,497,498,499,500,501,502,503,504,505,506,507,508,509,510,511,512,513,514,515,516,517,518,519,520,521,522,523,524,525,526,527,528,529,530,531,532,533,534,535,536,537,538,539,540,541,542,543,544,545,546,547,548,549,550,551,552,553,554,555,556,557,558,559,560,561,562,563,564,565,566,567,568,569,570,571,572,573,574,575,576,577,578,579,580,581,582,583,584,585,586,587,588,589,590,591,592,593,594,595,596,597,598,599,600,601,602,603,604,605,606,607,608,609,610,611,612,613,614,615,616,617,618,619,620,621,622,623,624,625,626,627,628,629,630,631,632,633,634,635,636,637,638,639,640],"tree_info":[0,0,0,0,0,0,0,0,0,0,0,0,0,0,0,0,0,0,0,0,0,0,0,0,0,0,0,0,0,0,0,0,0,0,0,0,0,0,0,0,0,0,0,0,0,0,0,0,0,0,0,0,0,0,0,0,0,0,0,0,0,0,0,0,0,0,0,0,0,0,0,0,0,0,0,0,0,0,0,0,0,0,0,0,0,0,0,0,0,0,0,0,0,0,0,0,0,0,0,0,0,0,0,0,0,0,0,0,0,0,0,0,0,0,0,0,0,0,0,0,0,0,0,0,0,0,0,0,0,0,0,0,0,0,0,0,0,0,0,0,0,0,0,0,0,0,0,0,0,0,0,0,0,0,0,0,0,0,0,0,0,0,0,0,0,0,0,0,0,0,0,0,0,0,0,0,0,0,0,0,0,0,0,0,0,0,0,0,0,0,0,0,0,0,0,0,0,0,0,0,0,0,0,0,0,0,0,0,0,0,0,0,0,0,0,0,0,0,0,0,0,0,0,0,0,0,0,0,0,0,0,0,0,0,0,0,0,0,0,0,0,0,0,0,0,0,0,0,0,0,0,0,0,0,0,0,0,0,0,0,0,0,0,0,0,0,0,0,0,0,0,0,0,0,0,0,0,0,0,0,0,0,0,0,0,0,0,0,0,0,0,0,0,0,0,0,0,0,0,0,0,0,0,0,0,0,0,0,0,0,0,0,0,0,0,0,0,0,0,0,0,0,0,0,0,0,0,0,0,0,0,0,0,0,0,0,0,0,0,0,0,0,0,0,0,0,0,0,0,0,0,0,0,0,0,0,0,0,0,0,0,0,0,0,0,0,0,0,0,0,0,0,0,0,0,0,0,0,0,0,0,0,0,0,0,0,0,0,0,0,0,0,0,0,0,0,0,0,0,0,0,0,0,0,0,0,0,0,0,0,0,0,0,0,0,0,0,0,0,0,0,0,0,0,0,0,0,0,0,0,0,0,0,0,0,0,0,0,0,0,0,0,0,0,0,0,0,0,0,0,0,0,0,0,0,0,0,0,0,0,0,0,0,0,0,0,0,0,0,0,0,0,0,0,0,0,0,0,0,0,0,0,0,0,0,0,0,0,0,0,0,0,0,0,0,0,0,0,0,0,0,0,0,0,0,0,0,0,0,0,0,0,0,0,0,0,0,0,0,0,0,0,0,0,0,0,0,0,0,0,0,0,0,0,0,0,0,0,0,0,0,0,0,0,0,0,0,0,0,0,0,0,0,0,0,0,0,0,0,0,0,0,0,0,0,0,0,0,0,0,0,0,0,0,0,0,0,0,0,0,0,0,0,0,0,0,0,0,0,0,0,0,0,0,0,0,0,0,0,0,0,0,0,0,0,0,0,0,0,0,0,0,0,0,0,0,0,0,0,0,0,0,0,0,0,0,0,0,0,0,0,0,0,0,0,0,0,0,0,0],"trees":[{"base_weights":[-0E0,-5.04801E-4,9.1014765E-3,2.4041113E-4,-4.345551E-3,1.6491646E-3,6.0495893E-3,-3.1255814E-4,3.093229E-3,-3.4308844E-4,-6.1247093E-3,-1.0417771E-2,9.3944995E-3,4.3551627E-6,-1.1655003E-4,-0E0,2.1736335E-4,1.422621E-4,-8.0646685E-5,-0E0,-2.135635E-4,-4.8839295E-4,-0E0,3.7316035E-4,-0E0],"categories":[],"categories_nodes":[],"categories_segments":[],"categories_sizes":[],"default_left":[0,0,0,0,0,0,0,0,0,0,0,0,0,0,0,0,0,0,0,0,0,0,0,0,0],"id":0,"left_children":[1,3,5,7,9,-1,11,13,15,17,19,21,23,-1,-1,-1,-1,-1,-1,-1,-1,-1,-1,-1,-1],"loss_changes":[4.7902532E-2,3.255021E-2,4.5023434E-2,1.5300963E-2,9.867072E-3,0E0,2.862346E-2,1.3711099E-2,1.7890844E-2,6.8220324E-3,1.0717779E-2,3.733566E-3,8.305147E-3,0E0,0E0,0E0,0E0,0E0,0E0,0E0,0E0,0E0,0E0,0E0,0E0],"parents":[2147483647,0,0,1,1,2,2,3,3,4,4,6,6,7,7,8,8,9,9,10,10,11,11,12,12],"right_children":[2,4,6,8,10,-1,12,14,16,18,20,22,24,-1,-1,-1,-1,-1,-1,-1,-1,-1,-1,-1,-1],"split_conditions":[3.8864773E-2,2.4792306E-2,1.33E1,1.9305257E-2,-5.223296E-4,1.6491646E-3,4.59E1,2.081298E6,9.02846E5,7.867E1,1.78246E5,4.6444103E-2,5.2915774E-3,4.3551627E-6,-1.1655003E-4,-0E0,2.1736335E-4,1.422621E-4,-8.0646685E-5,-0E0,-2.135635E-4,-4.8839295E-4,-0E0,3.7316035E-4,-0E0],"split_indices":[58,58,0,58,59,0,0,47,47,0,47,58,52,0,0,0,0,0,0,0,0,0,0,0,0],"split_type":[0,0,0,0,0,0,0,0,0,0,0,0,0,0,0,0,0,0,0,0,0,0,0,0,0],"sum_hessian":[1.1195E4,1.0652E4,5.43E2,8.814E3,1.838E3,2.1E1,5.22E2,7.238E3,1.576E3,6.53E2,1.185E3,6.2E1,4.6E2,6.294E3,9.44E2,9.5E2,6.26E2,1.38E2,5.15E2,9.7E1,1.088E3,3.8E1,2.4E1,3.15E2,1.45E2],"tree_param":{"num_deleted":"0","num_feature":"176","num_nodes":"25","size_leaf_vector":"1"}},{"base_weights":[-7.51852E-7,3.2634664E-2,-1.8534469E-4,-0E0,1.7326055E-3,-5.668346E-3,1.9937531E-4,-1.5121003E-3,-1.0191815E-2,-1.0353264E-4,7.858728E-3,-1.338081E-4,-0E0,-0E0,-3.547216E-4,1.7428556E-5,-1.1383482E-4,3.44108E-4,-0E0],"categories":[],"categories_nodes":[],"categories_segments":[],"categories_sizes":[],"default_left":[0,0,0,0,0,0,0,0,0,0,0,0,0,0,0,0,0,0,0],"id":1,"left_children":[1,3,5,-1,-1,7,9,11,13,15,17,-1,-1,-1,-1,-1,-1,-1,-1],"loss_changes":[5.097004E-2,3.780142E-2,2.6165584E-2,0E0,0E0,9.403842E-3,2.7766004E-2,3.1395867E-3,4.3628514E-3,2.6480958E-2,1.3571223E-2,0E0,0E0,0E0,0E0,0E0,0E0,0E0,0E0],"parents":[2147483647,0,0,1,1,2,2,5,5,6,6,7,7,8,8,9,9,10,10],"right_children":[2,4,6,-1,-1,8,10,12,14,16,18,-1,-1,-1,-1,-1,-1,-1,-1],"split_conditions":[1.159E1,9.5933245E-4,3.297E1,-0E0,1.7326055E-3,2.71952E5,3.8864773E-2,2.258E1,1.677E1,2.4792306E-2,5.187E-3,-1.338081E-4,-0E0,-0E0,-3.547216E-4,1.7428556E-5,-1.1383482E-4,3.44108E-4,-0E0],"split_indices":[2,57,33,0,0,4,58,33,0,58,12,0,0,0,0,0,0,0,0],"split_type":[0,0,0,0,0,0,0,0,0,0,0,0,0,0,0,0,0,0,0],"sum_hessian":[1.1149E4,4.5E1,1.1104E4,2.1E1,2.4E1,8.11E2,1.0293E4,4.82E2,3.29E2,9.841E3,4.52E2,2.11E2,2.71E2,5.4E1,2.75E2,8.189E3,1.652E3,3.14E2,1.38E2],"tree_param":{"num_deleted":"0","num_feature":"176","num_nodes":"19","size_leaf_vector":"1"}},{"base_weights":[-0E0,3.1093966E-2,-1.250694E-4,-0E0,1.6866751E-3,-5.269882E-3,2.021911E-4,-1.1926482E-3,-1.1033149E-2,-1.0754085E-4,8.000222E-3,-0E0,-8.470187E-5,-0E0,-3.669771E-4,1.5750269E-5,-1.20134755E-4,3.2410776E-4,-0E0],"categories":[],"categories_nodes":[],"categories_segments":[],"categories_sizes":[],"default_left":[0,0,0,0,0,0,0,0,0,0,0,0,0,0,0,0,0,0,0],"id":2,"left_children":[1,3,5,-1,-1,7,9,11,13,15,17,-1,-1,-1,-1,-1,-1,-1,-1],"loss_changes":[4.706491E-2,3.6874224E-2,2.1202782E-2,0E0,0E0,1.1583587E-2,2.8909402E-2,2.1689446E-3,3.5563596E-3,2.610059E-2,1.0758163E-2,0E0,0E0,0E0,0E0,0E0,0E0,0E0,0E0],"parents":[2147483647,0,0,1,1,2,2,5,5,6,6,7,7,8,8,9,9,10,10],"right_children":[2,4,6,-1,-1,8,10,12,14,16,18,-1,-1,-1,-1,-1,-1,-1,-1],"split_conditions":[1.159E1,9.5933245E-4,2.832E1,-0E0,1.6866751E-3,3.107498E5,3.8864773E-2,1.9157E1,8.401157E-3,2.5825052E-2,3.667589E-2,-0E0,-8.470187E-5,-0E0,-3.669771E-4,1.5750269E-5,-1.20134755E-4,3.2410776E-4,-0E0],"split_indices":[2,57,0,0,0,17,58,15,58,58,57,0,0,0,0,0,0,0,0],"split_type":[0,0,0,0,0,0,0,0,0,0,0,0,0,0,0,0,0,0,0],"sum_hessian":[1.113E4,4.6E1,1.1084E4,2.2E1,2.4E1,7.52E2,1.0332E4,4.93E2,2.59E2,9.878E3,4.54E2,1.35E2,3.58E2,2.5E1,2.34E2,8.39E3,1.488E3,3.4E2,1.14E2],"tree_param":{"num_deleted":"0","num_feature":"176","num_nodes":"19","size_leaf_vector":"1"}},{"base_weights":[1.3659001E-5,3.1951003E-2,-8.138021E-5,-0E0,1.6698353E-3,2.2565686E-4,-5.8946987E-3,-5.000294E-4,2.437994E-3,-1.1094626E-2,-6.3817186E-4,1.7811063E-6,-8.923161E-5,2.523498E-4,-1.8919516E-5,-0E0,-3.7524477E-4,3.8088192E-4,-1.327425E-4],"categories":[],"categories_nodes":[],"categories_segments":[],"categories_sizes":[],"default_left":[0,0,0,0,0,0,0,0,0,0,0,0,0,0,0,0,0,0,0],"id":3,"left_children":[1,3,5,-1,-1,7,9,11,13,15,17,-1,-1,-1,-1,-1,-1,-1,-1],"loss_changes":[4.958306E-2,3.568756E-2,2.2538727E-2,0E0,0E0,1.7676067E-2,1.1486372E-2,1.2069572E-2,5.4140024E-2,5.4597E-3,1.4509783E-2,0E0,0E0,0E0,0E0,0E0,0E0,0E0,0E0],"parents":[2147483647,0,0,1,1,2,2,5,5,6,6,7,7,8,8,9,9,10,10],"right_children":[2,4,6,-1,-1,8,10,12,14,16,18,-1,-1,-1,-1,-1,-1,-1,-1],"split_conditions":[1.159E1,9.5933245E-4,3.792878E5,-0E0,1.6698353E-3,2.4403E2,4.98E1,2.4792306E-2,3.175E2,-2.3171E-2,5.334E1,1.7811063E-6,-8.923161E-5,2.523498E-4,-1.8919516E-5,-0E0,-3.7524477E-4,3.8088192E-4,-1.327425E-4],"split_indices":[2,57,17,0,0,33,45,58,45,34,1,0,0,0,0,0,0,0,0],"split_type":[0,0,0,0,0,0,0,0,0,0,0,0,0,0,0,0,0,0,0],"sum_hessian":[1.1081E4,4.6E1,1.1035E4,2.1E1,2.5E1,1.0402E4,6.33E2,7.664E3,2.738E3,2.69E2,3.64E2,6.088E3,1.576E3,9.83E2,1.755E3,2.3E1,2.46E2,5E1,3.14E2],"tree_param":{"num_deleted":"0","num_feature":"176","num_nodes":"19","size_leaf_vector":"1"}},{"base_weights":[5.835905E-5,-3.3592735E-4,8.7204585E-3,3.068949E-4,-3.7322147E-3,1.4886579E-3,5.7870857E-3,6.522553E-4,-6.3910517E-3,1.5293163E-3,-4.4475826E-3,-9.574979E-3,9.054879E-3,-0E0,1.14523034E-4,-2.2837867E-4,-0E0,-0E0,1.3713002E-4,-1.1997571E-5,-1.8733414E-4,-4.8446102E-4,-0E0,3.3255605E-4,-0E0],"categories":[],"categories_nodes":[],"categories_segments":[],"categories_sizes":[],"default_left":[0,0,0,0,0,0,0,0,0,0,0,0,0,0,0,0,0,0,0,0,0,0,0,0,0],"id":4,"left_children":[1,3,5,7,9,-1,11,13,15,17,19,21,23,-1,-1,-1,-1,-1,-1,-1,-1,-1,-1,-1,-1],"loss_changes":[4.2340487E-2,2.4919761E-2,3.654635E-2,1.7533088E-2,8.309554E-3,0E0,2.6035624E-2,1.826879E-2,4.851098E-3,2.0963538E-3,8.908723E-3,4.2957766E-3,9.081915E-3,0E0,0E0,0E0,0E0,0E0,0E0,0E0,0E0,0E0,0E0,0E0,0E0],"parents":[2147483647,0,0,1,1,2,2,3,3,4,4,6,6,7,7,8,8,9,9,10,10,11,11,12,12],"right_children":[2,4,6,8,10,-1,12,14,16,18,20,22,24,-1,-1,-1,-1,-1,-1,-1,-1,-1,-1,-1,-1],"split_conditions":[3.8864773E-2,2.4792306E-2,1.33E1,4.312126E5,1.30372E4,1.4886579E-3,4.59E1,1.9305257E-2,2.6283E2,2.4944603E-2,-8.9887646E-4,4.6444103E-2,3.994156E-3,-0E0,1.14523034E-4,-2.2837867E-4,-0E0,-0E0,1.3713002E-4,-1.1997571E-5,-1.8733414E-4,-4.8446102E-4,-0E0,3.3255605E-4,-0E0],"split_indices":[58,58,0,17,17,0,0,58,0,58,59,58,54,0,0,0,0,0,0,0,0,0,0,0,0],"split_type":[0,0,0,0,0,0,0,0,0,0,0,0,0,0,0,0,0,0,0,0,0,0,0,0,0],"sum_hessian":[1.1165E4,1.0626E4,5.39E2,8.813E3,1.813E3,2.2E1,5.17E2,8.454E3,3.59E2,1.33E2,1.68E3,6.3E1,4.54E2,6.956E3,1.498E3,3.36E2,2.3E1,2E1,1.13E2,6.03E2,1.077E3,3.7E1,2.6E1,3.76E2,7.8E1],"tree_param":{"num_deleted":"0","num_feature":"176","num_nodes":"25","size_leaf_vector":"1"}},{"base_weights":[-2.6782782E-5,-4.9345277E-4,8.261469E-3,1.2152575E-4,-3.731496E-3,1.4634678E-3,5.325653E-3,4.9142155E-4,-6.028454E-3,-9.309296E-3,-2.262889E-3,-1.0059885E-2,8.753006E-3,-1.615569E-6,9.989514E-5,-2.3447955E-4,-0E0,-1.16105926E-4,-8.864046E-4,3.291187E-5,-1.06108266E-4,-4.6281758E-4,-0E0,3.1712983E-4,-0E0],"categories":[],"categories_nodes":[],"categories_segments":[],"categories_sizes":[],"default_left":[0,0,0,0,0,0,0,0,0,0,0,0,0,0,0,0,0,0,0,0,0,0,0,0,0],"id":5,"left_children":[1,3,5,7,9,-1,11,13,15,17,19,21,23,-1,-1,-1,-1,-1,-1,-1,-1,-1,-1,-1,-1],"loss_changes":[3.92627E-2,2.2949034E-2,3.6238413E-2,1.7247349E-2,9.106809E-3,0E0,2.6749872E-2,1.4601322E-2,8.195446E-3,1.696341E-2,7.729971E-3,3.6587175E-3,7.186856E-3,0E0,0E0,0E0,0E0,0E0,0E0,0E0,0E0,0E0,0E0,0E0,0E0],"parents":[2147483647,0,0,1,1,2,2,3,3,4,4,6,6,7,7,8,8,9,9,10,10,11,11,12,12],"right_children":[2,4,6,8,10,-1,12,14,16,18,20,22,24,-1,-1,-1,-1,-1,-1,-1,-1,-1,-1,-1,-1],"split_conditions":[3.8864773E-2,2.4792306E-2,1.334E1,3.792878E5,2.629118E-2,1.4634678E-3,4.595E1,1.9305257E-2,2.6345E2,2.6108881E-2,4.07272E5,4.6444103E-2,3.994156E-3,-1.615569E-6,9.989514E-5,-2.3447955E-4,-0E0,-1.16105926E-4,-8.864046E-4,3.291187E-5,-1.06108266E-4,-4.6281758E-4,-0E0,3.1712983E-4,-0E0],"split_indices":[58,58,1,17,58,0,1,58,1,58,47,58,54,0,0,0,0,0,0,0,0,0,0,0,0],"split_type":[0,0,0,0,0,0,0,0,0,0,0,0,0,0,0,0,0,0,0,0,0,0,0,0,0],"sum_hessian":[1.115E4,1.0615E4,5.35E2,8.793E3,1.822E3,2.2E1,5.13E2,8.373E3,4.2E2,3.06E2,1.516E3,6.6E1,4.47E2,6.878E3,1.495E3,3.83E2,3.7E1,2.63E2,4.3E1,3.09E2,1.207E3,4.2E1,2.4E1,3.7E2,7.7E1],"tree_param":{"num_deleted":"0","num_feature":"176","num_nodes":"25","size_leaf_vector":"1"}},{"base_weights":[-2.109867E-5,2.864106E-2,-1.8392871E-4,-0E0,1.4920776E-3,-5.2013444E-3,1.7434073E-4,-1.3986181E-3,-1.004405E-2,-6.9951627E-4,1.0475001E-3,-1.22068406E-4,-0E0,-0E0,-3.28501E-4,-0E0,-1.5974448E-4,7.069823E-5,-3.868614E-5],"categories":[],"categories_nodes":[],"categories_segments":[],"categories_sizes":[],"default_left":[0,0,0,0,0,0,0,0,0,0,0,0,0,0,0,0,0,0,0],"id":6,"left_children":[1,3,5,-1,-1,7,9,11,13,15,17,-1,-1,-1,-1,-1,-1,-1,-1],"loss_changes":[3.7693985E-2,2.575427E-2,2.2432132E-2,0E0,0E0,9.55602E-3,7.997123E-3,2.8359988E-3,3.690483E-3,1.4630431E-2,1.7106438E-2,0E0,0E0,0E0,0E0,0E0,0E0,0E0,0E0],"parents":[2147483647,0,0,1,1,2,2,5,5,6,6,7,7,8,8,9,9,10,10],"right_children":[2,4,6,-1,-1,8,10,12,14,16,18,-1,-1,-1,-1,-1,-1,-1,-1],"split_conditions":[1.1594E1,1.7359441E-3,3.281E1,-0E0,1.4920776E-3,3.107498E5,1.4144E2,2.232E1,-2.7425813E-2,1.3339862E-2,3.175E2,-1.22068406E-4,-0E0,-0E0,-3.28501E-4,-0E0,-1.5974448E-4,7.069823E-5,-3.868614E-5],"split_indices":[15,59,46,0,0,17,46,46,59,59,45,0,0,0,0,0,0,0,0],"split_type":[0,0,0,0,0,0,0,0,0,0,0,0,0,0,0,0,0,0,0],"sum_hessian":[1.112E4,4.3E1,1.1077E4,2E1,2.3E1,8.29E2,1.0248E4,5.24E2,3.05E2,4.836E3,5.412E3,2.31E2,2.93E2,1.8E1,2.87E2,4.239E3,5.97E2,3.606E3,1.806E3],"tree_param":{"num_deleted":"0","num_feature":"176","num_nodes":"19","size_leaf_vector":"1"}},{"base_weights":[-4.4904817E-5,-4.8833754E-4,7.6938244E-3,1.3441537E-4,-3.5464494E-3,1.3415974E-3,5.0245686E-3,4.7771772E-4,-6.0369186E-3,-4.7503435E-4,-5.443205E-3,-9.899619E-3,8.266402E-3,-1.8187204E-6,1.0588737E-4,-2.2782302E-4,-0E0,3.653853E-5,-1.759049E-4,1.1408138E-5,-1.8427442E-4,-4.4609615E-4,-0E0,3.222868E-4,-0E0],"categories":[],"categories_nodes":[],"categories_segments":[],"categories_sizes":[],"default_left":[0,0,0,0,0,0,0,0,0,0,0,0,0,0,0,0,0,0,0,0,0,0,0,0,0],"id":7,"left_children":[1,3,5,7,9,-1,11,13,15,17,19,21,23,-1,-1,-1,-1,-1,-1,-1,-1,-1,-1,-1,-1],"loss_changes":[3.4554098E-2,2.1851508E-2,2.80836E-2,1.5563322E-2,8.251848E-3,0E0,2.457067E-2,1.5334484E-2,6.2674806E-3,9.989916E-3,7.3236227E-3,3.1012571E-3,8.102827E-3,0E0,0E0,0E0,0E0,0E0,0E0,0E0,0E0,0E0,0E0,0E0,0E0],"parents":[2147483647,0,0,1,1,2,2,3,3,4,4,6,6,7,7,8,8,9,9,10,10,11,11,12,12],"right_children":[2,4,6,8,10,-1,12,14,16,18,20,22,24,-1,-1,-1,-1,-1,-1,-1,-1,-1,-1,-1,-1],"split_conditions":[3.8864773E-2,2.4350332E-2,1.334E1,4.052998E5,2.2962124E-3,1.3415974E-3,4.595E1,1.9305257E-2,2.6345E2,1.233264E5,-5.223296E-4,4.6444103E-2,3.667589E-2,-1.8187204E-6,1.0588737E-4,-2.2782302E-4,-0E0,3.653853E-5,-1.759049E-4,1.1408138E-5,-1.8427442E-4,-4.4609615E-4,-0E0,3.222868E-4,-0E0],"split_indices":[58,58,1,17,57,0,1,58,1,17,59,58,57,0,0,0,0,0,0,0,0,0,0,0,0],"split_type":[0,0,0,0,0,0,0,0,0,0,0,0,0,0,0,0,0,0,0,0,0,0,0,0,0],"sum_hessian":[1.1114E4,1.0575E4,5.39E2,8.652E3,1.923E3,2.1E1,5.18E2,8.275E3,3.77E2,8.36E2,1.087E3,6.4E1,4.54E2,6.897E3,1.378E3,3.46E2,3.1E1,5.67E2,2.69E2,4E1,1.047E3,4.1E1,2.3E1,3.38E2,1.16E2],"tree_param":{"num_deleted":"0","num_feature":"176","num_nodes":"25","size_leaf_vector":"1"}},{"base_weights":[-0E0,2.3959443E-2,-9.629189E-5,-0E0,1.3520368E-3,-1.413804E-3,1.1892128E-3,-7.3466735E-4,-5.7051247E-3,2.4206676E-3,-9.719452E-4,6.94978E-6,-9.514112E-5,-1.88459E-4,-0E0,2.02719E-5,3.426533E-4,-1.1884302E-4,3.5300814E-5],"categories":[],"categories_nodes":[],"categories_segments":[],"categories_sizes":[],"default_left":[0,0,0,0,0,0,0,0,0,0,0,0,0,0,0,0,0,0,0],"id":8,"left_children":[1,3,5,-1,-1,7,9,11,13,15,17,-1,-1,-1,-1,-1,-1,-1,-1],"loss_changes":[2.6222019E-2,2.1611711E-2,1.8842537E-2,0E0,0E0,1.3246148E-2,1.51162725E-2,1.3208453E-2,3.2225214E-3,5.0341398E-2,1.30720055E-2,0E0,0E0,0E0,0E0,0E0,0E0,0E0,0E0],"parents":[2147483647,0,0,1,1,2,2,5,5,6,6,7,7,8,8,9,9,10,10],"right_children":[2,4,6,-1,-1,8,10,12,14,16,18,-1,-1,-1,-1,-1,-1,-1,-1],"split_conditions":[1.33E1,1.7359441E-3,1.4144E2,-0E0,1.3520368E-3,1.3339862E-2,3.175E2,1.233264E5,1.2101E2,2.7725E2,4.5885E2,6.94978E-6,-9.514112E-5,-1.88459E-4,-0E0,2.02719E-5,3.426533E-4,-1.1884302E-4,3.5300814E-5],"split_indices":[3,59,46,0,0,59,45,17,33,46,45,0,0,0,0,0,0,0,0],"split_type":[0,0,0,0,0,0,0,0,0,0,0,0,0,0,0,0,0,0,0],"sum_hessian":[1.1097E4,4.3E1,1.1054E4,2.2E1,2.1E1,5.651E3,5.403E3,4.982E3,6.69E2,3.589E3,1.814E3,3.422E3,1.56E3,6.33E2,3.6E1,3.055E3,5.34E2,8.55E2,9.59E2],"tree_param":{"num_deleted":"0","num_feature":"176","num_nodes":"19","size_leaf_vector":"1"}},{"base_weights":[-0E0,-2.3228755E-4,1.1674646E-2,-4.49456E-3,6.5696244E-5,1.3522205E-3,5.0517656E-3,-7.6400914E-4,-8.912618E-3,-4.8059883E-5,6.0828757E-3,8.305416E-3,-0E0,-0E0,-6.907248E-5,-0E0,-3.5540896E-4,1.5389911E-5,-1.0677507E-4,3.269218E-4,-0E0,-0E0,2.8135342E-4],"categories":[],"categories_nodes":[],"categories_segments":[],"categories_sizes":[],"default_left":[0,0,0,0,0,0,0,0,0,0,0,0,0,0,0,0,0,0,0,0,0,0,0],"id":9,"left_children":[1,3,5,7,9,-1,11,13,15,17,19,21,-1,-1,-1,-1,-1,-1,-1,-1,-1,-1,-1],"loss_changes":[3.2140628E-2,1.6050875E-2,2.5575664E-2,8.684458E-3,9.914044E-3,0E0,4.232731E-3,1.6772668E-3,6.80718E-3,2.084973E-2,8.531253E-3,4.2920187E-4,0E0,0E0,0E0,0E0,0E0,0E0,0E0,0E0,0E0,0E0,0E0],"parents":[2147483647,0,0,1,1,2,2,3,3,4,4,6,6,7,7,8,8,9,9,10,10,11,11],"right_children":[2,4,6,8,10,-1,12,14,16,18,20,22,-1,-1,-1,-1,-1,-1,-1,-1,-1,-1,-1],"split_conditions":[5.0157044E-2,3.281E1,1.33E1,3.107498E5,3.8864773E-2,1.3522205E-3,1.579934E5,1.9157E1,1.1704872E-2,2.5825052E-2,2.8131414E-2,1.7388E2,-0E0,-0E0,-6.907248E-5,-0E0,-3.5540896E-4,1.5389911E-5,-1.0677507E-4,3.269218E-4,-0E0,-0E0,2.8135342E-4],"split_indices":[58,46,0,17,58,0,17,15,58,58,57,33,0,0,0,0,0,0,0,0,0,0,0],"split_type":[0,0,0,0,0,0,0,0,0,0,0,0,0,0,0,0,0,0,0,0,0,0,0],"sum_hessian":[1.112E4,1.0891E4,2.29E2,8.19E2,1.0072E4,2.3E1,2.06E2,5.07E2,3.12E2,9.806E3,2.66E2,1.36E2,7E1,1.37E2,3.7E2,8.8E1,2.24E2,8.334E3,1.472E3,1.53E2,1.13E2,2.5E1,1.11E2],"tree_param":{"num_deleted":"0","num_feature":"176","num_nodes":"23","size_leaf_vector":"1"}},{"base_weights":[-0E0,2.4854602E-2,-1.0104762E-4,-0E0,1.3544298E-3,-1.3698069E-3,1.1089465E-3,-4.3137948E-4,-4.703676E-3,2.8106448E-4,6.0860002E-3,1.8249886E-5,-9.791964E-5,-8.6653505E-5,-3.7459555E-4,8.864453E-5,-1.280297E-5,2.45721E-4,-3.154532E-5],"categories":[],"categories_nodes":[],"categories_segments":[],"categories_sizes":[],"default_left":[0,0,0,0,0,0,0,0,0,0,0,0,0,0,0,0,0,0,0],"id":10,"left_children":[1,3,5,-1,-1,7,9,11,13,15,17,-1,-1,-1,-1,-1,-1,-1,-1],"loss_changes":[2.9456532E-2,2.263376E-2,1.7175619E-2,0E0,0E0,1.5014794E-2,1.939824E-2,1.4604837E-2,8.009959E-3,1.0329717E-2,1.4039146E-2,0E0,0E0,0E0,0E0,0E0,0E0,0E0,0E0],"parents":[2147483647,0,0,1,1,2,2,5,5,6,6,7,7,8,8,9,9,10,10],"right_children":[2,4,6,-1,-1,8,10,12,14,16,18,-1,-1,-1,-1,-1,-1,-1,-1],"split_conditions":[1.334E1,9.5933245E-4,1.4144E2,-0E0,1.3544298E-3,1.0836848E-2,1.3692E-2,1.24964E5,1.0805E2,-4.3196613E-3,1.82872E5,1.8249886E-5,-9.791964E-5,-8.6653505E-5,-3.7459555E-4,8.864453E-5,-1.280297E-5,2.45721E-4,-3.154532E-5],"split_indices":[1,57,46,0,0,57,34,4,46,57,4,0,0,0,0,0,0,0,0],"split_type":[0,0,0,0,0,0,0,0,0,0,0,0,0,0,0,0,0,0,0],"sum_hessian":[1.1143E4,4.5E1,1.1098E4,2.2E1,2.3E1,5.619E3,5.479E3,4.504E3,1.115E3,4.786E3,6.93E2,3.167E3,1.337E3,9.59E2,1.56E2,1.148E3,3.638E3,5.89E2,1.04E2],"tree_param":{"num_deleted":"0","num_feature":"176","num_nodes":"19","size_leaf_vector":"1"}},{"base_weights":[-0E0,2.206915E-2,-1.01961574E-4,-0E0,1.2350477E-3,-7.3419153E-3,8.699471E-5,-0E0,-1.6613392E-2,-4.5409685E-4,1.7616462E-3,-9.4495645E-6,-0E0,-5.270554E-4,-0E0,-0E0,-8.751463E-5,2.2229657E-4,-3.201277E-5],"categories":[],"categories_nodes":[],"categories_segments":[],"categories_sizes":[],"default_left":[0,0,0,0,0,0,0,0,0,0,0,0,0,0,0,0,0,0,0],"id":11,"left_children":[1,3,5,-1,-1,7,9,11,13,15,17,-1,-1,-1,-1,-1,-1,-1,-1],"loss_changes":[2.2275988E-2,1.766774E-2,1.8805351E-2,0E0,0E0,2.076734E-2,1.0393606E-2,1.8206112E-5,1.2897998E-3,8.2384E-3,4.873473E-2,0E0,0E0,0E0,0E0,0E0,0E0,0E0,0E0],"parents":[2147483647,0,0,1,1,2,2,5,5,6,6,7,7,8,8,9,9,10,10],"right_children":[2,4,6,-1,-1,8,10,12,14,16,18,-1,-1,-1,-1,-1,-1,-1,-1],"split_conditions":[1.1594E1,9.5933245E-4,2.258E1,-0E0,1.2350477E-3,1.934E1,2.4403E2,1.3366361E-2,2.3674466E-2,1.268133E-2,3.175E2,-9.4495645E-6,-0E0,-5.270554E-4,-0E0,-0E0,-8.751463E-5,2.2229657E-4,-3.201277E-5],"split_indices":[15,57,33,0,0,45,33,57,57,57,45,0,0,0,0,0,0,0,0],"split_type":[0,0,0,0,0,0,0,0,0,0,0,0,0,0,0,0,0,0,0],"sum_hessian":[1.1134E4,4.3E1,1.1091E4,2.2E1,2.1E1,3.47E2,1.0744E4,2.06E2,1.41E2,7.896E3,2.848E3,1.81E2,2.5E1,1.3E2,1.1E1,6.739E3,1.157E3,1.008E3,1.84E3],"tree_param":{"num_deleted":"0","num_feature":"176","num_nodes":"19","size_leaf_vector":"1"}},{"base_weights":[-0E0,-2.5889112E-4,1.0300319E-2,2.5033949E-5,-5.431589E-3,1.1901939E-3,5.3287228E-3,2.2022962E-3,-4.2768932E-4,-0E0,-6.664987E-3,7.166156E-3,-0E0,1.129526E-4,-0E0,-5.27102E-5,2.274087E-5,-0E0,-2.3365683E-4,-0E0,2.402433E-4],"categories":[],"categories_nodes":[],"categories_segments":[],"categories_sizes":[],"default_left":[0,0,0,0,0,0,0,0,0,0,0,0,0,0,0,0,0,0,0,0,0],"id":12,"left_children":[1,3,5,7,9,-1,11,13,15,-1,17,19,-1,-1,-1,-1,-1,-1,-1,-1,-1],"loss_changes":[2.9637627E-2,1.8618736E-2,1.6763663E-2,1.0927506E-2,3.472058E-3,0E0,3.0807084E-3,5.451398E-3,1.3494613E-2,0E0,4.5173652E-3,1.2534466E-3,0E0,0E0,0E0,0E0,0E0,0E0,0E0,0E0,0E0],"parents":[2147483647,0,0,1,1,2,2,3,3,4,4,6,6,7,7,8,8,10,10,11,11],"right_children":[2,4,6,8,10,-1,12,14,16,-1,18,20,-1,-1,-1,-1,-1,-1,-1,-1,-1],"split_conditions":[4.8442766E-2,3.650784E5,1.334E1,1.1299555E-2,1.1704872E-2,1.1901939E-3,2.9530497E-2,4.22846E4,1.4144E2,-0E0,-7.043E-3,2.342E1,-0E0,1.129526E-4,-0E0,-5.27102E-5,2.274087E-5,-0E0,-2.3365683E-4,-0E0,2.402433E-4],"split_indices":[58,17,1,58,58,0,57,17,46,0,12,1,0,0,0,0,0,0,0,0,0],"split_type":[0,0,0,0,0,0,0,0,0,0,0,0,0,0,0,0,0,0,0,0,0],"sum_hessian":[1.1104E4,1.0834E4,2.7E2,1.0181E4,6.53E2,2.2E1,2.48E2,1.941E3,8.24E3,1.42E2,5.11E2,1.96E2,5.2E1,1.047E3,8.94E2,4.083E3,4.157E3,6.3E1,4.48E2,2E1,1.76E2],"tree_param":{"num_deleted":"0","num_feature":"176","num_nodes":"21","size_leaf_vector":"1"}},{"base_weights":[-0E0,-2.296651E-4,9.581055E-3,9.1553804E-5,-5.569745E-3,1.1382705E-3,4.8476825E-3,-5.66714E-4,1.2196162E-3,-0E0,-6.845851E-3,6.5813237E-3,-0E0,4.0863084E-5,-3.6247227E-5,5.3071185E-6,3.2559547E-4,-0E0,-2.1639834E-4,-0E0,2.2567621E-4],"categories":[],"categories_nodes":[],"categories_segments":[],"categories_sizes":[],"default_left":[0,0,0,0,0,0,0,0,0,0,0,0,0,0,0,0,0,0,0,0,0],"id":13,"left_children":[1,3,5,7,9,-1,11,13,15,-1,17,19,-1,-1,-1,-1,-1,-1,-1,-1,-1],"loss_changes":[2.5586424E-2,2.1337168E-2,1.4726797E-2,7.85818E-3,4.116133E-3,0E0,2.687537E-3,7.506804E-3,3.483609E-2,0E0,2.1828134E-3,1.3900977E-3,0E0,0E0,0E0,0E0,0E0,0E0,0E0,0E0,0E0],"parents":[2147483647,0,0,1,1,2,2,3,3,4,4,6,6,7,7,8,8,10,10,11,11],"right_children":[2,4,6,8,10,-1,12,14,16,-1,18,20,-1,-1,-1,-1,-1,-1,-1,-1,-1],"split_conditions":[4.8442766E-2,1.2796739E1,1.159E1,1.7948E2,1.1704872E-2,1.1382705E-3,3.4365652E-3,1.1299555E-2,1.5323E-2,-0E0,-1.8579371E-2,-5.676747E-1,-0E0,4.0863084E-5,-3.6247227E-5,5.3071185E-6,3.2559547E-4,-0E0,-2.1639834E-4,-0E0,2.2567621E-4],"split_indices":[58,60,2,45,58,0,54,58,34,0,52,63,0,0,0,0,0,0,0,0,0],"split_type":[0,0,0,0,0,0,0,0,0,0,0,0,0,0,0,0,0,0,0,0,0],"sum_hessian":[1.1109E4,1.0839E4,2.7E2,1.0138E4,7.01E2,2.1E1,2.49E2,6.123E3,4.015E3,1.5E2,5.51E2,1.96E2,5.3E1,1.333E3,4.79E3,3.672E3,3.43E2,1.3E1,5.38E2,2.2E1,1.74E2],"tree_param":{"num_deleted":"0","num_feature":"176","num_nodes":"21","size_leaf_vector":"1"}},{"base_weights":[9.826734E-6,-3.1060097E-4,6.98113E-3,1.8098463E-4,-3.036182E-3,1.1287116E-3,4.5995405E-3,-3.463088E-4,2.967993E-3,-8.559382E-3,-1.5781267E-3,-8.957539E-3,7.780923E-3,5.219485E-5,-3.633784E-5,-0E0,2.3633055E-4,-1.0578683E-4,-8.131229E-4,6.474277E-6,-9.6759344E-5,-4.2531357E-4,-0E0,2.65475E-4,-0E0],"categories":[],"categories_nodes":[],"categories_segments":[],"categories_sizes":[],"default_left":[0,0,0,0,0,0,0,0,0,0,0,0,0,0,0,0,0,0,0,0,0,0,0,0,0],"id":14,"left_children":[1,3,5,7,9,-1,11,13,15,17,19,21,23,-1,-1,-1,-1,-1,-1,-1,-1,-1,-1,-1,-1],"loss_changes":[2.8036445E-2,1.5502152E-2,1.8922081E-2,1.4165548E-2,9.075012E-3,0E0,2.25528E-2,1.2742657E-2,2.4174396E-2,1.2027398E-2,5.8428724E-3,3.5288488E-3,6.3369274E-3,0E0,0E0,0E0,0E0,0E0,0E0,0E0,0E0,0E0,0E0,0E0,0E0],"parents":[2147483647,0,0,1,1,2,2,3,3,4,4,6,6,7,7,8,8,9,9,10,10,11,11,12,12],"right_children":[2,4,6,8,10,-1,12,14,16,18,20,22,24,-1,-1,-1,-1,-1,-1,-1,-1,-1,-1,-1,-1],"split_conditions":[3.8864773E-2,2.4792306E-2,1.33E1,1.9305257E-2,2.629118E-2,1.1287116E-3,4.59E1,1.1113763E-2,6.5986E4,2.6108881E-2,9.6054893E-4,4.6444103E-2,3.210292E-2,5.219485E-5,-3.633784E-5,-0E0,2.3633055E-4,-1.0578683E-4,-8.131229E-4,6.474277E-6,-9.6759344E-5,-4.2531357E-4,-0E0,2.65475E-4,-0E0],"split_indices":[58,58,0,58,58,0,0,58,17,58,59,58,56,0,0,0,0,0,0,0,0,0,0,0,0],"split_type":[0,0,0,0,0,0,0,0,0,0,0,0,0,0,0,0,0,0,0,0,0,0,0,0,0],"sum_hessian":[1.1053E4,1.0501E4,5.52E2,8.743E3,1.758E3,2.2E1,5.3E2,7.203E3,1.54E3,2.93E2,1.465E3,7E1,4.6E2,1.941E3,5.262E3,9.34E2,6.06E2,2.54E2,3.9E1,5.57E2,9.08E2,4.4E1,2.6E1,4.36E2,2.4E1],"tree_param":{"num_deleted":"0","num_feature":"176","num_nodes":"25","size_leaf_vector":"1"}},{"base_weights":[-0E0,-2.0594249E-4,8.241861E-3,5.792939E-5,-4.9919887E-3,1.1755642E-2,-0E0,6.484174E-4,-1.7770544E-3,-8.073652E-3,-8.7907177E-4,-0E0,1.489633E-2,-0E0,1.4190121E-4,-1.1640845E-4,3.0420683E-6,-0E0,-3.0683063E-4,1.5344849E-4,-1.0010711E-4,1.1782844E-4,7.627931E-4],"categories":[],"categories_nodes":[],"categories_segments":[],"categories_sizes":[],"default_left":[0,0,0,0,0,0,0,0,0,0,0,0,0,0,0,0,0,0,0,0,0,0,0],"id":15,"left_children":[1,3,5,7,9,11,-1,13,15,17,19,-1,21,-1,-1,-1,-1,-1,-1,-1,-1,-1,-1],"loss_changes":[1.9172398E-2,1.6110262E-2,8.302905E-3,1.0427243E-2,3.915509E-3,4.8256014E-3,0E0,2.0928137E-2,1.0833111E-2,6.238509E-3,4.4057113E-3,0E0,1.6478151E-3,0E0,0E0,0E0,0E0,0E0,0E0,0E0,0E0,0E0,0E0],"parents":[2147483647,0,0,1,1,2,2,3,3,4,4,5,5,7,7,8,8,9,9,10,10,12,12],"right_children":[2,4,6,8,10,12,-1,14,16,18,20,-1,22,-1,-1,-1,-1,-1,-1,-1,-1,-1,-1],"split_conditions":[4.8442766E-2,3.650784E5,7.6E-1,2.3103047E-2,4.98E1,5.54643E5,-0E0,1.9305257E-2,1.4784E2,1.679E1,5.334E1,-0E0,-1.1733E-2,-0E0,1.4190121E-4,-1.1640845E-4,3.0420683E-6,-0E0,-3.0683063E-4,1.5344849E-4,-1.0010711E-4,1.1782844E-4,7.627931E-4],"split_indices":[58,17,10,58,45,47,0,58,1,1,1,0,34,0,0,0,0,0,0,0,0,0,0],"split_type":[0,0,0,0,0,0,0,0,0,0,0,0,0,0,0,0,0,0,0,0,0,0,0],"sum_hessian":[1.1073E4,1.08E4,2.73E2,1.0139E4,6.61E2,1.93E2,8E1,7.878E3,2.261E3,3.07E2,3.54E2,5.2E1,1.41E2,6.797E3,1.081E3,1.191E3,1.07E3,5.7E1,2.5E2,4.3E1,3.11E2,9.4E1,4.7E1],"tree_param":{"num_deleted":"0","num_feature":"176","num_nodes":"23","size_leaf_vector":"1"}},{"base_weights":[1.0317085E-4,1.8241804E-2,-0E0,-0E0,1.0568275E-3,-4.3020546E-3,3.7807043E-4,-0E0,-5.5707274E-3,1.5407038E-3,-4.4783144E-4,-3.392232E-4,-5.2478E-5,5.244201E-5,-0E0,7.174452E-6,-7.078175E-5],"categories":[],"categories_nodes":[],"categories_segments":[],"categories_sizes":[],"default_left":[0,0,0,0,0,0,0,0,0,0,0,0,0,0,0,0,0],"id":16,"left_children":[1,3,5,-1,-1,7,9,-1,11,13,15,-1,-1,-1,-1,-1,-1],"loss_changes":[1.5022144E-2,1.2781376E-2,1.6801933E-2,0E0,0E0,6.187778E-3,1.0412032E-2,0E0,8.625535E-3,2.3022695E-3,8.620989E-3,0E0,0E0,0E0,0E0,0E0,0E0],"parents":[2147483647,0,0,1,1,2,2,5,5,6,6,8,8,9,9,10,10],"right_children":[2,4,6,-1,-1,8,10,-1,12,14,16,-1,-1,-1,-1,-1,-1],"split_conditions":[1.159E1,9.5933245E-4,3.281E1,-0E0,1.0568275E-3,1.716E1,2.7726817E-5,-0E0,2.258E1,4.532052E6,1.9E1,-3.392232E-4,-5.2478E-5,5.244201E-5,-0E0,7.174452E-6,-7.078175E-5],"split_indices":[2,57,46,0,0,33,54,0,33,47,39,0,0,0,0,0,0],"split_type":[0,0,0,0,0,0,0,0,0,0,0,0,0,0,0,0,0],"sum_hessian":[1.1139E4,4.3E1,1.1096E4,2.3E1,2E1,8.26E2,1.027E4,1.35E2,6.91E2,4.516E3,5.754E3,2.22E2,4.69E2,4.261E3,2.55E2,4.042E3,1.712E3],"tree_param":{"num_deleted":"0","num_feature":"176","num_nodes":"17","size_leaf_vector":"1"}},{"base_weights":[-0E0,-2.447315E-4,8.38828E-3,-0E0,-5.090956E-3,2.1842299E-2,2.7356117E-3,-4.8488952E-4,1.5671661E-3,-0E0,-6.2487186E-3,-0E0,1.010349E-3,5.366847E-3,-0E0,-8.589539E-5,-0E0,2.1435578E-4,-3.74834E-5,-0E0,-2.2665705E-4,1.8925428E-4,-0E0],"categories":[],"categories_nodes":[],"categories_segments":[],"categories_sizes":[],"default_left":[0,0,0,0,0,0,0,0,0,0,0,0,0,0,0,0,0,0,0,0,0,0,0],"id":17,"left_children":[1,3,5,7,9,11,13,15,17,-1,19,-1,-1,21,-1,-1,-1,-1,-1,-1,-1,-1,-1],"loss_changes":[1.968367E-2,1.4861411E-2,8.133488E-3,8.222463E-3,2.6643164E-3,1.3606764E-2,2.8938358E-3,8.608337E-3,4.4062685E-2,0E0,4.0571373E-3,0E0,0E0,1.4927462E-3,0E0,0E0,0E0,0E0,0E0,0E0,0E0,0E0,0E0],"parents":[2147483647,0,0,1,1,2,2,3,3,4,4,5,5,6,6,7,7,8,8,10,10,13,13],"right_children":[2,4,6,8,10,12,14,16,18,-1,20,-1,-1,22,-1,-1,-1,-1,-1,-1,-1,-1,-1],"split_conditions":[4.8442766E-2,3.792878E5,5.129E1,2.4403E2,1.1704872E-2,-3.0647E-2,4.9841516E-3,-6.187E-3,3.175E2,-0E0,-3.837464E-3,-0E0,1.010349E-3,5.57689E5,-0E0,-8.589539E-5,-0E0,2.1435578E-4,-3.74834E-5,-0E0,-2.2665705E-4,1.8925428E-4,-0E0],"split_indices":[58,17,0,33,58,34,52,34,45,0,55,0,0,4,0,0,0,0,0,0,0,0,0],"split_type":[0,0,0,0,0,0,0,0,0,0,0,0,0,0,0,0,0,0,0,0,0,0,0],"sum_hessian":[1.1125E4,1.0857E4,2.68E2,1.0261E4,5.96E2,5.1E1,2.17E2,7.648E3,2.613E3,1.33E2,4.63E2,1.9E1,3.2E1,1.55E2,6.2E1,1.267E3,6.381E3,9.35E2,1.678E3,7.6E1,3.87E2,1.49E2,6E0],"tree_param":{"num_deleted":"0","num_feature":"176","num_nodes":"23","size_leaf_vector":"1"}},{"base_weights":[-0E0,-2.6066395E-4,8.588215E-3,5.07378E-5,-4.4029495E-3,1.0003586E-3,4.353045E-3,9.6962525E-4,-6.515581E-4,-5.5707027E-3,-0E0,6.459211E-3,-0E0,-2.4263889E-5,4.726199E-5,-5.5652003E-5,9.361118E-6,-1.955197E-4,-0E0,5.129254E-4,-1.8700417E-4,-0E0,2.1746739E-4,-5.2380037E-5,-0E0],"categories":[],"categories_nodes":[],"categories_segments":[],"categories_sizes":[],"default_left":[0,0,0,0,0,0,0,0,0,0,0,0,0,0,0,0,0,0,0,0,0,0,0,0,0],"id":18,"left_children":[1,3,5,7,9,-1,11,13,15,17,19,21,23,-1,-1,-1,-1,-1,-1,-1,-1,-1,-1,-1,-1],"loss_changes":[2.150146E-2,1.6201263E-2,1.0303335E-2,6.615536E-3,6.3447747E-3,0E0,3.303763E-3,5.387957E-3,6.991829E-3,4.965944E-3,1.7266825E-2,1.0345215E-3,1.0517396E-4,0E0,0E0,0E0,0E0,0E0,0E0,0E0,0E0,0E0,0E0,0E0,0E0],"parents":[2147483647,0,0,1,1,2,2,3,3,4,4,6,6,7,7,8,8,9,9,10,10,11,11,12,12],"right_children":[2,4,6,8,10,-1,12,14,16,18,20,22,24,-1,-1,-1,-1,-1,-1,-1,-1,-1,-1,-1,-1],"split_conditions":[4.8442766E-2,4.005182E6,1.33E1,1.3070522E-4,2.6283E2,1.0003586E-3,2.9530497E-2,-6.206E-3,1.422E2,1.6243317E7,3.209E2,2.335E1,2.1743E2,-2.4263889E-5,4.726199E-5,-5.5652003E-5,9.361118E-6,-1.955197E-4,-0E0,5.129254E-4,-1.8700417E-4,-0E0,2.1746739E-4,-5.2380037E-5,-0E0],"split_indices":[58,47,0,54,0,0,57,35,33,47,0,0,0,0,0,0,0,0,0,0,0,0,0,0,0],"split_type":[0,0,0,0,0,0,0,0,0,0,0,0,0,0,0,0,0,0,0,0,0,0,0,0,0],"sum_hessian":[1.1149E4,1.087E4,2.79E2,1E4,8.7E2,2.1E1,2.58E2,4.64E3,5.36E3,7.47E2,1.23E2,1.95E2,6.3E1,9.69E2,3.671E3,2.613E3,2.747E3,6.62E2,8.5E1,4.6E1,7.7E1,2.1E1,1.74E2,3.2E1,3.1E1],"tree_param":{"num_deleted":"0","num_feature":"176","num_nodes":"25","size_leaf_vector":"1"}},{"base_weights":[-6.4040296E-6,-2.6037145E-4,8.037986E-3,5.2693317E-6,-5.070718E-3,1.908644E-2,2.9143451E-3,4.8429213E-4,-1.8635319E-3,-8.513949E-3,-9.739265E-4,-0E0,9.3880086E-4,5.4092086E-3,-0E0,-1.5692798E-6,9.683163E-5,-1.4462526E-4,2.290686E-6,-0E0,-3.1858397E-4,-0E0,-1.2813801E-4,1.8891922E-4,-0E0],"categories":[],"categories_nodes":[],"categories_segments":[],"categories_sizes":[],"default_left":[0,0,0,0,0,0,0,0,0,0,0,0,0,0,0,0,0,0,0,0,0,0,0,0,0],"id":19,"left_children":[1,3,5,7,9,11,13,15,17,19,21,-1,-1,23,-1,-1,-1,-1,-1,-1,-1,-1,-1,-1,-1],"loss_changes":[1.8858224E-2,1.6401654E-2,4.7391765E-3,8.43426E-3,4.637113E-3,1.28381755E-2,2.8394111E-3,1.384433E-2,1.3080994E-2,6.2657837E-3,2.9934458E-3,0E0,0E0,1.4515021E-3,0E0,0E0,0E0,0E0,0E0,0E0,0E0,0E0,0E0,0E0,0E0],"parents":[2147483647,0,0,1,1,2,2,3,3,4,4,5,5,6,6,7,7,8,8,9,9,10,10,13,13],"right_children":[2,4,6,8,10,12,14,16,18,20,22,-1,-1,24,-1,-1,-1,-1,-1,-1,-1,-1,-1,-1,-1],"split_conditions":[4.8442766E-2,3.650784E5,5.122E1,2.4792306E-2,4.676E1,-3.0647E-2,4.9841516E-3,1.9305257E-2,2.9864851E-2,1.672E1,2.130417E-2,-0E0,9.3880086E-4,4.312126E5,-0E0,-1.5692798E-6,9.683163E-5,-1.4462526E-4,2.290686E-6,-0E0,-3.1858397E-4,-0E0,-1.2813801E-4,1.8891922E-4,-0E0],"split_indices":[58,17,2,58,2,34,52,58,58,2,58,0,0,17,0,0,0,0,0,0,0,0,0,0,0],"split_type":[0,0,0,0,0,0,0,0,0,0,0,0,0,0,0,0,0,0,0,0,0,0,0,0,0],"sum_hessian":[1.1129E4,1.0851E4,2.78E2,1.0187E4,6.64E2,5.5E1,2.23E2,8.323E3,1.864E3,2.93E2,3.71E2,2.3E1,3.2E1,1.6E2,6.3E1,6.811E3,1.512E3,8.39E2,1.025E3,5E1,2.43E2,1.9E2,1.81E2,1.54E2,6E0],"tree_param":{"num_deleted":"0","num_feature":"176","num_nodes":"25","size_leaf_vector":"1"}},{"base_weights":[4.573169E-5,-2.2966602E-4,6.28405E-3,2.540375E-4,-2.8604153E-3,1.0087049E-3,3.9760275E-3,-2.7253543E-4,2.9629709E-3,-0E0,-4.5939093E-3,-9.250889E-3,7.157172E-3,5.105832E-5,-3.459729E-5,-0E0,2.3954845E-4,1.9661017E-4,-4.702707E-5,5.9008584E-5,-1.6955883E-4,-4.249391E-4,-0E0,2.7788847E-4,-0E0],"categories":[],"categories_nodes":[],"categories_segments":[],"categories_sizes":[],"default_left":[0,0,0,0,0,0,0,0,0,0,0,0,0,0,0,0,0,0,0,0,0,0,0,0,0],"id":20,"left_children":[1,3,5,7,9,-1,11,13,15,17,19,21,23,-1,-1,-1,-1,-1,-1,-1,-1,-1,-1,-1,-1],"loss_changes":[2.2196157E-2,1.4805622E-2,1.5476409E-2,1.3904996E-2,9.862927E-3,0E0,2.122999E-2,1.22830905E-2,2.7219713E-2,7.5982036E-3,9.981707E-3,3.1251442E-3,8.02768E-3,0E0,0E0,0E0,0E0,0E0,0E0,0E0,0E0,0E0,0E0,0E0,0E0],"parents":[2147483647,0,0,1,1,2,2,3,3,4,4,6,6,7,7,8,8,9,9,10,10,11,11,12,12],"right_children":[2,4,6,8,10,-1,12,14,16,18,20,22,24,-1,-1,-1,-1,-1,-1,-1,-1,-1,-1,-1,-1],"split_conditions":[3.8864773E-2,2.4792306E-2,1.33E1,1.9305257E-2,-8.1267784E-4,1.0087049E-3,4.59E1,1.1299555E-2,6.5176E4,7.867E1,1.78246E5,4.6444103E-2,3.4365652E-3,5.105832E-5,-3.459729E-5,-0E0,2.3954845E-4,1.9661017E-4,-4.702707E-5,5.9008584E-5,-1.6955883E-4,-4.249391E-4,-0E0,2.7788847E-4,-0E0],"split_indices":[58,58,0,58,59,0,0,58,17,0,47,58,54,0,0,0,0,0,0,0,0,0,0,0,0],"split_type":[0,0,0,0,0,0,0,0,0,0,0,0,0,0,0,0,0,0,0,0,0,0,0,0,0],"sum_hessian":[1.1153E4,1.0607E4,5.46E2,8.801E3,1.806E3,2.3E1,5.23E2,7.216E3,1.585E3,6.4E2,1.166E3,7E1,4.53E2,2.05E3,5.166E3,9.42E2,6.43E2,1.46E2,4.94E2,9.6E1,1.07E3,4.4E1,2.6E1,3.63E2,9E1],"tree_param":{"num_deleted":"0","num_feature":"176","num_nodes":"25","size_leaf_vector":"1"}},{"base_weights":[2.6710317E-5,2.009008E-2,-1.058143E-5,-0E0,1.0344146E-3,2.023185E-4,-4.323498E-3,-4.0764717E-4,2.1182876E-3,-0E0,-5.863337E-3,1.1324751E-6,-6.273113E-5,2.1923454E-4,-1.4598903E-5,-1.6081157E-4,1.0178585E-4,-0E0,-2.2689223E-4],"categories":[],"categories_nodes":[],"categories_segments":[],"categories_sizes":[],"default_left":[0,0,0,0,0,0,0,0,0,0,0,0,0,0,0,0,0,0,0],"id":21,"left_children":[1,3,5,-1,-1,7,9,11,13,15,17,-1,-1,-1,-1,-1,-1,-1,-1],"loss_changes":[1.8357627E-2,1.1952743E-2,1.2230682E-2,0E0,0E0,1.3063708E-2,4.130137E-3,6.819986E-3,4.019602E-2,3.1712144E-3,4.6861004E-3,0E0,0E0,0E0,0E0,0E0,0E0,0E0,0E0],"parents":[2147483647,0,0,1,1,2,2,5,5,6,6,7,7,8,8,9,9,10,10],"right_children":[2,4,6,-1,-1,8,10,12,14,16,18,-1,-1,-1,-1,-1,-1,-1,-1],"split_conditions":[1.159E1,9.5933245E-4,3.792878E5,-0E0,1.0344146E-3,2.4403E2,-4.180494E-3,2.3103047E-2,3.1553E2,-1.0803082E-2,1.1704872E-2,1.1324751E-6,-6.273113E-5,2.1923454E-4,-1.4598903E-5,-1.6081157E-4,1.0178585E-4,-0E0,-2.2689223E-4],"split_indices":[2,57,17,0,0,33,57,58,1,59,58,0,0,0,0,0,0,0,0],"split_type":[0,0,0,0,0,0,0,0,0,0,0,0,0,0,0,0,0,0,0],"sum_hessian":[1.1114E4,4.3E1,1.1071E4,2E1,2.3E1,1.0442E4,6.29E2,7.724E3,2.718E3,1.68E2,4.61E2,5.875E3,1.849E3,9.71E2,1.747E3,6.6E1,1.02E2,1.03E2,3.58E2],"tree_param":{"num_deleted":"0","num_feature":"176","num_nodes":"19","size_leaf_vector":"1"}},{"base_weights":[-0E0,-3.1895592E-4,6.419347E-3,-2.1587986E-5,-4.42524E-3,9.255362E-3,-0E0,3.2905498E-4,-2.117397E-3,-0E0,-5.52603E-3,2.0852291E-3,1.4972314E-2,-0E0,-1.458044E-3,-3.6539186E-6,8.204727E-5,-1.2607024E-4,-0E0,-0E0,-1.786421E-4,-0E0,1.6074638E-4,-0E0,4.999168E-4,5.949052E-5,-0E0,-0E0,-5.5701843E-5],"categories":[],"categories_nodes":[],"categories_segments":[],"categories_sizes":[],"default_left":[0,0,0,0,0,0,0,0,0,0,0,0,0,0,0,0,0,0,0,0,0,0,0,0,0,0,0,0,0],"id":22,"left_children":[1,3,5,7,9,11,13,15,17,-1,19,21,23,25,27,-1,-1,-1,-1,-1,-1,-1,-1,-1,-1,-1,-1,-1,-1],"loss_changes":[2.3107463E-2,1.0760672E-2,1.05686E-2,8.267868E-3,2.5298875E-3,6.990373E-3,1.2011292E-4,1.040952E-2,7.267105E-3,0E0,1.8193228E-3,3.491761E-3,5.899146E-3,3.40149E-4,5.398276E-5,0E0,0E0,0E0,0E0,0E0,0E0,0E0,0E0,0E0,0E0,0E0,0E0,0E0,0E0],"parents":[2147483647,0,0,1,1,2,2,3,3,4,4,5,5,6,6,7,7,8,8,10,10,11,11,12,12,13,13,14,14],"right_children":[2,4,6,8,10,12,14,16,18,-1,20,22,24,26,28,-1,-1,-1,-1,-1,-1,-1,-1,-1,-1,-1,-1,-1,-1],"split_conditions":[3.8864773E-2,3.7876E5,5.2915774E-3,2.4792306E-2,1.1704872E-2,-3.62152E-3,2E1,1.9305257E-2,2.9864851E-2,-0E0,-9.968596E-3,4.8442766E-2,1.1925E4,3.210292E-2,-2.7425813E-2,-3.6539186E-6,8.204727E-5,-1.2607024E-4,-0E0,-0E0,-1.786421E-4,-0E0,1.6074638E-4,-0E0,4.999168E-4,5.949052E-5,-0E0,-0E0,-5.5701843E-5],"split_indices":[58,4,52,58,58,59,39,58,58,0,56,58,4,56,59,0,0,0,0,0,0,0,0,0,0,0,0,0,0],"split_type":[0,0,0,0,0,0,0,0,0,0,0,0,0,0,0,0,0,0,0,0,0,0,0,0,0,0,0,0,0],"sum_hessian":[1.1163E4,1.0631E4,5.32E2,1.0029E4,6.02E2,3.78E2,1.54E2,8.389E3,1.64E3,1.34E2,4.68E2,2.08E2,1.7E2,1E2,5.4E1,6.892E3,1.497E3,8.26E2,8.14E2,1.4E1,4.54E2,5.7E1,1.51E2,1.2E1,1.58E2,8.4E1,1.6E1,6E0,4.8E1],"tree_param":{"num_deleted":"0","num_feature":"176","num_nodes":"29","size_leaf_vector":"1"}},{"base_weights":[-0E0,-3.080492E-4,5.4739784E-3,1.612907E-4,-2.847646E-3,7.85979E-3,-0E0,4.558456E-4,-5.271212E-3,-8.194808E-3,-1.4113733E-3,1.3014312E-3,1.26630105E-2,-4.046558E-7,8.799274E-5,-1.959364E-4,-0E0,-8.2342565E-5,-8.541365E-4,-0E0,-8.742222E-5,-0E0,1.3709364E-4,-0E0,4.3889883E-4],"categories":[],"categories_nodes":[],"categories_segments":[],"categories_sizes":[],"default_left":[0,0,0,0,0,0,0,0,0,0,0,0,0,0,0,0,0,0,0,0,0,0,0,0,0],"id":23,"left_children":[1,3,5,7,9,11,-1,13,15,17,19,21,23,-1,-1,-1,-1,-1,-1,-1,-1,-1,-1,-1,-1],"loss_changes":[1.7115893E-2,1.4030676E-2,7.5235534E-3,1.1711027E-2,9.195481E-3,5.025802E-3,0E0,1.1290738E-2,4.5117987E-3,1.8730259E-2,4.541143E-3,2.8106277E-3,4.98046E-3,0E0,0E0,0E0,0E0,0E0,0E0,0E0,0E0,0E0,0E0,0E0,0E0],"parents":[2147483647,0,0,1,1,2,2,3,3,4,4,5,5,7,7,8,8,9,9,10,10,11,11,12,12],"right_children":[2,4,6,8,10,12,-1,14,16,18,20,22,24,-1,-1,-1,-1,-1,-1,-1,-1,-1,-1,-1,-1],"split_conditions":[3.8864773E-2,2.4792306E-2,5.187E-3,4.312126E5,2.629118E-2,-5.741E-3,-0E0,1.9305257E-2,2.6283E2,2.6108881E-2,3.671E-3,4.8442766E-2,4.11758E5,-4.046558E-7,8.799274E-5,-1.959364E-4,-0E0,-8.2342565E-5,-8.541365E-4,-0E0,-8.742222E-5,-0E0,1.3709364E-4,-0E0,4.3889883E-4],"split_indices":[58,58,12,17,58,34,0,58,0,58,34,58,47,0,0,0,0,0,0,0,0,0,0,0,0],"split_type":[0,0,0,0,0,0,0,0,0,0,0,0,0,0,0,0,0,0,0,0,0,0,0,0,0],"sum_hessian":[1.1176E4,1.0641E4,5.35E2,8.817E3,1.824E3,3.8E2,1.55E2,8.453E3,3.64E2,3.1E2,1.514E3,2.06E2,1.74E2,6.939E3,1.514E3,3.42E2,2.2E1,2.66E2,4.4E1,6.26E2,8.88E2,5.7E1,1.49E2,2.1E1,1.53E2],"tree_param":{"num_deleted":"0","num_feature":"176","num_nodes":"25","size_leaf_vector":"1"}},{"base_weights":[4.509158E-5,-1.8070822E-4,5.3156894E-3,2.4001612E-4,-2.4758498E-3,7.7382373E-3,-0E0,4.901898E-4,-4.169883E-3,-0E0,-4.0919106E-3,8.574193E-4,1.3141264E-2,-0E0,-4.195697E-4,-0E0,8.396231E-5,-1.6386784E-4,-0E0,3.3836885E-5,-1.283278E-4,2.9606212E-5,-1.4281728E-4,-0E0,1.2358383E-4,-0E0,4.3095674E-4,4.8646718E-5,-0E0,-0E0,-5.1905747E-5],"categories":[],"categories_nodes":[],"categories_segments":[],"categories_sizes":[],"default_left":[0,0,0,0,0,0,0,0,0,0,0,0,0,0,0,0,0,0,0,0,0,0,0,0,0,0,0,0,0,0,0],"id":24,"left_children":[1,3,5,7,9,11,13,15,17,19,21,23,25,27,29,-1,-1,-1,-1,-1,-1,-1,-1,-1,-1,-1,-1,-1,-1,-1,-1],"loss_changes":[1.5763933E-2,1.1299472E-2,7.581774E-3,7.793797E-3,6.046473E-3,7.2671417E-3,1.0650342E-5,9.914858E-3,3.933198E-3,4.7838143E-3,5.3846E-3,2.3977554E-3,4.43035E-3,2.300767E-4,1.2555678E-4,0E0,0E0,0E0,0E0,0E0,0E0,0E0,0E0,0E0,0E0,0E0,0E0,0E0,0E0,0E0,0E0],"parents":[2147483647,0,0,1,1,2,2,3,3,4,4,5,5,6,6,7,7,8,8,9,9,10,10,11,11,12,12,13,13,14,14],"right_children":[2,4,6,8,10,12,14,16,18,20,22,24,26,28,30,-1,-1,-1,-1,-1,-1,-1,-1,-1,-1,-1,-1,-1,-1,-1,-1],"split_conditions":[3.8864773E-2,2.4792306E-2,5.187E-3,4.312126E5,2.2962124E-3,-1.02482885E-2,2E1,1.9305257E-2,2.6283E2,1.376576E5,-5.223296E-4,4.8442766E-2,-6.5956726E-3,3.210292E-2,3.08698E4,-0E0,8.396231E-5,-1.6386784E-4,-0E0,3.3836885E-5,-1.283278E-4,2.9606212E-5,-1.4281728E-4,-0E0,1.2358383E-4,-0E0,4.3095674E-4,4.8646718E-5,-0E0,-0E0,-5.1905747E-5],"split_indices":[58,58,12,17,57,59,39,58,0,17,59,58,54,56,17,0,0,0,0,0,0,0,0,0,0,0,0,0,0,0,0],"split_type":[0,0,0,0,0,0,0,0,0,0,0,0,0,0,0,0,0,0,0,0,0,0,0,0,0,0,0,0,0,0,0],"sum_hessian":[1.1084E4,1.054E4,5.44E2,8.725E3,1.815E3,3.82E2,1.62E2,8.366E3,3.59E2,7.91E2,1.024E3,2.1E2,1.72E2,1.04E2,5.8E1,6.846E3,1.52E3,3.4E2,1.9E1,5.72E2,2.19E2,3.2E1,9.92E2,6.2E1,1.48E2,7E0,1.65E2,8.5E1,1.9E1,1.5E1,4.3E1],"tree_param":{"num_deleted":"0","num_feature":"176","num_nodes":"31","size_leaf_vector":"1"}},{"base_weights":[-0E0,1.8170513E-2,-7.7565266E-5,-0E0,9.510304E-4,-3.7041644E-3,1.6484215E-4,-5.668326E-4,-7.5706444E-3,-3.7409836E-6,4.8366175E-3,8.972111E-7,-6.149805E-5,-0E0,-2.5293897E-4,1.1290874E-5,-7.361183E-5,1.8829505E-4,-0E0],"categories":[],"categories_nodes":[],"categories_segments":[],"categories_sizes":[],"default_left":[0,0,0,0,0,0,0,0,0,0,0,0,0,0,0,0,0,0,0],"id":25,"left_children":[1,3,5,-1,-1,7,9,11,13,15,17,-1,-1,-1,-1,-1,-1,-1,-1],"loss_changes":[1.5088897E-2,9.598754E-3,1.1455074E-2,0E0,0E0,5.86142E-3,1.0448643E-2,1.4761335E-3,2.4346747E-3,1.011368E-2,4.1457824E-3,0E0,0E0,0E0,0E0,0E0,0E0,0E0,0E0],"parents":[2147483647,0,0,1,1,2,2,5,5,6,6,7,7,8,8,9,9,10,10],"right_children":[2,4,6,-1,-1,8,10,12,14,16,18,-1,-1,-1,-1,-1,-1,-1,-1],"split_conditions":[1.1594E1,1.1299555E-2,3.281E1,-0E0,9.510304E-4,3.107498E5,3.8864773E-2,1.9157E1,8.401157E-3,2.5825052E-2,3.994156E-3,8.972111E-7,-6.149805E-5,-0E0,-2.5293897E-4,1.1290874E-5,-7.361183E-5,1.8829505E-4,-0E0],"split_indices":[15,58,46,0,0,17,58,15,58,58,54,0,0,0,0,0,0,0,0],"split_type":[0,0,0,0,0,0,0,0,0,0,0,0,0,0,0,0,0,0,0],"sum_hessian":[1.1056E4,4.3E1,1.1013E4,2.1E1,2.2E1,8.17E2,1.0196E4,5.24E2,2.93E2,9.74E3,4.56E2,1.35E2,3.89E2,2.3E1,2.7E2,8.257E3,1.483E3,3.75E2,8.1E1],"tree_param":{"num_deleted":"0","num_feature":"176","num_nodes":"19","size_leaf_vector":"1"}},{"base_weights":[3.0533403E-5,2.1359675E-2,-1.577479E-5,-0E0,1.0232572E-3,-1.12485E-3,1.044985E-3,1.7938861E-3,-1.9645756E-3,2.1763304E-3,-9.367268E-4,-1.7766577E-5,9.172478E-5,-4.7712037E-5,-3.1266062E-4,1.20194445E-5,3.4483316E-4,7.0528666E-5,-9.014812E-5],"categories":[],"categories_nodes":[],"categories_segments":[],"categories_sizes":[],"default_left":[0,0,0,0,0,0,0,0,0,0,0,0,0,0,0,0,0,0,0],"id":26,"left_children":[1,3,5,-1,-1,7,9,11,13,15,17,-1,-1,-1,-1,-1,-1,-1,-1],"loss_changes":[2.166358E-2,1.1485549E-2,1.3081017E-2,0E0,0E0,1.3940727E-2,1.2811292E-2,4.645732E-3,8.260902E-3,5.3962283E-2,1.2696161E-2,0E0,0E0,0E0,0E0,0E0,0E0,0E0,0E0],"parents":[2147483647,0,0,1,1,2,2,5,5,6,6,7,7,8,8,9,9,10,10],"right_children":[2,4,6,-1,-1,8,10,12,14,16,18,-1,-1,-1,-1,-1,-1,-1,-1],"split_conditions":[1.159E1,9.5933245E-4,1.4144E2,-0E0,1.0232572E-3,1.1299555E-2,3.175E2,4.676E1,1.388E2,2.7725E2,-1.0197297E-3,-1.7766577E-5,9.172478E-5,-4.7712037E-5,-3.1266062E-4,1.20194445E-5,3.4483316E-4,7.0528666E-5,-9.014812E-5],"split_indices":[2,57,46,0,0,58,45,0,45,46,57,0,0,0,0,0,0,0,0],"split_type":[0,0,0,0,0,0,0,0,0,0,0,0,0,0,0,0,0,0,0],"sum_hessian":[1.1125E4,4.5E1,1.108E4,1.9E1,2.6E1,5.647E3,5.433E3,1.128E3,4.519E3,3.619E3,1.814E3,2.54E2,8.74E2,4.387E3,1.32E2,3.087E3,5.32E2,6.07E2,1.207E3],"tree_param":{"num_deleted":"0","num_feature":"176","num_nodes":"19","size_leaf_vector":"1"}},{"base_weights":[-0E0,-2.7413078E-4,5.627837E-3,1.9778732E-4,-2.21837E-3,2.3748955E-2,3.2286183E-3,-2.6744048E-4,3.630282E-3,1.4807062E-3,-2.7644753E-3,-0E0,1.1092649E-3,-0E0,7.2437185E-3,4.528866E-5,-3.1448537E-5,-0E0,2.8989982E-4,3.2253735E-4,-3.527023E-4,4.9195452E-5,-9.7949815E-5,-3.79651E-4,3.905501E-5,2.9243383E-4,-0E0],"categories":[],"categories_nodes":[],"categories_segments":[],"categories_sizes":[],"default_left":[0,0,0,0,0,0,0,0,0,0,0,0,0,0,0,0,0,0,0,0,0,0,0,0,0,0,0],"id":27,"left_children":[1,3,5,7,9,11,13,15,17,19,21,-1,-1,23,25,-1,-1,-1,-1,-1,-1,-1,-1,-1,-1,-1,-1],"loss_changes":[1.7667199E-2,1.0798134E-2,9.470774E-3,1.5063408E-2,5.279122E-3,9.611238E-3,9.322431E-3,9.83692E-3,2.6728308E-2,2.1718469E-2,5.4872595E-3,0E0,0E0,8.226546E-3,4.3530148E-3,0E0,0E0,0E0,0E0,0E0,0E0,0E0,0E0,0E0,0E0,0E0,0E0],"parents":[2147483647,0,0,1,1,2,2,3,3,4,4,5,5,6,6,7,7,8,8,9,9,10,10,13,13,14,14],"right_children":[2,4,6,8,10,12,14,16,18,20,22,-1,-1,24,26,-1,-1,-1,-1,-1,-1,-1,-1,-1,-1,-1,-1],"split_conditions":[3.8864773E-2,2.3103047E-2,3.9517634E-2,1.9305257E-2,-1.8632E-2,1.7327E2,4.8442766E-2,1.1299555E-2,6.68818E4,1.9663E2,1.0287E4,-0E0,1.1092649E-3,4.59E1,7.6E-1,4.528866E-5,-3.1448537E-5,-0E0,2.8989982E-4,3.2253735E-4,-3.527023E-4,4.9195452E-5,-9.7949815E-5,-3.79651E-4,3.905501E-5,2.9243383E-4,-0E0],"split_indices":[58,58,58,58,35,0,58,58,17,2,17,0,0,0,10,0,0,0,0,0,0,0,0,0,0,0,0],"split_type":[0,0,0,0,0,0,0,0,0,0,0,0,0,0,0,0,0,0,0,0,0,0,0,0,0,0,0],"sum_hessian":[1.1194E4,1.0664E4,5.3E2,8.376E3,2.288E3,3.5E1,4.95E2,7.25E3,1.126E3,1.76E2,2.112E3,1.5E1,2E1,2.21E2,2.74E2,2.017E3,5.233E3,6.83E2,4.43E2,1.26E2,5E1,1.13E2,1.999E3,4.7E1,1.74E2,1.96E2,7.8E1],"tree_param":{"num_deleted":"0","num_feature":"176","num_nodes":"27","size_leaf_vector":"1"}},{"base_weights":[-0E0,1.7494628E-2,-8.8367415E-5,-0E0,9.1062847E-4,-5.6647696E-3,5.1661642E-5,-0E0,-1.3655521E-2,1.0200993E-3,-6.4145017E-4,-0E0,-2.8120072E-5,-4.3106478E-4,-0E0,4.675617E-5,-3.2761916E-5,1.3042339E-6,-7.718855E-5],"categories":[],"categories_nodes":[],"categories_segments":[],"categories_sizes":[],"default_left":[0,0,0,0,0,0,0,0,0,0,0,0,0,0,0,0,0,0,0],"id":28,"left_children":[1,3,5,-1,-1,7,9,11,13,15,17,-1,-1,-1,-1,-1,-1,-1,-1],"loss_changes":[1.4318276E-2,9.263373E-3,1.1446312E-2,0E0,0E0,1.4695363E-2,7.378215E-3,8.039175E-5,1.1568815E-3,5.6605777E-3,9.125224E-3,0E0,0E0,0E0,0E0,0E0,0E0,0E0,0E0],"parents":[2147483647,0,0,1,1,2,2,5,5,6,6,7,7,8,8,9,9,10,10],"right_children":[2,4,6,-1,-1,8,10,12,14,16,18,-1,-1,-1,-1,-1,-1,-1,-1],"split_conditions":[1.159E1,9.5933245E-4,2.258E1,-0E0,9.1062847E-4,1.9157E1,2.4878717E-4,2.853274E5,2.3674466E-2,1.450848E5,1.9E1,-0E0,-2.8120072E-5,-4.3106478E-4,-0E0,4.675617E-5,-3.2761916E-5,1.3042339E-6,-7.718855E-5],"split_indices":[2,57,33,0,0,15,55,17,57,17,39,0,0,0,0,0,0,0,0],"split_type":[0,0,0,0,0,0,0,0,0,0,0,0,0,0,0,0,0,0,0],"sum_hessian":[1.1105E4,4.4E1,1.1061E4,2.1E1,2.3E1,3.56E2,1.0705E4,2.18E2,1.38E2,4.766E3,5.939E3,1.29E2,8.9E1,1.3E2,8E0,3.987E3,7.79E2,4.195E3,1.744E3],"tree_param":{"num_deleted":"0","num_feature":"176","num_nodes":"19","size_leaf_vector":"1"}},{"base_weights":[5.4100077E-5,-1.4728756E-4,4.9584424E-3,3.27616E-4,-2.1084335E-3,7.573007E-4,3.0863523E-3,-1.079907E-4,3.5793858E-3,9.714417E-4,-2.5928067E-3,-6.808689E-3,5.595504E-3,4.531929E-5,-2.5232861E-5,-0E0,2.9421708E-4,2.916715E-4,-3.3699328E-4,2.8271443E-5,-9.4126925E-5,-3.52638E-4,-0E0,2.2029606E-4,-0E0],"categories":[],"categories_nodes":[],"categories_segments":[],"categories_sizes":[],"default_left":[0,0,0,0,0,0,0,0,0,0,0,0,0,0,0,0,0,0,0,0,0,0,0,0,0],"id":29,"left_children":[1,3,5,7,9,-1,11,13,15,17,19,21,23,-1,-1,-1,-1,-1,-1,-1,-1,-1,-1,-1,-1],"loss_changes":[1.341256E-2,1.0771486E-2,6.052037E-3,1.3545254E-2,4.2086076E-3,0E0,1.2337223E-2,8.234077E-3,2.753136E-2,1.7727293E-2,5.1598E-3,2.4212752E-3,6.12555E-3,0E0,0E0,0E0,0E0,0E0,0E0,0E0,0E0,0E0,0E0,0E0,0E0],"parents":[2147483647,0,0,1,1,2,2,3,3,4,4,6,6,7,7,8,8,9,9,10,10,11,11,12,12],"right_children":[2,4,6,8,10,-1,12,14,16,18,20,22,24,-1,-1,-1,-1,-1,-1,-1,-1,-1,-1,-1,-1],"split_conditions":[3.8864773E-2,2.3103047E-2,1.33E1,1.9305257E-2,-1.846E-2,7.573007E-4,4.589E1,1.1299555E-2,6.68818E4,2.0224E2,1.24398E4,4.6444103E-2,3.994156E-3,4.531929E-5,-2.5232861E-5,-0E0,2.9421708E-4,2.916715E-4,-3.3699328E-4,2.8271443E-5,-9.4126925E-5,-3.52638E-4,-0E0,2.2029606E-4,-0E0],"split_indices":[58,58,3,58,34,0,3,58,17,33,17,58,54,0,0,0,0,0,0,0,0,0,0,0,0],"split_type":[0,0,0,0,0,0,0,0,0,0,0,0,0,0,0,0,0,0,0,0,0,0,0,0,0],"sum_hessian":[1.114E4,1.0605E4,5.35E2,8.334E3,2.271E3,2E1,5.15E2,7.216E3,1.118E3,1.68E2,2.103E3,6.3E1,4.52E2,2.036E3,5.18E3,6.85E2,4.33E2,1.22E2,4.6E1,1.58E2,1.945E3,3.7E1,2.6E1,3.75E2,7.7E1],"tree_param":{"num_deleted":"0","num_feature":"176","num_nodes":"25","size_leaf_vector":"1"}},{"base_weights":[-0E0,1.736937E-2,-9.0497306E-5,-0E0,8.787214E-4,-5.872469E-3,5.176286E-5,-0E0,-1.4334288E-2,2.4587204E-4,-3.333544E-3,-4.5321445E-4,-0E0,-7.6205756E-6,5.3250213E-5,-9.112046E-6,-2.7575684E-4],"categories":[],"categories_nodes":[],"categories_segments":[],"categories_sizes":[],"default_left":[0,0,0,0,0,0,0,0,0,0,0,0,0,0,0,0,0],"id":30,"left_children":[1,3,5,-1,-1,7,9,-1,11,13,15,-1,-1,-1,-1,-1,-1],"loss_changes":[1.3817873E-2,8.150498E-3,1.2025315E-2,0E0,0E0,1.7192433E-2,5.5107446E-3,0E0,9.6019916E-4,8.629221E-3,3.099442E-3,0E0,0E0,0E0,0E0,0E0,0E0],"parents":[2147483647,0,0,1,1,2,2,5,5,6,6,8,8,9,9,10,10],"right_children":[2,4,6,-1,-1,8,10,-1,12,14,16,-1,-1,-1,-1,-1,-1],"split_conditions":[1.1594E1,9.5933245E-4,2.258E1,-0E0,8.787214E-4,1.934E1,4.61692E5,-0E0,2.3674466E-2,2.4403E2,2.2214E2,-4.5321445E-4,-0E0,-7.6205756E-6,5.3250213E-5,-9.112046E-6,-2.7575684E-4],"split_indices":[15,57,33,0,0,45,17,0,57,33,0,0,0,0,0,0,0],"split_type":[0,0,0,0,0,0,0,0,0,0,0,0,0,0,0,0,0],"sum_hessian":[1.1121E4,4.3E1,1.1078E4,2E1,2.3E1,3.48E2,1.073E4,2.08E2,1.4E2,1.029E4,4.4E2,1.3E2,1E1,7.51E3,2.78E3,3.48E2,9.2E1],"tree_param":{"num_deleted":"0","num_feature":"176","num_nodes":"17","size_leaf_vector":"1"}},{"base_weights":[-0E0,1.46572655E-2,-3.1239793E-5,-0E0,7.7824865E-4,-5.3098314E-3,9.5103605E-5,-0E0,-1.3210842E-2,-2.8931955E-4,1.3394408E-3,3.5872868E-6,-1.738238E-5,-4.1568765E-4,-0E0,1.2764774E-5,-3.6078825E-5,1.9185834E-4,-3.6568184E-5],"categories":[],"categories_nodes":[],"categories_segments":[],"categories_sizes":[],"default_left":[0,0,0,0,0,0,0,0,0,0,0,0,0,0,0,0,0,0,0],"id":31,"left_children":[1,3,5,-1,-1,7,9,11,13,15,17,-1,-1,-1,-1,-1,-1,-1,-1],"loss_changes":[8.926524E-3,6.2261038E-3,1.0025057E-2,0E0,0E0,1.4407931E-2,5.67812E-3,2.8348582E-5,7.090289E-4,5.562653E-3,3.9465245E-2,0E0,0E0,0E0,0E0,0E0,0E0,0E0,0E0],"parents":[2147483647,0,0,1,1,2,2,5,5,6,6,7,7,8,8,9,9,10,10],"right_children":[2,4,6,-1,-1,8,10,12,14,16,18,-1,-1,-1,-1,-1,-1,-1,-1],"split_conditions":[1.33E1,9.5933245E-4,2.258E1,-0E0,7.7824865E-4,1.9164E1,2.4403E2,3.107498E5,2.3674466E-2,6.989749E-4,3.137355E2,3.5872868E-6,-1.738238E-5,-4.1568765E-4,-0E0,1.2764774E-5,-3.6078825E-5,1.9185834E-4,-3.6568184E-5],"split_indices":[0,57,33,0,0,14,33,17,57,52,16,0,0,0,0,0,0,0,0],"split_type":[0,0,0,0,0,0,0,0,0,0,0,0,0,0,0,0,0,0,0],"sum_hessian":[1.1157E4,3.9E1,1.1118E4,1.9E1,2E1,3.5E2,1.0768E4,2.13E2,1.37E2,7.921E3,2.847E3,1.37E2,7.6E1,1.28E2,9E0,4.137E3,3.784E3,1.021E3,1.826E3],"tree_param":{"num_deleted":"0","num_feature":"176","num_nodes":"19","size_leaf_vector":"1"}},{"base_weights":[-0E0,1.5070098E-2,-9.306261E-5,-0E0,7.69576E-4,2.758645E-4,-2.6683728E-3,7.816597E-5,4.493376E-3,-3.2432987E-3,-0E0,3.0450825E-5,-1.8922687E-5,-8.623381E-7,4.145362E-4,-1.1687374E-4,6.0623657E-5,4.3466422E-4,-2.125438E-4],"categories":[],"categories_nodes":[],"categories_segments":[],"categories_sizes":[],"default_left":[0,0,0,0,0,0,0,0,0,0,0,0,0,0,0,0,0,0,0],"id":32,"left_children":[1,3,5,-1,-1,7,9,11,13,15,17,-1,-1,-1,-1,-1,-1,-1,-1],"loss_changes":[9.748118E-3,5.8121486E-3,1.1733297E-2,0E0,0E0,5.660676E-3,3.3333376E-3,6.317642E-3,2.0114755E-2,5.671419E-3,2.1856746E-2,0E0,0E0,0E0,0E0,0E0,0E0,0E0,0E0],"parents":[2147483647,0,0,1,1,2,2,5,5,6,6,7,7,8,8,9,9,10,10],"right_children":[2,4,6,-1,-1,8,10,12,14,16,18,-1,-1,-1,-1,-1,-1,-1,-1],"split_conditions":[1.159E1,9.5933245E-4,1.2136974E1,-0E0,7.69576E-4,1.7159183E-2,2.7802E2,2.7570996E-4,1.7624E2,1.1889144E6,3.13802E2,3.0450825E-5,-1.8922687E-5,-8.623381E-7,4.145362E-4,-1.1687374E-4,6.0623657E-5,4.3466422E-4,-2.125438E-4],"split_indices":[2,57,60,0,0,53,0,55,8,17,14,0,0,0,0,0,0,0,0],"split_type":[0,0,0,0,0,0,0,0,0,0,0,0,0,0,0,0,0,0,0],"sum_hessian":[1.1126E4,4E1,1.1086E4,1.9E1,2.1E1,9.529E3,1.557E3,9.218E3,3.11E2,1.37E3,1.87E2,4.274E3,4.944E3,1.75E2,1.36E2,1.304E3,6.6E1,7.4E1,1.13E2],"tree_param":{"num_deleted":"0","num_feature":"176","num_nodes":"19","size_leaf_vector":"1"}},{"base_weights":[-0E0,-2.7962276E-4,5.482091E-3,2.1955083E-4,-2.3280652E-3,7.89613E-4,3.46902E-3,-1.5557169E-4,3.0585737E-3,-0E0,-3.216808E-3,-6.5940423E-3,5.935168E-3,4.3515367E-5,-2.4834811E-5,-0E0,2.4590184E-4,3.6066436E-4,-3.9123213E-5,-3.4492847E-4,-4.3586595E-5,-3.178669E-4,-0E0,2.22596E-4,-0E0],"categories":[],"categories_nodes":[],"categories_segments":[],"categories_sizes":[],"default_left":[0,0,0,0,0,0,0,0,0,0,0,0,0,0,0,0,0,0,0,0,0,0,0,0,0],"id":33,"left_children":[1,3,5,7,9,-1,11,13,15,17,19,21,23,-1,-1,-1,-1,-1,-1,-1,-1,-1,-1,-1,-1],"loss_changes":[1.745976E-2,1.1847811E-2,8.0958195E-3,1.0284049E-2,4.3815356E-3,0E0,1.2909006E-2,7.4347183E-3,1.9555693E-2,9.335259E-3,1.6992465E-2,1.9232722E-3,4.350016E-3,0E0,0E0,0E0,0E0,0E0,0E0,0E0,0E0,0E0,0E0,0E0,0E0],"parents":[2147483647,0,0,1,1,2,2,3,3,4,4,6,6,7,7,8,8,9,9,10,10,11,11,12,12],"right_children":[2,4,6,8,10,-1,12,14,16,18,20,22,24,-1,-1,-1,-1,-1,-1,-1,-1,-1,-1,-1,-1],"split_conditions":[3.8864773E-2,2.3103047E-2,1.33E1,1.9305257E-2,7.867E1,7.89613E-4,4.59E1,1.1113763E-2,6.43542E4,-1.7078E-2,1.1047E2,4.6444103E-2,3.4365652E-3,4.3515367E-5,-2.4834811E-5,-0E0,2.4590184E-4,3.6066436E-4,-3.9123213E-5,-3.4492847E-4,-4.3586595E-5,-3.178669E-4,-0E0,2.22596E-4,-0E0],"split_indices":[58,58,0,58,0,0,0,58,17,34,33,58,54,0,0,0,0,0,0,0,0,0,0,0,0],"split_type":[0,0,0,0,0,0,0,0,0,0,0,0,0,0,0,0,0,0,0,0,0,0,0,0,0],"sum_hessian":[1.1103E4,1.0552E4,5.51E2,8.29E3,2.262E3,2.4E1,5.27E2,7.169E3,1.121E3,6.55E2,1.607E3,6.3E1,4.64E2,1.895E3,5.274E3,6.76E2,4.45E2,5.5E1,6E2,2.3E2,1.377E3,4E1,2.3E1,3.75E2,8.9E1],"tree_param":{"num_deleted":"0","num_feature":"176","num_nodes":"25","size_leaf_vector":"1"}},{"base_weights":[-0E0,-2.1659453E-4,4.393382E-3,1.6755439E-4,-2.3716772E-3,7.3413453E-3,-0E0,4.09332E-4,-4.749901E-3,-6.906232E-3,-1.1420058E-3,4.529267E-4,1.233594E-2,-0E0,-2.5198995E-3,-7.9647583E-7,8.2695056E-5,-1.7250142E-4,-0E0,-0E0,-3.0212622E-4,3.8247625E-5,-6.561023E-5,-0E0,9.9353696E-5,5.192241E-4,-0E0,5.363777E-5,-0E0,-0E0,-1.0800163E-4],"categories":[],"categories_nodes":[],"categories_segments":[],"categories_sizes":[],"default_left":[0,0,0,0,0,0,0,0,0,0,0,0,0,0,0,0,0,0,0,0,0,0,0,0,0,0,0,0,0,0,0],"id":34,"left_children":[1,3,5,7,9,11,13,15,17,19,21,23,25,27,29,-1,-1,-1,-1,-1,-1,-1,-1,-1,-1,-1,-1,-1,-1,-1,-1],"loss_changes":[1.0969377E-2,9.893822E-3,9.7664725E-3,8.317972E-3,6.012503E-3,6.510623E-3,5.746654E-4,1.0064983E-2,2.6955223E-3,6.1456403E-3,4.2730216E-3,1.5762317E-3,5.1951297E-3,2.0618575E-4,2.7424033E-4,0E0,0E0,0E0,0E0,0E0,0E0,0E0,0E0,0E0,0E0,0E0,0E0,0E0,0E0,0E0,0E0],"parents":[2147483647,0,0,1,1,2,2,3,3,4,4,5,5,6,6,7,7,8,8,9,9,10,10,11,11,12,12,13,13,14,14],"right_children":[2,4,6,8,10,12,14,16,18,20,22,24,26,28,30,-1,-1,-1,-1,-1,-1,-1,-1,-1,-1,-1,-1,-1,-1,-1,-1],"split_conditions":[3.8864773E-2,2.4792306E-2,5.187E-3,4.61692E5,2.629118E-2,-5.758E-3,1.6E1,1.9305257E-2,2.6345E2,9E0,2.90022E4,4.8442766E-2,2.1033E2,3.210292E-2,3.37224E4,-7.9647583E-7,8.2695056E-5,-1.7250142E-4,-0E0,-0E0,-3.0212622E-4,3.8247625E-5,-6.561023E-5,-0E0,9.9353696E-5,5.192241E-4,-0E0,5.363777E-5,-0E0,-0E0,-1.0800163E-4],"split_indices":[58,58,12,17,58,35,39,58,1,39,17,58,1,56,17,0,0,0,0,0,0,0,0,0,0,0,0,0,0,0,0],"split_type":[0,0,0,0,0,0,0,0,0,0,0,0,0,0,0,0,0,0,0,0,0,0,0,0,0,0,0,0,0,0,0],"sum_hessian":[1.1156E4,1.0616E4,5.4E2,8.815E3,1.801E3,3.73E2,1.67E2,8.501E3,3.14E2,2.95E2,1.506E3,2E2,1.73E2,7.9E1,8.8E1,6.992E3,1.509E3,2.95E2,1.9E1,9.7E1,1.98E2,3.1E2,1.196E3,5.5E1,1.45E2,1.04E2,6.9E1,6.2E1,1.7E1,2.5E1,6.3E1],"tree_param":{"num_deleted":"0","num_feature":"176","num_nodes":"31","size_leaf_vector":"1"}},{"base_weights":[1.8869463E-5,-9.295454E-5,7.3020356E-3,-9.668321E-4,7.5403886E-4,7.199785E-4,2.8803267E-3,1.8568838E-3,-1.8348088E-3,5.667356E-5,4.884919E-3,5.5632945E-3,-0E0,-0E0,8.636053E-5,-6.237265E-5,4.1640413E-4,4.7876856E-5,-2.3408857E-5,1.8743E-4,-1.4977256E-4,-0E0,2.8468526E-4],"categories":[],"categories_nodes":[],"categories_segments":[],"categories_sizes":[],"default_left":[0,0,0,0,0,0,0,0,0,0,0,0,0,0,0,0,0,0,0,0,0,0,0],"id":35,"left_children":[1,3,5,7,9,-1,11,13,15,17,19,21,-1,-1,-1,-1,-1,-1,-1,-1,-1,-1,-1],"loss_changes":[1.2700602E-2,8.200112E-3,3.848264E-3,1.3900322E-2,1.2688367E-2,0E0,2.608204E-3,3.5086987E-3,1.1352354E-2,6.347954E-3,9.542301E-3,1.9691214E-3,0E0,0E0,0E0,0E0,0E0,0E0,0E0,0E0,0E0,0E0,0E0],"parents":[2147483647,0,0,1,1,2,2,3,3,4,4,6,6,7,7,8,8,9,9,10,10,11,11],"right_children":[2,4,6,8,10,-1,12,14,16,18,20,22,-1,-1,-1,-1,-1,-1,-1,-1,-1,-1,-1],"split_conditions":[5.0157044E-2,1.4144E2,1.33E1,1.1299555E-2,1.3692E-2,7.199785E-4,1.547048E5,4.676E1,1.1889144E6,5.0339795E-4,4.6444103E-2,2.5651E2,-0E0,-0E0,8.636053E-5,-6.237265E-5,4.1640413E-4,4.7876856E-5,-2.3408857E-5,1.8743E-4,-1.4977256E-4,-0E0,2.8468526E-4],"split_indices":[58,46,0,58,34,0,17,0,17,57,58,0,0,0,0,0,0,0,0,0,0,0,0],"split_type":[0,0,0,0,0,0,0,0,0,0,0,0,0,0,0,0,0,0,0,0,0,0,0],"sum_hessian":[1.1164E4,1.093E4,2.34E2,5.67E3,5.26E3,2.3E1,2.11E2,1.197E3,4.473E3,4.606E3,6.54E2,1.39E2,7.2E1,2.77E2,9.2E2,4.438E3,3.5E1,1.832E3,2.774E3,6.2E2,3.4E1,7.1E1,6.8E1],"tree_param":{"num_deleted":"0","num_feature":"176","num_nodes":"23","size_leaf_vector":"1"}},{"base_weights":[-5.2541486E-7,-1.6956401E-4,6.1006593E-3,-4.757841E-3,-0E0,7.4260454E-3,-0E0,-0E0,-1.3273674E-2,1.5349914E-3,-3.3330967E-4,-0E0,8.244195E-3,-4.1746776E-4,-0E0,1.0513711E-4,-0E0,-3.921546E-5,1.4412265E-5,2.8239313E-4,-0E0],"categories":[],"categories_nodes":[],"categories_segments":[],"categories_sizes":[],"default_left":[0,0,0,0,0,0,0,0,0,0,0,0,0,0,0,0,0,0,0,0,0],"id":36,"left_children":[1,3,5,7,9,11,-1,-1,13,15,17,-1,19,-1,-1,-1,-1,-1,-1,-1,-1],"loss_changes":[8.520447E-3,8.344801E-3,3.4016883E-3,1.591989E-2,5.354584E-3,8.636322E-4,0E0,0E0,6.91941E-4,7.3815337E-3,7.289927E-3,0E0,6.861724E-4,0E0,0E0,0E0,0E0,0E0,0E0,0E0,0E0],"parents":[2147483647,0,0,1,1,2,2,3,3,4,4,5,5,8,8,9,9,10,10,12,12],"right_children":[2,4,6,8,10,12,-1,-1,14,16,18,-1,20,-1,-1,-1,-1,-1,-1,-1,-1],"split_conditions":[5.0157044E-2,2.258E1,1.1889144E6,1.934E1,1.1113763E-2,2.06658E4,-0E0,-0E0,2.3674466E-2,3.63362E4,1.4144E2,-0E0,3.8707806E-3,-4.1746776E-4,-0E0,1.0513711E-4,-0E0,-3.921546E-5,1.4412265E-5,2.8239313E-4,-0E0],"split_indices":[58,33,17,45,58,17,0,0,57,17,46,0,54,0,0,0,0,0,0,0,0],"split_type":[0,0,0,0,0,0,0,0,0,0,0,0,0,0,0,0,0,0,0,0,0],"sum_hessian":[1.1132E4,1.0914E4,2.18E2,3.8E2,1.0534E4,2.08E2,1E1,2.43E2,1.37E2,1.861E3,8.673E3,2.7E1,1.81E2,1.28E2,9E0,9.56E2,9.05E2,4.227E3,4.446E3,1.46E2,3.5E1],"tree_param":{"num_deleted":"0","num_feature":"176","num_nodes":"21","size_leaf_vector":"1"}},{"base_weights":[-7.921766E-6,1.5421865E-2,-1.1940014E-4,-0E0,7.7170244E-4,4.3110784E-5,-3.5326048E-3,-3.6900846E-4,1.3800337E-3,-0E0,-4.4874037E-3,1.1520242E-5,-3.9455856E-5,1.7521929E-4,-2.4781202E-5,6.24951E-5,-0E0,-0E0,-1.7235123E-4],"categories":[],"categories_nodes":[],"categories_segments":[],"categories_sizes":[],"default_left":[0,0,0,0,0,0,0,0,0,0,0,0,0,0,0,0,0,0,0],"id":37,"left_children":[1,3,5,-1,-1,7,9,11,13,15,17,-1,-1,-1,-1,-1,-1,-1,-1],"loss_changes":[1.1454083E-2,6.2377825E-3,7.879645E-3,0E0,0E0,6.2476345E-3,2.9666713E-3,5.939169E-3,2.949691E-2,3.4499794E-4,3.3562686E-3,0E0,0E0,0E0,0E0,0E0,0E0,0E0,0E0],"parents":[2147483647,0,0,1,1,2,2,5,5,6,6,7,7,8,8,9,9,10,10],"right_children":[2,4,6,-1,-1,8,10,12,14,16,18,-1,-1,-1,-1,-1,-1,-1,-1],"split_conditions":[1.159E1,1.1299555E-2,3.792878E5,-0E0,7.7170244E-4,2.4403E2,-3.837464E-3,6.989749E-4,3.1419E2,3.1553E2,1.1704872E-2,1.1520242E-5,-3.9455856E-5,1.7521929E-4,-2.4781202E-5,6.24951E-5,-0E0,-0E0,-1.7235123E-4],"split_indices":[2,58,17,0,0,33,55,52,44,1,58,0,0,0,0,0,0,0,0],"split_type":[0,0,0,0,0,0,0,0,0,0,0,0,0,0,0,0,0,0,0],"sum_hessian":[1.1102E4,4.5E1,1.1057E4,2.1E1,2.4E1,1.0417E4,6.4E2,7.678E3,2.739E3,9.7E1,5.43E2,3.982E3,3.696E3,9.8E2,1.759E3,7.7E1,2E1,1.11E2,4.32E2],"tree_param":{"num_deleted":"0","num_feature":"176","num_nodes":"19","size_leaf_vector":"1"}},{"base_weights":[-0E0,1.4398879E-2,-1.01180936E-4,-0E0,7.157202E-4,1.108569E-4,-3.0168765E-3,8.0135977E-4,-5.455446E-4,-0E0,-4.2943824E-3,1.36476E-5,1.2405109E-4,9.304901E-7,-7.213846E-5,-1.4475582E-4,5.674402E-5,-0E0,-1.4703497E-4],"categories":[],"categories_nodes":[],"categories_segments":[],"categories_sizes":[],"default_left":[0,0,0,0,0,0,0,0,0,0,0,0,0,0,0,0,0,0,0],"id":38,"left_children":[1,3,5,-1,-1,7,9,11,13,15,17,-1,-1,-1,-1,-1,-1,-1,-1],"loss_changes":[9.131948E-3,4.925973E-3,8.289392E-3,0E0,0E0,4.7292323E-3,2.446007E-3,3.8427513E-3,6.3678576E-3,3.7628396E-3,2.9323185E-3,0E0,0E0,0E0,0E0,0E0,0E0,0E0,0E0],"parents":[2147483647,0,0,1,1,2,2,5,5,6,6,7,7,8,8,9,9,10,10],"right_children":[2,4,6,-1,-1,8,10,12,14,16,18,-1,-1,-1,-1,-1,-1,-1,-1],"split_conditions":[1.159E1,9.5933245E-4,4.005182E6,-0E0,7.157202E-4,3.9050687E-4,-1.5935049E-3,1.4384E-2,1.9E1,-8.263E-3,-9.593E-3,1.36476E-5,1.2405109E-4,9.304901E-7,-7.213846E-5,-1.4475582E-4,5.674402E-5,-0E0,-1.4703497E-4],"split_indices":[2,57,47,0,0,54,57,35,39,35,35,0,0,0,0,0,0,0,0],"split_type":[0,0,0,0,0,0,0,0,0,0,0,0,0,0,0,0,0,0,0],"sum_hessian":[1.1095E4,4.1E1,1.1054E4,1.9E1,2.2E1,1.0147E4,9.07E2,5.316E3,4.831E3,3.28E2,5.79E2,4.954E3,3.62E2,3.484E3,1.347E3,1.28E2,2E2,1.3E1,5.66E2],"tree_param":{"num_deleted":"0","num_feature":"176","num_nodes":"19","size_leaf_vector":"1"}},{"base_weights":[4.8284353E-5,-1.2641E-4,4.381717E-3,1.8363223E-4,-1.9278416E-3,6.581428E-3,-0E0,-1.974352E-4,2.235039E-3,-0E0,-3.2723108E-3,3.347512E-5,1.1428999E-2,-0E0,-1.314632E-3,-9.3279654E-5,3.0688836E-6,-0E0,1.7258883E-4,2.0303077E-4,-3.7342044E-5,-1.5139658E-4,-0E0,-0E0,7.802921E-5,-0E0,3.9149018E-4,4.184424E-5,-0E0,-0E0,-5.879114E-5],"categories":[],"categories_nodes":[],"categories_segments":[],"categories_sizes":[],"default_left":[0,0,0,0,0,0,0,0,0,0,0,0,0,0,0,0,0,0,0,0,0,0,0,0,0,0,0,0,0,0,0],"id":39,"left_children":[1,3,5,7,9,11,13,15,17,19,21,23,25,27,29,-1,-1,-1,-1,-1,-1,-1,-1,-1,-1,-1,-1,-1,-1,-1,-1],"loss_changes":[1.0578586E-2,6.8047494E-3,6.479686E-3,7.919794E-3,5.6320443E-3,6.6629276E-3,9.93748E-5,7.823698E-3,1.5182759E-2,7.139129E-3,8.103489E-3,1.0381994E-3,4.0954947E-3,1.566119E-4,9.456755E-5,0E0,0E0,0E0,0E0,0E0,0E0,0E0,0E0,0E0,0E0,0E0,0E0,0E0,0E0,0E0,0E0],"parents":[2147483647,0,0,1,1,2,2,3,3,4,4,5,5,6,6,7,7,8,8,9,9,10,10,11,11,12,12,13,13,14,14],"right_children":[2,4,6,8,10,12,14,16,18,20,22,24,26,28,30,-1,-1,-1,-1,-1,-1,-1,-1,-1,-1,-1,-1,-1,-1,-1,-1],"split_conditions":[3.8864773E-2,2.4792306E-2,5.187E-3,1.9305257E-2,-8.1267784E-4,-7.599783E-3,2E1,-6.206E-3,5.5724E4,7.867E1,1.0680852E-2,4.8442766E-2,3.67056E5,3.210292E-2,-2.7425813E-2,-9.3279654E-5,3.0688836E-6,-0E0,1.7258883E-4,2.0303077E-4,-3.7342044E-5,-1.5139658E-4,-0E0,-0E0,7.802921E-5,-0E0,3.9149018E-4,4.184424E-5,-0E0,-0E0,-5.879114E-5],"split_indices":[58,58,12,58,59,59,39,35,4,0,53,58,47,56,59,0,0,0,0,0,0,0,0,0,0,0,0,0,0,0,0],"split_type":[0,0,0,0,0,0,0,0,0,0,0,0,0,0,0,0,0,0,0,0,0,0,0,0,0,0,0,0,0,0,0],"sum_hessian":[1.1159E4,1.0618E4,5.41E2,8.824E3,1.794E3,3.88E2,1.53E2,7.238E3,1.586E3,6.47E2,1.147E3,2.1E2,1.78E2,9.8E1,5.5E1,8.29E2,6.409E3,8.9E2,6.96E2,1.36E2,5.11E2,7.99E2,3.48E2,5.9E1,1.51E2,1.8E1,1.6E2,7.8E1,2E1,7E0,4.8E1],"tree_param":{"num_deleted":"0","num_feature":"176","num_nodes":"31","size_leaf_vector":"1"}},{"base_weights":[-0E0,-2.2497369E-4,4.18435E-3,1.03826445E-4,-2.0726616E-3,6.062037E-3,-0E0,-2.5507115E-4,2.098767E-3,-6.952941E-3,-8.101176E-4,-0E0,1.076859E-2,-1.10732515E-4,1.7954543E-8,-8.3139685E-6,1.9388502E-4,-6.3252766E-5,-6.9872773E-4,1.1230398E-5,-8.7841414E-5,-0E0,7.091565E-5,-0E0,3.557856E-4],"categories":[],"categories_nodes":[],"categories_segments":[],"categories_sizes":[],"default_left":[0,0,0,0,0,0,0,0,0,0,0,0,0,0,0,0,0,0,0,0,0,0,0,0,0],"id":40,"left_children":[1,3,5,7,9,11,-1,13,15,17,19,21,23,-1,-1,-1,-1,-1,-1,-1,-1,-1,-1,-1,-1],"loss_changes":[9.894716E-3,7.4219345E-3,4.514036E-3,7.200536E-3,7.383139E-3,5.7831686E-3,0E0,8.188344E-3,1.9163448E-2,1.0487119E-2,5.13909E-3,8.521411E-4,3.3403393E-3,0E0,0E0,0E0,0E0,0E0,0E0,0E0,0E0,0E0,0E0,0E0,0E0],"parents":[2147483647,0,0,1,1,2,2,3,3,4,4,5,5,7,7,8,8,9,9,10,10,11,11,12,12],"right_children":[2,4,6,8,10,12,-1,14,16,18,20,22,24,-1,-1,-1,-1,-1,-1,-1,-1,-1,-1,-1,-1],"split_conditions":[3.8864773E-2,2.4792306E-2,5.2915774E-3,1.9305257E-2,2.629118E-2,-7.599783E-3,-0E0,-7.168E-3,6.68818E4,2.6108881E-2,9.254185E-3,4.8442766E-2,-6.5956726E-3,-1.10732515E-4,1.7954543E-8,-8.3139685E-6,1.9388502E-4,-6.3252766E-5,-6.9872773E-4,1.1230398E-5,-8.7841414E-5,-0E0,7.091565E-5,-0E0,3.557856E-4],"split_indices":[58,58,52,58,58,59,0,34,17,58,57,58,54,0,0,0,0,0,0,0,0,0,0,0,0],"split_type":[0,0,0,0,0,0,0,0,0,0,0,0,0,0,0,0,0,0,0,0,0,0,0,0,0],"sum_hessian":[1.1125E4,1.0593E4,5.32E2,8.765E3,1.828E3,3.75E2,1.57E2,7.218E3,1.547E3,2.92E2,1.536E3,2.08E2,1.67E2,6.33E2,6.585E3,9.29E2,6.18E2,2.51E2,4.1E1,8.35E2,7.01E2,5.8E1,1.5E2,6E0,1.61E2],"tree_param":{"num_deleted":"0","num_feature":"176","num_nodes":"25","size_leaf_vector":"1"}},{"base_weights":[-0E0,-2.1319569E-4,4.215701E-3,2.2185917E-4,-2.066002E-3,6.32788E-4,2.3543583E-3,-2.0426814E-4,3.426472E-3,-3.139101E-3,-0E0,-6.983995E-3,4.826597E-3,-1.0788919E-4,5.2537E-7,-0E0,2.662041E-4,-1.2447202E-4,2.6529038E-5,1.6367664E-4,-4.527323E-5,-3.2067992E-4,-0E0,2.0609054E-4,-0E0],"categories":[],"categories_nodes":[],"categories_segments":[],"categories_sizes":[],"default_left":[0,0,0,0,0,0,0,0,0,0,0,0,0,0,0,0,0,0,0,0,0,0,0,0,0],"id":41,"left_children":[1,3,5,7,9,-1,11,13,15,17,19,21,23,-1,-1,-1,-1,-1,-1,-1,-1,-1,-1,-1,-1],"loss_changes":[9.875573E-3,9.488946E-3,4.754669E-3,1.3069326E-2,3.6403723E-3,0E0,1.0675868E-2,7.2583104E-3,2.2843907E-2,7.0846174E-3,5.7858536E-3,1.4815389E-3,5.7844706E-3,0E0,0E0,0E0,0E0,0E0,0E0,0E0,0E0,0E0,0E0,0E0,0E0],"parents":[2147483647,0,0,1,1,2,2,3,3,4,4,6,6,7,7,8,8,9,9,10,10,11,11,12,12],"right_children":[2,4,6,8,10,-1,12,14,16,18,20,22,24,-1,-1,-1,-1,-1,-1,-1,-1,-1,-1,-1,-1],"split_conditions":[3.8864773E-2,2.3103047E-2,1.33E1,1.9305257E-2,2.9864851E-2,6.32788E-4,4.59E1,-7.599783E-3,6.5176E4,4.1132E2,3.081682E-2,4.6444103E-2,3.667589E-2,-1.0788919E-4,5.2537E-7,-0E0,2.662041E-4,-1.2447202E-4,2.6529038E-5,1.6367664E-4,-4.527323E-5,-3.2067992E-4,-0E0,2.0609054E-4,-0E0],"split_indices":[58,58,0,58,58,0,0,59,17,46,58,58,57,0,0,0,0,0,0,0,0,0,0,0,0],"split_type":[0,0,0,0,0,0,0,0,0,0,0,0,0,0,0,0,0,0,0,0,0,0,0,0,0],"sum_hessian":[1.115E4,1.0624E4,5.26E2,8.387E3,2.237E3,2.3E1,5.03E2,7.267E3,1.12E3,1.337E3,9E2,6.2E1,4.41E2,5.82E2,6.685E3,6.65E2,4.55E2,1.168E3,1.69E2,1.33E2,7.67E2,3.8E1,2.4E1,3.39E2,1.02E2],"tree_param":{"num_deleted":"0","num_feature":"176","num_nodes":"25","size_leaf_vector":"1"}},{"base_weights":[9.004649E-5,1.39762815E-2,-0E0,-0E0,7.2681985E-4,-2.996218E-3,2.6843313E-4,-0E0,-4.2799013E-3,2.5970167E-3,-0E0,-0E0,3.796269E-5,-0E0,-1.8862973E-4,-0E0,1.8899844E-4,-9.905561E-5,1.3096643E-5],"categories":[],"categories_nodes":[],"categories_segments":[],"categories_sizes":[],"default_left":[0,0,0,0,0,0,0,0,0,0,0,0,0,0,0,0,0,0,0],"id":42,"left_children":[1,3,5,-1,-1,7,9,11,13,15,17,-1,-1,-1,-1,-1,-1,-1,-1],"loss_changes":[9.96948E-3,6.0816677E-3,8.150835E-3,0E0,0E0,5.27413E-3,5.6908224E-3,9.8479686E-5,7.4184556E-3,8.8296775E-3,1.26328515E-2,0E0,0E0,0E0,0E0,0E0,0E0,0E0,0E0],"parents":[2147483647,0,0,1,1,2,2,5,5,6,6,7,7,8,8,9,9,10,10],"right_children":[2,4,6,-1,-1,8,10,12,14,16,18,-1,-1,-1,-1,-1,-1,-1,-1],"split_conditions":[1.1594E1,9.5933245E-4,3.281E1,-0E0,7.2681985E-4,1.716E1,5.454E1,1.596E1,1.058756E5,4.7056E1,7.213E1,-0E0,3.796269E-5,-0E0,-1.8862973E-4,-0E0,1.8899844E-4,-9.905561E-5,1.3096643E-5],"split_indices":[15,57,46,0,0,33,45,45,17,16,0,0,0,0,0,0,0,0,0],"split_type":[0,0,0,0,0,0,0,0,0,0,0,0,0,0,0,0,0,0,0],"sum_hessian":[1.114E4,4.9E1,1.1091E4,2.4E1,2.5E1,8.23E2,1.0268E4,1.33E2,6.9E2,9.51E2,9.317E3,7.4E1,5.9E1,1.84E2,5.06E2,5.69E2,3.82E2,1.011E3,8.306E3],"tree_param":{"num_deleted":"0","num_feature":"176","num_nodes":"19","size_leaf_vector":"1"}},{"base_weights":[4.0859217E-5,-4.2401003E-5,5.769889E-3,1.9307484E-4,-2.0693552E-3,6.8838513E-3,-0E0,6.142657E-4,-8.0982747E-4,-0E0,-2.9469675E-3,-0E0,7.4643353E-3,8.5636275E-6,1.12072994E-4,4.491546E-5,-7.779888E-5,-0E0,3.3415385E-5,-0E0,-1.2148975E-4,2.3822248E-4,-0E0],"categories":[],"categories_nodes":[],"categories_segments":[],"categories_sizes":[],"default_left":[0,0,0,0,0,0,0,0,0,0,0,0,0,0,0,0,0,0,0,0,0,0,0],"id":43,"left_children":[1,3,5,7,9,11,-1,13,15,17,19,-1,21,-1,-1,-1,-1,-1,-1,-1,-1,-1,-1],"loss_changes":[8.174084E-3,6.136207E-3,2.8444808E-3,3.931807E-3,3.7571397E-3,6.5499265E-4,0E0,5.2417265E-3,1.0722584E-2,1.954029E-4,3.619765E-3,0E0,8.728728E-5,0E0,0E0,0E0,0E0,0E0,0E0,0E0,0E0,0E0,0E0],"parents":[2147483647,0,0,1,1,2,2,3,3,4,4,5,5,7,7,8,8,9,9,10,10,12,12],"right_children":[2,4,6,8,10,12,-1,14,16,18,20,-1,22,-1,-1,-1,-1,-1,-1,-1,-1,-1,-1],"split_conditions":[5.0157044E-2,2.04457E5,1.44194E6,1.9E1,1.1704872E-2,1.3108E4,-0E0,1.576E-2,3.03E-4,-1.125E-3,-3.9875316E-3,-0E0,4.5318096E-3,8.5636275E-6,1.12072994E-4,4.491546E-5,-7.779888E-5,-0E0,3.3415385E-5,-0E0,-1.2148975E-4,2.3822248E-4,-0E0],"split_indices":[58,4,4,39,58,4,0,34,12,34,57,0,54,0,0,0,0,0,0,0,0,0,0],"split_type":[0,0,0,0,0,0,0,0,0,0,0,0,0,0,0,0,0,0,0,0,0,0,0],"sum_hessian":[1.1129E4,1.0886E4,2.43E2,9.534E3,1.352E3,2.3E2,1.3E1,7.066E3,2.468E3,2.54E2,1.098E3,2.3E1,2.07E2,6.54E3,5.26E2,9.54E2,1.514E3,9.9E1,1.55E2,2.97E2,8.01E2,1.84E2,2.3E1],"tree_param":{"num_deleted":"0","num_feature":"176","num_nodes":"23","size_leaf_vector":"1"}},{"base_weights":[-0E0,-1.8506683E-4,5.8280057E-3,-0E0,-3.7149903E-3,8.663998E-3,-0E0,-4.7236212E-4,1.4749005E-3,-0E0,-4.335312E-3,-0E0,1.1063153E-2,-7.9775855E-5,-0E0,1.914059E-4,-2.9555844E-5,-0E0,-1.6583099E-4,3.5548938E-4,-0E0],"categories":[],"categories_nodes":[],"categories_segments":[],"categories_sizes":[],"default_left":[0,0,0,0,0,0,0,0,0,0,0,0,0,0,0,0,0,0,0,0,0],"id":44,"left_children":[1,3,5,7,9,11,-1,13,15,-1,17,-1,19,-1,-1,-1,-1,-1,-1,-1,-1],"loss_changes":[9.697014E-3,8.176372E-3,4.225636E-3,7.4524945E-3,2.2478746E-3,4.014238E-3,0E0,7.1080434E-3,3.4589507E-2,0E0,2.9675486E-3,0E0,9.010099E-4,0E0,0E0,0E0,0E0,0E0,0E0,0E0,0E0],"parents":[2147483647,0,0,1,1,2,2,3,3,4,4,5,5,7,7,8,8,10,10,12,12],"right_children":[2,4,6,8,10,12,-1,14,16,-1,18,-1,20,-1,-1,-1,-1,-1,-1,-1,-1],"split_conditions":[4.8442766E-2,3.792878E5,5.6E-1,2.4403E2,-4.305E-3,5.17282E5,-0E0,-6.187E-3,3.1553E2,-0E0,1.1704872E-2,-0E0,9E-1,-7.9775855E-5,-0E0,1.914059E-4,-2.9555844E-5,-0E0,-1.6583099E-4,3.5548938E-4,-0E0],"split_indices":[58,17,10,33,11,47,0,34,1,0,58,0,9,0,0,0,0,0,0,0,0],"split_type":[0,0,0,0,0,0,0,0,0,0,0,0,0,0,0,0,0,0,0,0,0],"sum_hessian":[1.1173E4,1.0901E4,2.72E2,1.0284E4,6.17E2,1.78E2,9.4E1,7.645E3,2.639E3,4.5E1,5.72E2,3.7E1,1.41E2,1.244E3,6.401E3,9.48E2,1.691E3,1.24E2,4.48E2,1.29E2,1.2E1],"tree_param":{"num_deleted":"0","num_feature":"176","num_nodes":"21","size_leaf_vector":"1"}},{"base_weights":[-0E0,1.343158E-2,-1.4448209E-5,-0E0,6.6540635E-4,2.7350322E-4,-2.0563444E-3,6.720372E-5,4.3621375E-3,-2.7587477E-3,5.085464E-4,3.2164997E-5,-2.1291555E-5,-0E0,3.2392735E-4,-1.0112996E-4,6.0397233E-5,4.6802964E-4,-1.7744664E-4],"categories":[],"categories_nodes":[],"categories_segments":[],"categories_sizes":[],"default_left":[0,0,0,0,0,0,0,0,0,0,0,0,0,0,0,0,0,0,0],"id":45,"left_children":[1,3,5,-1,-1,7,9,11,13,15,17,-1,-1,-1,-1,-1,-1,-1,-1],"loss_changes":[8.57166E-3,4.467641E-3,7.403679E-3,0E0,0E0,5.791361E-3,3.9814217E-3,7.3315394E-3,1.2835177E-2,4.7759367E-3,2.3444884E-2,0E0,0E0,0E0,0E0,0E0,0E0,0E0,0E0],"parents":[2147483647,0,0,1,1,2,2,5,5,6,6,7,7,8,8,9,9,10,10],"right_children":[2,4,6,-1,-1,8,10,12,14,16,18,-1,-1,-1,-1,-1,-1,-1,-1],"split_conditions":[1.159E1,9.5933245E-4,1.82872E5,-0E0,6.6540635E-4,1.6501633E-2,2.7865E2,2.7570996E-4,1.7564E2,1.1889144E6,3.13802E2,3.2164997E-5,-2.1291555E-5,-0E0,3.2392735E-4,-1.0112996E-4,6.0397233E-5,4.6802964E-4,-1.7744664E-4],"split_indices":[2,57,4,0,0,53,1,55,8,17,14,0,0,0,0,0,0,0,0],"split_type":[0,0,0,0,0,0,0,0,0,0,0,0,0,0,0,0,0,0,0],"sum_hessian":[1.1116E4,4.5E1,1.1071E4,2.1E1,2.4E1,9.49E3,1.581E3,9.153E3,3.37E2,1.394E3,1.87E2,4.271E3,4.882E3,1.74E2,1.63E2,1.329E3,6.5E1,7.8E1,1.09E2],"tree_param":{"num_deleted":"0","num_feature":"176","num_nodes":"19","size_leaf_vector":"1"}},{"base_weights":[1.1820246E-5,-7.113494E-5,5.9692687E-3,1.2306182E-4,-2.3870068E-3,6.9521577E-3,-0E0,8.738073E-4,-5.4231676E-4,-5.456423E-3,-6.726122E-5,7.182516E-3,-0E0,-3.5147674E-5,3.9966686E-5,5.8875503E-6,-7.717181E-5,-0E0,-2.2232579E-4,8.309146E-5,-5.682414E-5,-0E0,2.1914841E-4],"categories":[],"categories_nodes":[],"categories_segments":[],"categories_sizes":[],"default_left":[0,0,0,0,0,0,0,0,0,0,0,0,0,0,0,0,0,0,0,0,0,0,0],"id":46,"left_children":[1,3,5,7,9,11,-1,13,15,17,19,21,-1,-1,-1,-1,-1,-1,-1,-1,-1,-1,-1],"loss_changes":[8.444905E-3,6.028295E-3,2.6042676E-3,5.0855516E-3,4.652996E-3,3.2804068E-4,0E0,4.7541447E-3,8.488923E-3,5.535125E-3,3.1436894E-3,1.579523E-5,0E0,0E0,0E0,0E0,0E0,0E0,0E0,0E0,0E0,0E0,0E0],"parents":[2147483647,0,0,1,1,2,2,3,3,4,4,5,5,7,7,8,8,9,9,10,10,11,11],"right_children":[2,4,6,8,10,12,-1,14,16,18,20,22,-1,-1,-1,-1,-1,-1,-1,-1,-1,-1,-1],"split_conditions":[5.0157044E-2,1.5054039E1,1.6820004E1,7.18E-4,3.7828E1,8.614E-3,-0E0,-9.201811E-3,1.8E1,1.677E1,5.374E1,1.2572239E1,-0E0,-3.5147674E-5,3.9966686E-5,5.8875503E-6,-7.717181E-5,-0E0,-2.2232579E-4,8.309146E-5,-5.682414E-5,-0E0,2.1914841E-4],"split_indices":[58,62,62,12,14,11,0,59,39,0,0,62,0,0,0,0,0,0,0,0,0,0,0],"split_type":[0,0,0,0,0,0,0,0,0,0,0,0,0,0,0,0,0,0,0,0,0,0,0],"sum_hessian":[1.1116E4,1.0883E4,2.33E2,9.844E3,1.039E3,2.25E2,8E0,4.978E3,4.866E3,3.53E2,6.86E2,2.17E2,8E0,7.11E2,4.267E3,3.389E3,1.477E3,6.2E1,2.91E2,1.61E2,5.25E2,7E0,2.1E2],"tree_param":{"num_deleted":"0","num_feature":"176","num_nodes":"23","size_leaf_vector":"1"}},{"base_weights":[2.6738502E-5,1.0140156E-2,-0E0,-0E0,5.3696526E-4,2.2294767E-4,-2.7007884E-3,-9.357853E-5,1.2896836E-3,-5.2721114E-3,-5.5449613E-4,3.326553E-6,-7.566319E-5,1.5762339E-4,-1.7993292E-5,-0E0,-1.9092753E-4,1.0410138E-4,-8.1482896E-5],"categories":[],"categories_nodes":[],"categories_segments":[],"categories_sizes":[],"default_left":[0,0,0,0,0,0,0,0,0,0,0,0,0,0,0,0,0,0,0],"id":47,"left_children":[1,3,5,-1,-1,7,9,11,13,15,17,-1,-1,-1,-1,-1,-1,-1,-1],"loss_changes":[4.978972E-3,2.8621266E-3,7.138268E-3,0E0,0E0,4.022968E-3,2.0987457E-3,4.911782E-3,2.2428663E-2,2.287726E-3,4.9054073E-3,0E0,0E0,0E0,0E0,0E0,0E0,0E0,0E0],"parents":[2147483647,0,0,1,1,2,2,5,5,6,6,7,7,8,8,9,9,10,10],"right_children":[2,4,6,-1,-1,8,10,12,14,16,18,-1,-1,-1,-1,-1,-1,-1,-1],"split_conditions":[1.334E1,2.637E-3,4.005182E6,-0E0,5.3696526E-4,2.4403E2,3.7828E1,2.0377E2,3.175E2,1.679E1,5.386E1,3.326553E-6,-7.566319E-5,1.5762339E-4,-1.7993292E-5,-0E0,-1.9092753E-4,1.0410138E-4,-8.1482896E-5],"split_indices":[1,34,47,0,0,33,14,33,45,1,1,0,0,0,0,0,0,0,0],"split_type":[0,0,0,0,0,0,0,0,0,0,0,0,0,0,0,0,0,0,0],"sum_hessian":[1.1093E4,4.6E1,1.1047E4,2.4E1,2.2E1,1.014E4,9.07E2,7.46E3,2.68E3,3.05E2,6.02E2,6.693E3,7.67E2,9.49E2,1.731E3,4E1,2.65E2,1.29E2,4.73E2],"tree_param":{"num_deleted":"0","num_feature":"176","num_nodes":"19","size_leaf_vector":"1"}},{"base_weights":[4.7055466E-5,1.2483343E-2,-0E0,-0E0,6.5293943E-4,1.928915E-4,-2.9584188E-3,-2.3834725E-4,1.6138119E-3,-5.887746E-3,-1.4608846E-5,1.9913414E-5,-3.1503725E-5,1.7972187E-4,-1.673932E-5,-0E0,-2.1236739E-4,2.0626115E-4,-7.53911E-5],"categories":[],"categories_nodes":[],"categories_segments":[],"categories_sizes":[],"default_left":[0,0,0,0,0,0,0,0,0,0,0,0,0,0,0,0,0,0,0],"id":48,"left_children":[1,3,5,-1,-1,7,9,11,13,15,17,-1,-1,-1,-1,-1,-1,-1,-1],"loss_changes":[8.156568E-3,4.8454683E-3,6.7013437E-3,0E0,0E0,7.0555345E-3,3.2703788E-3,5.836391E-3,2.8290424E-2,3.218338E-3,5.5653467E-3,0E0,0E0,0E0,0E0,0E0,0E0,0E0,0E0],"parents":[2147483647,0,0,1,1,2,2,5,5,6,6,7,7,8,8,9,9,10,10],"right_children":[2,4,6,-1,-1,8,10,12,14,16,18,-1,-1,-1,-1,-1,-1,-1,-1],"split_conditions":[1.33E1,9.5933245E-4,3.61037E5,-0E0,6.5293943E-4,2.4403E2,4.676E1,-9.8E-5,3.1419E2,-2.1461E-2,5.374E1,1.9913414E-5,-3.1503725E-5,1.7972187E-4,-1.673932E-5,-0E0,-2.1236739E-4,2.0626115E-4,-7.53911E-5],"split_indices":[0,57,4,0,0,33,0,12,44,34,0,0,0,0,0,0,0,0,0],"split_type":[0,0,0,0,0,0,0,0,0,0,0,0,0,0,0,0,0,0,0],"sum_hessian":[1.1157E4,5E1,1.1107E4,2.5E1,2.5E1,1.0388E4,7.19E2,7.701E3,2.687E3,2.74E2,4.45E2,3.356E3,4.345E3,9.66E2,1.721E3,2.1E1,2.53E2,6.4E1,3.81E2],"tree_param":{"num_deleted":"0","num_feature":"176","num_nodes":"19","size_leaf_vector":"1"}},{"base_weights":[-0E0,1.1717517E-2,-4.6960075E-5,-0E0,5.359826E-4,-3.7661905E-3,3.517421E-5,-0E0,-1.1194547E-2,7.7443704E-4,-5.272437E-4,1.48704075E-5,-0E0,-3.5606656E-4,-0E0,-8.407488E-6,3.837091E-5,4.401143E-6,-6.9883376E-5],"categories":[],"categories_nodes":[],"categories_segments":[],"categories_sizes":[],"default_left":[0,0,0,0,0,0,0,0,0,0,0,0,0,0,0,0,0,0,0],"id":49,"left_children":[1,3,5,-1,-1,7,9,11,13,15,17,-1,-1,-1,-1,-1,-1,-1,-1],"loss_changes":[5.44795E-3,2.0777741E-3,5.2723587E-3,0E0,0E0,1.2574187E-2,4.607292E-3,3.7223384E-5,6.666668E-4,3.1843758E-3,8.064587E-3,0E0,0E0,0E0,0E0,0E0,0E0,0E0,0E0],"parents":[2147483647,0,0,1,1,2,2,5,5,6,6,7,7,8,8,9,9,10,10],"right_children":[2,4,6,-1,-1,8,10,12,14,16,18,-1,-1,-1,-1,-1,-1,-1,-1],"split_conditions":[1.159E1,9.5933245E-4,2.258E1,-0E0,5.359826E-4,1.934E1,4E-2,2.989378E5,2.2721801E-2,-5.908E-3,1.9E1,1.48704075E-5,-0E0,-3.5606656E-4,-0E0,-8.407488E-6,3.837091E-5,4.401143E-6,-6.9883376E-5],"split_indices":[2,57,33,0,0,45,10,17,57,35,39,0,0,0,0,0,0,0,0],"split_type":[0,0,0,0,0,0,0,0,0,0,0,0,0,0,0,0,0,0,0],"sum_hessian":[1.1186E4,3.7E1,1.1149E4,1.6E1,2.1E1,3.7E2,1.0779E4,2.3E2,1.4E2,5.041E3,5.738E3,1.49E2,8.1E1,1.29E2,1.1E1,1.311E3,3.73E3,3.976E3,1.762E3],"tree_param":{"num_deleted":"0","num_feature":"176","num_nodes":"19","size_leaf_vector":"1"}},{"base_weights":[-0E0,-1.4835679E-4,5.718542E-3,1.3692329E-3,-5.2705477E-4,6.971883E-3,-0E0,3.1124977E-3,-0E0,-1.4114014E-3,2.5822705E-4,-0E0,7.7590984E-3,-0E0,9.876558E-5,1.6287582E-5,-8.58961E-5,-5.0741016E-7,-1.0157647E-4,5.1621635E-5,-6.849452E-5,2.4075205E-4,-0E0],"categories":[],"categories_nodes":[],"categories_segments":[],"categories_sizes":[],"default_left":[0,0,0,0,0,0,0,0,0,0,0,0,0,0,0,0,0,0,0,0,0,0,0],"id":50,"left_children":[1,3,5,7,9,11,-1,13,15,17,19,-1,21,-1,-1,-1,-1,-1,-1,-1,-1,-1,-1],"loss_changes":[7.7780606E-3,5.855666E-3,3.1801304E-3,5.7778656E-3,6.8300813E-3,9.3152095E-4,0E0,6.4739026E-4,2.3797892E-3,1.0783703E-2,1.6348056E-2,0E0,3.6152638E-4,0E0,0E0,0E0,0E0,0E0,0E0,0E0,0E0,0E0,0E0],"parents":[2147483647,0,0,1,1,2,2,3,3,4,4,5,5,7,7,8,8,9,9,10,10,12,12],"right_children":[2,4,6,8,10,12,-1,14,16,18,20,-1,22,-1,-1,-1,-1,-1,-1,-1,-1,-1,-1],"split_conditions":[5.0157044E-2,1.1113763E-2,1.1889144E6,3.95122E4,1.4144E2,2.06658E4,-0E0,-7.692E-3,1.3289E2,8.661E1,3.1553E2,-0E0,8.577E-3,-0E0,9.876558E-5,1.6287582E-5,-8.58961E-5,-5.0741016E-7,-1.0157647E-4,5.1621635E-5,-6.849452E-5,2.4075205E-4,-0E0],"split_indices":[58,58,17,17,46,17,0,34,7,1,1,0,13,0,0,0,0,0,0,0,0,0,0],"split_type":[0,0,0,0,0,0,0,0,0,0,0,0,0,0,0,0,0,0,0,0,0,0,0],"sum_hessian":[1.1144E4,1.0916E4,2.28E2,1.915E3,9.001E3,2.18E2,1E1,9.65E2,9.5E2,4.532E3,4.469E3,2.7E1,1.91E2,4.3E1,9.22E2,6.87E2,2.63E2,2.806E3,1.726E3,2.962E3,1.507E3,1.84E2,7E0],"tree_param":{"num_deleted":"0","num_feature":"176","num_nodes":"23","size_leaf_vector":"1"}},{"base_weights":[-0E0,1.277986E-2,-2.6198444E-5,-0E0,6.0147315E-4,7.795617E-4,-7.3528173E-4,-0E0,1.784678E-3,1.0413753E-3,-1.238393E-3,4.846908E-5,-2.2993478E-5,-1.2208476E-6,9.896578E-5,6.195219E-5,-3.497627E-6,-5.1074305E-5,1.0725221E-5],"categories":[],"categories_nodes":[],"categories_segments":[],"categories_sizes":[],"default_left":[0,0,0,0,0,0,0,0,0,0,0,0,0,0,0,0,0,0,0],"id":51,"left_children":[1,3,5,-1,-1,7,9,11,13,15,17,-1,-1,-1,-1,-1,-1,-1,-1],"loss_changes":[7.2755343E-3,3.3841594E-3,6.2890085E-3,0E0,0E0,3.4842393E-3,5.648558E-3,3.648729E-3,7.205678E-3,2.3398371E-3,4.4190097E-3,0E0,0E0,0E0,0E0,0E0,0E0,0E0,0E0],"parents":[2147483647,0,0,1,1,2,2,5,5,6,6,7,7,8,8,9,9,10,10],"right_children":[2,4,6,-1,-1,8,10,12,14,16,18,-1,-1,-1,-1,-1,-1,-1,-1],"split_conditions":[1.159E1,9.5933245E-4,1.2314588E-5,-0E0,6.0147315E-4,1.7288974E-2,1.46345E5,1.1240931E-2,4.3139E4,4.1572E2,2.7725E2,4.846908E-5,-2.2993478E-5,-1.2208476E-6,9.896578E-5,6.195219E-5,-3.497627E-6,-5.1074305E-5,1.0725221E-5],"split_indices":[2,57,54,0,0,58,47,58,4,1,46,0,0,0,0,0,0,0,0],"split_type":[0,0,0,0,0,0,0,0,0,0,0,0,0,0,0,0,0,0,0],"sum_hessian":[1.1083E4,4.2E1,1.1041E4,1.8E1,2.4E1,4.838E3,6.203E3,2.823E3,2.015E3,1.149E3,5.054E3,9.8E2,1.843E3,7.65E2,1.25E3,8.38E2,3.11E2,4.158E3,8.96E2],"tree_param":{"num_deleted":"0","num_feature":"176","num_nodes":"19","size_leaf_vector":"1"}},{"base_weights":[6.202186E-5,-8.092988E-5,3.7963795E-3,5.7918332E-5,-3.7902067E-3,1.6659984E-2,1.6084698E-3,1.4747498E-3,-2.0284014E-4,-0E0,-4.506557E-3,-0E0,9.83674E-4,-0E0,4.750508E-3,9.2138675E-5,-0E0,-2.7221036E-5,1.9766549E-5,-0E0,-1.5346889E-4,-2.4061074E-4,7.2566017E-6,1.7248846E-4,-0E0],"categories":[],"categories_nodes":[],"categories_segments":[],"categories_sizes":[],"default_left":[0,0,0,0,0,0,0,0,0,0,0,0,0,0,0,0,0,0,0,0,0,0,0,0,0],"id":52,"left_children":[1,3,5,7,9,11,13,15,17,-1,19,-1,-1,21,23,-1,-1,-1,-1,-1,-1,-1,-1,-1,-1],"loss_changes":[7.7586817E-3,7.2839996E-3,5.898254E-3,4.33546E-3,2.1548648E-3,1.0764035E-2,3.8547085E-3,4.8476704E-3,5.079445E-3,0E0,1.8442096E-3,0E0,0E0,2.7472891E-3,2.1221815E-3,0E0,0E0,0E0,0E0,0E0,0E0,0E0,0E0,0E0,0E0],"parents":[2147483647,0,0,1,1,2,2,3,3,4,4,5,5,6,6,7,7,8,8,10,10,13,13,14,14],"right_children":[2,4,6,8,10,12,14,16,18,-1,20,-1,-1,22,24,-1,-1,-1,-1,-1,-1,-1,-1,-1,-1],"split_conditions":[3.8864773E-2,4.312126E5,3.9517634E-2,1.1113763E-2,1.677E1,1.7442E2,5.0157044E-2,3.63362E4,5.46268E4,-0E0,9.61097E-3,-0E0,9.83674E-4,4.59E1,1.1889144E6,9.2138675E-5,-0E0,-2.7221036E-5,1.9766549E-5,-0E0,-1.5346889E-4,-2.4061074E-4,7.2566017E-6,1.7248846E-4,-0E0],"split_indices":[58,17,58,58,0,0,58,17,17,0,58,0,0,0,17,0,0,0,0,0,0,0,0,0,0],"split_type":[0,0,0,0,0,0,0,0,0,0,0,0,0,0,0,0,0,0,0,0,0,0,0,0,0],"sum_hessian":[1.105E4,1.0516E4,5.34E2,1.0009E4,5.07E2,4.2E1,4.92E2,1.852E3,8.157E3,4.3E1,4.64E2,2.3E1,1.9E1,2.67E2,2.25E2,9.39E2,9.13E2,4.807E3,3.35E3,3.4E1,4.3E2,4E1,2.27E2,2.17E2,8E0],"tree_param":{"num_deleted":"0","num_feature":"176","num_nodes":"25","size_leaf_vector":"1"}},{"base_weights":[-0E0,-2.2274388E-4,3.104296E-3,8.012968E-5,-2.0714542E-3,5.683785E-3,-0E0,-2.3732104E-4,1.8830607E-3,-6.286662E-3,-8.0360746E-4,-0E0,8.792345E-3,2.0944928E-3,-0E0,3.977285E-5,-2.7152499E-5,-2.0004045E-6,1.6199834E-4,-6.074054E-5,-6.4477645E-4,5.6885892E-5,-5.7753638E-5,-0E0,5.932785E-5,-0E0,3.485706E-4,1.1483717E-4,-0E0,-0E0,-4.1789444E-5],"categories":[],"categories_nodes":[],"categories_segments":[],"categories_sizes":[],"default_left":[0,0,0,0,0,0,0,0,0,0,0,0,0,0,0,0,0,0,0,0,0,0,0,0,0,0,0,0,0,0,0],"id":53,"left_children":[1,3,5,7,9,11,13,15,17,19,21,23,25,27,29,-1,-1,-1,-1,-1,-1,-1,-1,-1,-1,-1,-1,-1,-1,-1,-1],"loss_changes":[6.933429E-3,6.867176E-3,4.166829E-3,5.8488613E-3,5.5728653E-3,1.8274868E-3,3.6191932E-4,7.3406673E-3,1.3299331E-2,7.8015616E-3,4.285312E-3,4.556177E-4,3.18518E-3,7.443718E-4,4.8606953E-4,0E0,0E0,0E0,0E0,0E0,0E0,0E0,0E0,0E0,0E0,0E0,0E0,0E0,0E0,0E0,0E0],"parents":[2147483647,0,0,1,1,2,2,3,3,4,4,5,5,6,6,7,7,8,8,9,9,10,10,11,11,12,12,13,13,14,14],"right_children":[2,4,6,8,10,12,14,16,18,20,22,24,26,28,30,-1,-1,-1,-1,-1,-1,-1,-1,-1,-1,-1,-1,-1,-1,-1,-1],"split_conditions":[3.6795992E-2,2.4792306E-2,4.9324386E-4,1.9305257E-2,2.629118E-2,-1.0346E-2,2.76834E4,1.1113763E-2,6.29098E4,2.6108881E-2,6.045E1,4.8442766E-2,3.8864773E-2,3.210292E-2,1.33E1,3.977285E-5,-2.7152499E-5,-2.0004045E-6,1.6199834E-4,-6.074054E-5,-6.4477645E-4,5.6885892E-5,-5.7753638E-5,-0E0,5.932785E-5,-0E0,3.485706E-4,1.1483717E-4,-0E0,-0E0,-4.1789444E-5],"split_indices":[58,58,54,58,58,34,17,58,17,58,3,58,58,56,0,0,0,0,0,0,0,0,0,0,0,0,0,0,0,0,0],"split_type":[0,0,0,0,0,0,0,0,0,0,0,0,0,0,0,0,0,0,0,0,0,0,0,0,0,0,0,0,0,0,0],"sum_hessian":[1.1146E4,1.0483E4,6.63E2,8.777E3,1.706E3,3.25E2,3.38E2,7.229E3,1.548E3,3.01E2,1.405E3,1.67E2,1.58E2,8E1,2.58E2,1.939E3,5.29E3,9.06E2,6.42E2,2.63E2,3.8E1,2.81E2,1.124E3,5.3E1,1.14E2,4.5E1,1.13E2,7.3E1,7E0,1E1,2.48E2],"tree_param":{"num_deleted":"0","num_feature":"176","num_nodes":"31","size_leaf_vector":"1"}},{"base_weights":[8.76666E-6,-1.2033866E-4,3.4897283E-3,1.7690616E-4,-1.849668E-3,1.887883E-2,1.3331928E-3,-2.1260143E-4,1.3583897E-3,-6.6412804E-3,-5.462028E-4,-0E0,9.474039E-4,-3.339226E-4,4.4957255E-3,9.1580505E-6,-7.6918004E-5,-0E0,1.08119246E-4,-5.8677022E-5,-6.6646276E-4,7.0524286E-5,-4.997615E-5,-2.435393E-4,-0E0,2.962108E-4,-0E0],"categories":[],"categories_nodes":[],"categories_segments":[],"categories_sizes":[],"default_left":[0,0,0,0,0,0,0,0,0,0,0,0,0,0,0,0,0,0,0,0,0,0,0,0,0,0,0],"id":54,"left_children":[1,3,5,7,9,11,13,15,17,19,21,-1,-1,23,25,-1,-1,-1,-1,-1,-1,-1,-1,-1,-1,-1,-1],"loss_changes":[6.711279E-3,6.3098636E-3,7.7023422E-3,4.6419865E-3,7.6925377E-3,8.076668E-3,4.739261E-3,8.842273E-3,8.414652E-3,1.0025313E-2,4.5539476E-3,0E0,0E0,3.1048446E-3,4.091533E-3,0E0,0E0,0E0,0E0,0E0,0E0,0E0,0E0,0E0,0E0,0E0,0E0],"parents":[2147483647,0,0,1,1,2,2,3,3,4,4,5,5,6,6,7,7,8,8,9,9,10,10,13,13,14,14],"right_children":[2,4,6,8,10,12,14,16,18,20,22,-1,-1,24,26,-1,-1,-1,-1,-1,-1,-1,-1,-1,-1,-1,-1],"split_conditions":[3.8864773E-2,2.4792306E-2,3.9517634E-2,1.7288974E-2,2.629118E-2,1.7476E2,4.8442766E-2,1.5003166E-2,6.06144E4,2.6108881E-2,6.045E1,-0E0,9.474039E-4,4.595E1,1.6721E2,9.1580505E-6,-7.6918004E-5,-0E0,1.08119246E-4,-5.8677022E-5,-6.6646276E-4,7.0524286E-5,-4.997615E-5,-2.435393E-4,-0E0,2.962108E-4,-0E0],"split_indices":[58,58,58,58,58,1,58,58,17,58,3,0,0,1,3,0,0,0,0,0,0,0,0,0,0,0,0],"split_type":[0,0,0,0,0,0,0,0,0,0,0,0,0,0,0,0,0,0,0,0,0,0,0,0,0,0,0],"sum_hessian":[1.118E4,1.0644E4,5.36E2,8.838E3,1.806E3,3.5E1,5.01E2,6.33E3,2.508E3,3.02E2,1.504E3,1.6E1,1.9E1,2.26E2,2.75E2,5.015E3,1.315E3,1.506E3,1.002E3,2.59E2,4.3E1,2.94E2,1.21E3,4.5E1,1.81E2,9.7E1,1.78E2],"tree_param":{"num_deleted":"0","num_feature":"176","num_nodes":"27","size_leaf_vector":"1"}},{"base_weights":[-0E0,-1.6559123E-4,2.7653235E-3,-0E0,-3.207539E-3,-0E0,4.712373E-3,3.0767024E-4,-1.7916518E-3,-4.0365783E-3,-0E0,-3.2116948E-3,9.154302E-3,7.474843E-3,-9.5472446E-5,-2.2484562E-6,6.64753E-5,-3.6351863E-4,-1.184505E-5,-0E0,-1.5382515E-4,-1.5393317E-4,-0E0,-0E0,4.2559492E-4,4.024226E-4,3.0817588E-5,-0E0,-5.7673453E-5],"categories":[],"categories_nodes":[],"categories_segments":[],"categories_sizes":[],"default_left":[0,0,0,0,0,0,0,0,0,0,0,0,0,0,0,0,0,0,0,0,0,0,0,0,0,0,0,0,0],"id":55,"left_children":[1,3,5,7,9,11,13,15,17,19,-1,21,23,25,27,-1,-1,-1,-1,-1,-1,-1,-1,-1,-1,-1,-1,-1,-1],"loss_changes":[5.4473747E-3,5.7137627E-3,4.1576982E-3,5.316929E-3,1.6467907E-3,6.980843E-3,9.26307E-3,7.3311296E-3,1.3974693E-2,1.6702521E-3,0E0,2.5684668E-3,3.0472674E-3,5.4775737E-3,2.8191358E-4,0E0,0E0,0E0,0E0,0E0,0E0,0E0,0E0,0E0,0E0,0E0,0E0,0E0,0E0],"parents":[2147483647,0,0,1,1,2,2,3,3,4,4,5,5,6,6,7,7,8,8,9,9,11,11,12,12,13,13,14,14],"right_children":[2,4,6,8,10,12,14,16,18,20,-1,22,24,26,28,-1,-1,-1,-1,-1,-1,-1,-1,-1,-1,-1,-1,-1,-1],"split_conditions":[3.6795992E-2,3.7876E5,1.16653E2,2.5825052E-2,5.085671E-1,4.8442766E-2,1.9941E5,1.9305257E-2,2.629118E-2,1.1704872E-2,-0E0,1.6243317E7,-3.0647E-2,4.4214487E-2,1.4766E2,-2.2484562E-6,6.64753E-5,-3.6351863E-4,-1.184505E-5,-0E0,-1.5382515E-4,-1.5393317E-4,-0E0,-0E0,4.2559492E-4,4.024226E-4,3.0817588E-5,-0E0,-5.7673453E-5],"split_indices":[58,4,16,58,63,58,4,58,58,58,0,47,34,58,0,0,0,0,0,0,0,0,0,0,0,0,0,0,0],"split_type":[0,0,0,0,0,0,0,0,0,0,0,0,0,0,0,0,0,0,0,0,0,0,0,0,0,0,0,0,0],"sum_hessian":[1.1226E4,1.0554E4,6.72E2,9.973E3,5.81E2,2.55E2,4.17E2,8.572E3,1.401E3,4.67E2,1.14E2,1.99E2,5.6E1,3.3E2,8.7E1,6.924E3,1.648E3,1.22E2,1.279E3,1.15E2,3.52E2,1.74E2,2.5E1,1.9E1,3.7E1,1.3E2,2E2,1.3E1,7.4E1],"tree_param":{"num_deleted":"0","num_feature":"176","num_nodes":"29","size_leaf_vector":"1"}},{"base_weights":[-0E0,-1.0194161E-4,4.829375E-3,6.919452E-5,-2.511302E-3,6.793253E-3,-0E0,6.8427715E-4,-4.617094E-4,-3.6142268E-3,2.38594E-4,-0E0,7.734631E-3,-3.0837786E-5,3.90824E-5,4.4263093E-6,-7.064115E-5,-0E0,-1.3869544E-4,3.981056E-4,-8.835036E-5,-0E0,2.5788738E-4],"categories":[],"categories_nodes":[],"categories_segments":[],"categories_sizes":[],"default_left":[0,0,0,0,0,0,0,0,0,0,0,0,0,0,0,0,0,0,0,0,0,0,0],"id":56,"left_children":[1,3,5,7,9,11,-1,13,15,17,19,-1,21,-1,-1,-1,-1,-1,-1,-1,-1,-1,-1],"loss_changes":[6.607875E-3,5.683502E-3,2.9880563E-3,3.348998E-3,4.4544865E-3,1.6139755E-3,0E0,5.4667257E-3,6.738962E-3,4.028879E-3,1.0798865E-2,0E0,8.366648E-4,0E0,0E0,0E0,0E0,0E0,0E0,0E0,0E0,0E0,0E0],"parents":[2147483647,0,0,1,1,2,2,3,3,4,4,5,5,7,7,8,8,9,9,10,10,12,12],"right_children":[2,4,6,8,10,12,-1,14,16,18,20,-1,22,-1,-1,-1,-1,-1,-1,-1,-1,-1,-1],"split_conditions":[4.8442766E-2,3.851823E6,9E-1,7.18E-4,2.6283E2,1.1143E4,-0E0,-6.187E-3,1.9E1,1.1704872E-2,3.209E2,-0E0,4.75909E5,-3.0837786E-5,3.90824E-5,4.4263093E-6,-7.064115E-5,-0E0,-1.3869544E-4,3.981056E-4,-8.835036E-5,-0E0,2.5788738E-4],"split_indices":[58,47,10,12,0,4,0,34,39,58,0,0,47,0,0,0,0,0,0,0,0,0,0],"split_type":[0,0,0,0,0,0,0,0,0,0,0,0,0,0,0,0,0,0,0,0,0,0,0],"sum_hessian":[1.1095E4,1.0819E4,2.76E2,9.91E3,9.09E2,2.03E2,7.3E1,5.027E3,4.883E3,7.78E2,1.31E2,2E1,1.83E2,1.119E3,3.908E3,3.496E3,1.387E3,1.15E2,6.63E2,5.5E1,7.6E1,2.4E1,1.59E2],"tree_param":{"num_deleted":"0","num_feature":"176","num_nodes":"23","size_leaf_vector":"1"}},{"base_weights":[-0E0,-2.1438886E-4,2.3868189E-3,-3.1555826E-6,-4.216962E-3,3.9481292E-3,-0E0,2.6508365E-4,-1.865869E-3,-0E0,-4.8371805E-3,-0E0,4.971284E-3,-1.9592387E-3,5.264742E-4,-5.058925E-6,4.6200345E-5,5.351712E-6,-9.497843E-5,-1.6534906E-4,-0E0,6.8427694E-6,-1.3874615E-5,1.650547E-4,-0E0,-0E0,-1.1751003E-4,7.963979E-5,-0E0],"categories":[],"categories_nodes":[],"categories_segments":[],"categories_sizes":[],"default_left":[0,0,0,0,0,0,0,0,0,0,0,0,0,0,0,0,0,0,0,0,0,0,0,0,0,0,0,0,0],"id":57,"left_children":[1,3,5,7,9,11,13,15,17,-1,19,21,23,25,27,-1,-1,-1,-1,-1,-1,-1,-1,-1,-1,-1,-1,-1,-1],"loss_changes":[4.745842E-3,6.646086E-3,4.0462213E-3,5.777422E-3,1.4066868E-3,2.347895E-3,6.827272E-4,5.371248E-3,5.451173E-3,0E0,1.6631754E-3,2.0377744E-5,1.4289441E-3,1.3937813E-3,1.950043E-4,0E0,0E0,0E0,0E0,0E0,0E0,0E0,0E0,0E0,0E0,0E0,0E0,0E0,0E0],"parents":[2147483647,0,0,1,1,2,2,3,3,4,4,5,5,6,6,7,7,8,8,10,10,11,11,12,12,13,13,14,14],"right_children":[2,4,6,8,10,12,14,16,18,-1,20,22,24,26,28,-1,-1,-1,-1,-1,-1,-1,-1,-1,-1,-1,-1,-1,-1],"split_conditions":[3.5204932E-2,4.61692E5,5.187E-3,2.4792306E-2,1.677E1,4.59E1,1.6425E-2,1.7288974E-2,7.867E1,-0E0,2.6283E2,1.33E1,2.6335553E-3,2.70574E4,4.127238E-2,-5.058925E-6,4.6200345E-5,5.351712E-6,-9.497843E-5,-1.6534906E-4,-0E0,6.8427694E-6,-1.3874615E-5,1.650547E-4,-0E0,-0E0,-1.1751003E-4,7.963979E-5,-0E0],"split_indices":[58,17,12,58,0,0,12,58,0,0,0,0,54,17,53,0,0,0,0,0,0,0,0,0,0,0,0,0,0],"split_type":[0,0,0,0,0,0,0,0,0,0,0,0,0,0,0,0,0,0,0,0,0,0,0,0,0,0,0,0,0],"sum_hessian":[1.1101E4,1.0354E4,7.47E2,9.956E3,3.98E2,5.31E2,2.16E2,8.47E3,1.486E3,3.6E1,3.62E2,1.02E2,4.29E2,1.72E2,4.4E1,6.029E3,2.441E3,4.29E2,1.057E3,3.33E2,2.9E1,1.3E1,8.9E1,3.97E2,3.2E1,4E1,1.32E2,2.7E1,1.7E1],"tree_param":{"num_deleted":"0","num_feature":"176","num_nodes":"29","size_leaf_vector":"1"}},{"base_weights":[-1.4995921E-6,-2.2944082E-4,2.4482198E-3,1.3891235E-4,-1.9729254E-3,3.4366376E-3,-0E0,-1.9341936E-4,2.668246E-3,-0E0,-3.092435E-3,-0E0,7.1600187E-3,-0E0,-1.099247E-4,3.6351215E-5,-2.5612482E-5,1.4282625E-4,-6.572717E-5,3.9675948E-4,-1.9025458E-5,-3.541876E-4,-4.1757965E-5,3.7596715E-4,-1.4597916E-5,5.774388E-4,7.227325E-5,-0E0,1.15730734E-4],"categories":[],"categories_nodes":[],"categories_segments":[],"categories_sizes":[],"default_left":[0,0,0,0,0,0,0,0,0,0,0,0,0,0,0,0,0,0,0,0,0,0,0,0,0,0,0,0,0],"id":58,"left_children":[1,3,5,7,9,11,13,15,17,19,21,23,25,27,-1,-1,-1,-1,-1,-1,-1,-1,-1,-1,-1,-1,-1,-1,-1],"loss_changes":[5.084303E-3,7.5546945E-3,2.9062186E-3,8.213397E-3,5.9327353E-3,7.189897E-3,6.243111E-4,6.4683864E-3,1.2887786E-2,1.0796559E-2,1.4853146E-2,3.6113271E-3,5.4514417E-3,9.747567E-4,0E0,0E0,0E0,0E0,0E0,0E0,0E0,0E0,0E0,0E0,0E0,0E0,0E0,0E0,0E0],"parents":[2147483647,0,0,1,1,2,2,3,3,4,4,5,5,6,6,7,7,8,8,9,9,10,10,11,11,12,12,13,13],"right_children":[2,4,6,8,10,12,14,16,18,20,22,24,26,28,-1,-1,-1,-1,-1,-1,-1,-1,-1,-1,-1,-1,-1,-1,-1],"split_conditions":[3.5204932E-2,2.3103047E-2,7.947638E6,1.9305257E-2,7.867E1,1.7388E2,2.2049E2,1.1299555E-2,3.209E2,-1.7078E-2,1.1047E2,1.33E1,1.7816E2,2.321E1,-1.099247E-4,3.6351215E-5,-2.5612482E-5,1.4282625E-4,-6.572717E-5,3.9675948E-4,-1.9025458E-5,-3.541876E-4,-4.1757965E-5,3.7596715E-4,-1.4597916E-5,5.774388E-4,7.227325E-5,-0E0,1.15730734E-4],"split_indices":[58,58,47,58,0,33,0,58,0,34,33,0,33,33,0,0,0,0,0,0,0,0,0,0,0,0,0,0,0],"split_type":[0,0,0,0,0,0,0,0,0,0,0,0,0,0,0,0,0,0,0,0,0,0,0,0,0,