{"learner":{"attributes":{},"feature_names":["open","high","low","close","volume","slot_count","lag_close_1","lag_close_5","lag_close_10","close_diff_1","close_diff_5","pct_change_1","pct_change_5","log_return_1","sma_close_5","sma_close_10","sma_close_20","sma_volume_5","day_of_week","hour_of_day","day_monday","day_tuesday","day_wednesday","day_thursday","day_friday","quarter_1","quarter_2","quarter_3","quarter_4","hour_early_morning","hour_mid_morning","hour_afternoon","hour_late_afternoon","previous_close","overnight_gap_pct","overnight_log_return","is_gap_up","is_gap_down","month_of_year","slot_idx","bars_seen","bars_remaining","minutes_seen","intraday_progress","cutoff_close","cutoff_high_seen","cutoff_low_seen","cutoff_volume_seen","cutoff_slot_idx","close_open_log_return","high_low_log_range","close_vs_lag_close_1","close_vs_lag_close_5","close_vs_lag_close_10","close_vs_sma_close_5","close_vs_sma_close_10","close_vs_sma_close_20","cutoff_return_from_open","cutoff_range_seen","cutoff_price_vs_prev_close","log_volume","log_slot_count","log_cutoff_volume_seen","volume_vs_sma_volume_5","close_open_log_return_mean_5d","close_open_log_return_std_5d","high_low_log_range_mean_5d","high_low_log_range_std_5d","pct_change_1_mean_5d","pct_change_1_std_5d","pct_change_5_mean_5d","pct_change_5_std_5d","log_return_1_mean_5d","log_return_1_std_5d","cutoff_return_from_open_mean_5d","cutoff_return_from_open_std_5d","cutoff_range_seen_mean_5d","cutoff_range_seen_std_5d","cutoff_price_vs_prev_close_mean_5d","cutoff_price_vs_prev_close_std_5d","cutoff_volume_seen_mean_5d","cutoff_volume_seen_std_5d","overnight_gap_pct_mean_5d","overnight_gap_pct_std_5d","overnight_log_return_mean_5d","overnight_log_return_std_5d","close_open_log_return_mean_10d","close_open_log_return_std_10d","high_low_log_range_mean_10d","high_low_log_range_std_10d","pct_change_1_mean_10d","pct_change_1_std_10d","pct_change_5_mean_10d","pct_change_5_std_10d","log_return_1_mean_10d","log_return_1_std_10d","cutoff_return_from_open_mean_10d","cutoff_return_from_open_std_10d","cutoff_range_seen_mean_10d","cutoff_range_seen_std_10d","cutoff_price_vs_prev_close_mean_10d","cutoff_price_vs_prev_close_std_10d","cutoff_volume_seen_mean_10d","cutoff_volume_seen_std_10d","overnight_gap_pct_mean_10d","overnight_gap_pct_std_10d","overnight_log_return_mean_10d","overnight_log_return_std_10d","close_open_log_return_mean_20d","close_open_log_return_std_20d","high_low_log_range_mean_20d","high_low_log_range_std_20d","pct_change_1_mean_20d","pct_change_1_std_20d","pct_change_5_mean_20d","pct_change_5_std_20d","log_return_1_mean_20d","log_return_1_std_20d","cutoff_return_from_open_mean_20d","cutoff_return_from_open_std_20d","cutoff_range_seen_mean_20d","cutoff_range_seen_std_20d","cutoff_price_vs_prev_close_mean_20d","cutoff_price_vs_prev_close_std_20d","cutoff_volume_seen_mean_20d","cutoff_volume_seen_std_20d","overnight_gap_pct_mean_20d","overnight_gap_pct_std_20d","overnight_log_return_mean_20d","overnight_log_return_std_20d","close_open_log_return_mean_60d","close_open_log_return_std_60d","high_low_log_range_mean_60d","high_low_log_range_std_60d","pct_change_1_mean_60d","pct_change_1_std_60d","pct_change_5_mean_60d","pct_change_5_std_60d","log_return_1_mean_60d","log_return_1_std_60d","cutoff_return_from_open_mean_60d","cutoff_return_from_open_std_60d","cutoff_range_seen_mean_60d","cutoff_range_seen_std_60d","cutoff_price_vs_prev_close_mean_60d","cutoff_price_vs_prev_close_std_60d","cutoff_volume_seen_mean_60d","cutoff_volume_seen_std_60d","overnight_gap_pct_mean_60d","overnight_gap_pct_std_60d","overnight_log_return_mean_60d","overnight_log_return_std_60d","cutoff_return_from_open_mean_5cut","cutoff_return_from_open_std_5cut","cutoff_range_seen_mean_5cut","cutoff_range_seen_std_5cut","cutoff_volume_seen_mean_5cut","cutoff_volume_seen_std_5cut","pct_change_1_mean_5cut","pct_change_1_std_5cut","cutoff_return_from_open_mean_10cut","cutoff_return_from_open_std_10cut","cutoff_range_seen_mean_10cut","cutoff_range_seen_std_10cut","cutoff_volume_seen_mean_10cut","cutoff_volume_seen_std_10cut","pct_change_1_mean_10cut","pct_change_1_std_10cut","cutoff_return_from_open_mean_20cut","cutoff_return_from_open_std_20cut","cutoff_range_seen_mean_20cut","cutoff_range_seen_std_20cut","cutoff_volume_seen_mean_20cut","cutoff_volume_seen_std_20cut","pct_change_1_mean_20cut","pct_change_1_std_20cut"],"feature_types":["float","float","float","float","float","int","float","float","float","float","float","float","float","float","float","float","float","float","int","int","int","int","int","int","int","int","int","int","int","int","int","int","int","float","float","float","int","int","int","int","int","int","float","float","float","float","float","float","int","float","float","float","float","float","float","float","float","float","float","float","float","float","float","float","float","float","float","float","float","float","float","float","float","float","float","float","float","float","float","float","float","float","float","float","float","float","float","float","float","float","float","float","float","float","float","float","float","float","float","float","float","float","float","float","float","float","float","float","float","float","float","float","float","float","float","float","float","float","float","float","float","float","float","float","float","float","float","float","float","float","float","float","float","float","float","float","float","float","float","float","float","float","float","float","float","float","float","float","float","float","float","float","float","float","float","float","float","float","float","float","float","float","float","float","float","float","float","float","float","float","float","float","float","float","float","float"],"gradient_booster":{"model":{"gbtree_model_param":{"num_parallel_tree":"1","num_trees":"1120"},"iteration_indptr":[0,1,2,3,4,5,6,7,8,9,10,11,12,13,14,15,16,17,18,19,20,21,22,23,24,25,26,27,28,29,30,31,32,33,34,35,36,37,38,39,40,41,42,43,44,45,46,47,48,49,50,51,52,53,54,55,56,57,58,59,60,61,62,63,64,65,66,67,68,69,70,71,72,73,74,75,76,77,78,79,80,81,82,83,84,85,86,87,88,89,90,91,92,93,94,95,96,97,98,99,100,101,102,103,104,105,106,107,108,109,110,111,112,113,114,115,116,117,118,119,120,121,122,123,124,125,126,127,128,129,130,131,132,133,134,135,136,137,138,139,140,141,142,143,144,145,146,147,148,149,150,151,152,153,154,155,156,157,158,159,160,161,162,163,164,165,166,167,168,169,170,171,172,173,174,175,176,177,178,179,180,181,182,183,184,185,186,187,188,189,190,191,192,193,194,195,196,197,198,199,200,201,202,203,204,205,206,207,208,209,210,211,212,213,214,215,216,217,218,219,220,221,222,223,224,225,226,227,228,229,230,231,232,233,234,235,236,237,238,239,240,241,242,243,244,245,246,247,248,249,250,251,252,253,254,255,256,257,258,259,260,261,262,263,264,265,266,267,268,269,270,271,272,273,274,275,276,277,278,279,280,281,282,283,284,285,286,287,288,289,290,291,292,293,294,295,296,297,298,299,300,301,302,303,304,305,306,307,308,309,310,311,312,313,314,315,316,317,318,319,320,321,322,323,324,325,326,327,328,329,330,331,332,333,334,335,336,337,338,339,340,341,342,343,344,345,346,347,348,349,350,351,352,353,354,355,356,357,358,359,360,361,362,363,364,365,366,367,368,369,370,371,372,373,374,375,376,377,378,379,380,381,382,383,384,385,386,387,388,389,390,391,392,393,394,395,396,397,398,399,400,401,402,403,404,405,406,407,408,409,410,411,412,413,414,415,416,417,418,419,420,421,422,423,424,425,426,427,428,429,430,431,432,433,434,435,436,437,438,439,440,441,442,443,444,445,446,447,448,449,450,451,452,453,454,455,456,457,458,459,460,461,462,463,464,465,466,467,468,469,470,471,472,473,474,475,476,477,478,479,480,481,482,483,484,485,486,487,488,489,490,491,492,493,494,495,496,497,498,499,500,501,502,503,504,505,506,507,508,509,510,511,512,513,514,515,516,517,518,519,520,521,522,523,524,525,526,527,528,529,530,531,532,533,534,535,536,537,538,539,540,541,542,543,544,545,546,547,548,549,550,551,552,553,554,555,556,557,558,559,560,561,562,563,564,565,566,567,568,569,570,571,572,573,574,575,576,577,578,579,580,581,582,583,584,585,586,587,588,589,590,591,592,593,594,595,596,597,598,599,600,601,602,603,604,605,606,607,608,609,610,611,612,613,614,615,616,617,618,619,620,621,622,623,624,625,626,627,628,629,630,631,632,633,634,635,636,637,638,639,640,641,642,643,644,645,646,647,648,649,650,651,652,653,654,655,656,657,658,659,660,661,662,663,664,665,666,667,668,669,670,671,672,673,674,675,676,677,678,679,680,681,682,683,684,685,686,687,688,689,690,691,692,693,694,695,696,697,698,699,700,701,702,703,704,705,706,707,708,709,710,711,712,713,714,715,716,717,718,719,720,721,722,723,724,725,726,727,728,729,730,731,732,733,734,735,736,737,738,739,740,741,742,743,744,745,746,747,748,749,750,751,752,753,754,755,756,757,758,759,760,761,762,763,764,765,766,767,768,769,770,771,772,773,774,775,776,777,778,779,780,781,782,783,784,785,786,787,788,789,790,791,792,793,794,795,796,797,798,799,800,801,802,803,804,805,806,807,808,809,810,811,812,813,814,815,816,817,818,819,820,821,822,823,824,825,826,827,828,829,830,831,832,833,834,835,836,837,838,839,840,841,842,843,844,845,846,847,848,849,850,851,852,853,854,855,856,857,858,859,860,861,862,863,864,865,866,867,868,869,870,871,872,873,874,875,876,877,878,879,880,881,882,883,884,885,886,887,888,889,890,891,892,893,894,895,896,897,898,899,900,901,902,903,904,905,906,907,908,909,910,911,912,913,914,915,916,917,918,919,920,921,922,923,924,925,926,927,928,929,930,931,932,933,934,935,936,937,938,939,940,941,942,943,944,945,946,947,948,949,950,951,952,953,954,955,956,957,958,959,960,961,962,963,964,965,966,967,968,969,970,971,972,973,974,975,976,977,978,979,980,981,982,983,984,985,986,987,988,989,990,991,992,993,994,995,996,997,998,999,1000,1001,1002,1003,1004,1005,1006,1007,1008,1009,1010,1011,1012,1013,1014,1015,1016,1017,1018,1019,1020,1021,1022,1023,1024,1025,1026,1027,1028,1029,1030,1031,1032,1033,1034,1035,1036,1037,1038,1039,1040,1041,1042,1043,1044,1045,1046,1047,1048,1049,1050,1051,1052,1053,1054,1055,1056,1057,1058,1059,1060,1061,1062,1063,1064,1065,1066,1067,1068,1069,1070,1071,1072,1073,1074,1075,1076,1077,1078,1079,1080,1081,1082,1083,1084,1085,1086,1087,1088,1089,1090,1091,1092,1093,1094,1095,1096,1097,1098,1099,1100,1101,1102,1103,1104,1105,1106,1107,1108,1109,1110,1111,1112,1113,1114,1115,1116,1117,1118,1119,1120],"tree_info":[0,0,0,0,0,0,0,0,0,0,0,0,0,0,0,0,0,0,0,0,0,0,0,0,0,0,0,0,0,0,0,0,0,0,0,0,0,0,0,0,0,0,0,0,0,0,0,0,0,0,0,0,0,0,0,0,0,0,0,0,0,0,0,0,0,0,0,0,0,0,0,0,0,0,0,0,0,0,0,0,0,0,0,0,0,0,0,0,0,0,0,0,0,0,0,0,0,0,0,0,0,0,0,0,0,0,0,0,0,0,0,0,0,0,0,0,0,0,0,0,0,0,0,0,0,0,0,0,0,0,0,0,0,0,0,0,0,0,0,0,0,0,0,0,0,0,0,0,0,0,0,0,0,0,0,0,0,0,0,0,0,0,0,0,0,0,0,0,0,0,0,0,0,0,0,0,0,0,0,0,0,0,0,0,0,0,0,0,0,0,0,0,0,0,0,0,0,0,0,0,0,0,0,0,0,0,0,0,0,0,0,0,0,0,0,0,0,0,0,0,0,0,0,0,0,0,0,0,0,0,0,0,0,0,0,0,0,0,0,0,0,0,0,0,0,0,0,0,0,0,0,0,0,0,0,0,0,0,0,0,0,0,0,0,0,0,0,0,0,0,0,0,0,0,0,0,0,0,0,0,0,0,0,0,0,0,0,0,0,0,0,0,0,0,0,0,0,0,0,0,0,0,0,0,0,0,0,0,0,0,0,0,0,0,0,0,0,0,0,0,0,0,0,0,0,0,0,0,0,0,0,0,0,0,0,0,0,0,0,0,0,0,0,0,0,0,0,0,0,0,0,0,0,0,0,0,0,0,0,0,0,0,0,0,0,0,0,0,0,0,0,0,0,0,0,0,0,0,0,0,0,0,0,0,0,0,0,0,0,0,0,0,0,0,0,0,0,0,0,0,0,0,0,0,0,0,0,0,0,0,0,0,0,0,0,0,0,0,0,0,0,0,0,0,0,0,0,0,0,0,0,0,0,0,0,0,0,0,0,0,0,0,0,0,0,0,0,0,0,0,0,0,0,0,0,0,0,0,0,0,0,0,0,0,0,0,0,0,0,0,0,0,0,0,0,0,0,0,0,0,0,0,0,0,0,0,0,0,0,0,0,0,0,0,0,0,0,0,0,0,0,0,0,0,0,0,0,0,0,0,0,0,0,0,0,0,0,0,0,0,0,0,0,0,0,0,0,0,0,0,0,0,0,0,0,0,0,0,0,0,0,0,0,0,0,0,0,0,0,0,0,0,0,0,0,0,0,0,0,0,0,0,0,0,0,0,0,0,0,0,0,0,0,0,0,0,0,0,0,0,0,0,0,0,0,0,0,0,0,0,0,0,0,0,0,0,0,0,0,0,0,0,0,0,0,0,0,0,0,0,0,0,0,0,0,0,0,0,0,0,0,0,0,0,0,0,0,0,0,0,0,0,0,0,0,0,0,0,0,0,0,0,0,0,0,0,0,0,0,0,0,0,0,0,0,0,0,0,0,0,0,0,0,0,0,0,0,0,0,0,0,0,0,0,0,0,0,0,0,0,0,0,0,0,0,0,0,0,0,0,0,0,0,0,0,0,0,0,0,0,0,0,0,0,0,0,0,0,0,0,0,0,0,0,0,0,0,0,0,0,0,0,0,0,0,0,0,0,0,0,0,0,0,0,0,0,0,0,0,0,0,0,0,0,0,0,0,0,0,0,0,0,0,0,0,0,0,0,0,0,0,0,0,0,0,0,0,0,0,0,0,0,0,0,0,0,0,0,0,0,0,0,0,0,0,0,0,0,0,0,0,0,0,0,0,0,0,0,0,0,0,0,0,0,0,0,0,0,0,0,0,0,0,0,0,0,0,0,0,0,0,0,0,0,0,0,0,0,0,0,0,0,0,0,0,0,0,0,0,0,0,0,0,0,0,0,0,0,0,0,0,0,0,0,0,0,0,0,0,0,0,0,0,0,0,0,0,0,0,0,0,0,0,0,0,0,0,0,0,0,0,0,0,0,0,0,0,0,0,0,0,0,0,0,0,0,0,0,0,0,0,0,0,0,0,0,0,0,0,0,0,0,0,0,0,0,0,0,0,0,0,0,0,0,0,0,0,0,0,0,0,0,0,0,0,0,0,0,0,0,0,0,0,0,0,0,0,0,0,0,0,0,0,0,0,0,0,0,0,0,0,0,0,0,0,0,0,0,0,0,0,0,0,0,0,0,0,0,0,0,0,0,0,0,0,0,0,0,0,0,0,0,0,0,0,0,0,0,0,0,0,0,0,0,0,0,0,0,0,0,0,0,0,0,0,0,0,0,0,0,0,0,0,0,0,0,0,0,0,0,0,0,0,0,0,0,0,0,0,0,0,0,0,0,0,0,0,0,0,0,0,0,0,0,0,0,0,0,0,0,0,0,0,0,0,0,0,0,0,0,0,0,0,0,0,0,0,0,0,0,0,0,0,0,0,0,0,0,0,0,0,0,0,0,0,0,0,0,0,0,0,0,0,0,0,0,0,0,0,0,0,0,0,0,0,0,0,0,0,0],"trees":[{"base_weights":[-3.2768526E-6,2.994066E-2,-1.7564437E-4,-0E0,1.8534738E-3,-5.783093E-3,2.2877821E-4,-0E0,-7.3393118E-3,-6.8147914E-5,7.5248093E-3,-4.1956815E-4,-9.1538604E-5,2.4854688E-5,-1.4135093E-4,2.9429884E-4,-0E0],"categories":[],"categories_nodes":[],"categories_segments":[],"categories_sizes":[],"default_left":[0,0,0,0,0,0,0,0,0,0,0,0,0,0,0,0,0],"id":0,"left_children":[1,3,5,-1,-1,7,9,-1,11,13,15,-1,-1,-1,-1,-1,-1],"loss_changes":[4.2924993E-2,5.0937243E-2,2.8071867E-2,0E0,0E0,9.749338E-3,2.6089927E-2,0E0,1.1281751E-2,4.2981368E-2,6.9536325E-3,0E0,0E0,0E0,0E0,0E0,0E0],"parents":[2147483647,0,0,1,1,2,2,5,5,6,6,8,8,9,9,10,10],"right_children":[2,4,6,-1,-1,8,10,-1,12,14,16,-1,-1,-1,-1,-1,-1],"split_conditions":[1.33E1,9.5933245E-4,3.281E1,-0E0,1.8534738E-3,1.716E1,3.8864773E-2,-0E0,2.258E1,2.4792306E-2,3.667589E-2,-4.1956815E-4,-9.1538604E-5,2.4854688E-5,-1.4135093E-4,2.9429884E-4,-0E0],"split_indices":[0,57,46,0,0,33,58,0,33,58,57,0,0,0,0,0,0],"split_type":[0,0,0,0,0,0,0,0,0,0,0,0,0,0,0,0,0],"sum_hessian":[1.1195E4,4.5E1,1.115E4,2.3E1,2.2E1,8.31E2,1.0319E4,1.35E2,6.96E2,9.852E3,4.67E2,2.25E2,4.71E2,8.169E3,1.683E3,3.46E2,1.21E2],"tree_param":{"num_deleted":"0","num_feature":"176","num_nodes":"17","size_leaf_vector":"1"}},{"base_weights":[-0E0,3.290943E-2,-1.8339658E-4,-0E0,1.863337E-3,2.646222E-4,-6.551286E-3,-8.8807906E-4,1.5135083E-3,-1.1709334E-2,-3.385621E-3,4.1449603E-6,-1.4195692E-4,2.370428E-5,3.4166838E-4,-0E0,-3.9247348E-4,-0E0,-1.710407E-4],"categories":[],"categories_nodes":[],"categories_segments":[],"categories_sizes":[],"default_left":[0,0,0,0,0,0,0,0,0,0,0,0,0,0,0,0,0,0,0],"id":1,"left_children":[1,3,5,-1,-1,7,9,11,13,15,17,-1,-1,-1,-1,-1,-1,-1,-1],"loss_changes":[5.181752E-2,5.0787896E-2,3.4833778E-2,0E0,0E0,1.5151796E-2,5.4734834E-3,2.262355E-2,3.0716535E-2,4.0444992E-3,6.939846E-3,0E0,0E0,0E0,0E0,0E0,0E0,0E0,0E0],"parents":[2147483647,0,0,1,1,2,2,5,5,6,6,7,7,8,8,9,9,10,10],"right_children":[2,4,6,-1,-1,8,10,12,14,16,18,-1,-1,-1,-1,-1,-1,-1,-1],"split_conditions":[1.159E1,9.5933245E-4,3.28236E5,-0E0,1.863337E-3,1.42231E2,2.851E1,2.3103047E-2,3.7748672E-2,8.401157E-3,5.923E1,4.1449603E-6,-1.4195692E-4,2.370428E-5,3.4166838E-4,-0E0,-3.9247348E-4,-0E0,-1.710407E-4],"split_indices":[2,57,4,0,0,15,45,58,58,58,3,0,0,0,0,0,0,0,0],"split_type":[0,0,0,0,0,0,0,0,0,0,0,0,0,0,0,0,0,0,0],"sum_hessian":[1.1149E4,4.5E1,1.1104E4,2.1E1,2.4E1,1.0303E4,8.01E2,5.15E3,5.153E3,2.42E2,5.59E2,3.964E3,1.186E3,4.851E3,3.02E2,2.5E1,2.17E2,1.5E2,4.09E2],"tree_param":{"num_deleted":"0","num_feature":"176","num_nodes":"19","size_leaf_vector":"1"}},{"base_weights":[-0E0,3.1195078E-2,-1.1475375E-4,-0E0,1.8138547E-3,2.1315226E-4,-6.4308043E-3,-1.0070816E-3,1.3109304E-3,-7.508748E-3,-0E0,-0E0,-1.709961E-4,2.1567655E-5,3.0153594E-4,-0E0,-2.394736E-4,6.5061926E-5,-0E0],"categories":[],"categories_nodes":[],"categories_segments":[],"categories_sizes":[],"default_left":[0,0,0,0,0,0,0,0,0,0,0,0,0,0,0,0,0,0,0],"id":2,"left_children":[1,3,5,-1,-1,7,9,11,13,15,17,-1,-1,-1,-1,-1,-1,-1,-1],"loss_changes":[4.7342937E-2,4.96773E-2,2.6073178E-2,0E0,0E0,1.4175584E-2,6.1399844E-3,2.395868E-2,2.4227578E-2,3.1302758E-3,2.1400438E-4,0E0,0E0,0E0,0E0,0E0,0E0,0E0,0E0],"parents":[2147483647,0,0,1,1,2,2,5,5,6,6,7,7,8,8,9,9,10,10],"right_children":[2,4,6,-1,-1,8,10,12,14,16,18,-1,-1,-1,-1,-1,-1,-1,-1],"split_conditions":[1.159E1,9.5933245E-4,3.792878E5,-0E0,1.8138547E-3,1.2818E2,4.6444103E-2,2.4792306E-2,3.7748672E-2,-1.74354E-2,1.4458E2,-0E0,-1.709961E-4,2.1567655E-5,3.0153594E-4,-0E0,-2.394736E-4,6.5061926E-5,-0E0],"split_indices":[2,57,17,0,0,45,58,58,58,53,0,0,0,0,0,0,0,0,0],"split_type":[0,0,0,0,0,0,0,0,0,0,0,0,0,0,0,0,0,0,0],"sum_hessian":[1.113E4,4.6E1,1.1084E4,2.2E1,2.4E1,1.0464E4,6.2E2,4.74E3,5.724E3,5.63E2,5.7E1,3.857E3,8.83E2,5.417E3,3.07E2,1.6E1,5.47E2,4.3E1,1.4E1],"tree_param":{"num_deleted":"0","num_feature":"176","num_nodes":"19","size_leaf_vector":"1"}},{"base_weights":[2.0615047E-5,3.2185294E-2,-7.542469E-5,-0E0,1.7941032E-3,2.8037615E-4,-6.6871336E-3,9.2538184E-4,-2.052464E-3,-7.633507E-3,-0E0,7.4486593E-6,1.09465225E-4,-2.0974872E-4,2.4040315E-5,-9.7746546E-5,-3.6862254E-4,7.2608227E-6,-0E0],"categories":[],"categories_nodes":[],"categories_segments":[],"categories_sizes":[],"default_left":[0,0,0,0,0,0,0,0,0,0,0,0,0,0,0,0,0,0,0],"id":3,"left_children":[1,3,5,-1,-1,7,9,11,13,15,17,-1,-1,-1,-1,-1,-1,-1,-1],"loss_changes":[5.0298907E-2,4.8111588E-2,2.917325E-2,0E0,0E0,1.509681E-2,5.4661185E-3,1.3392469E-2,3.251922E-2,3.9677136E-3,2.5481115E-6,0E0,0E0,0E0,0E0,0E0,0E0,0E0,0E0],"parents":[2147483647,0,0,1,1,2,2,5,5,6,6,7,7,8,8,9,9,10,10],"right_children":[2,4,6,-1,-1,8,10,12,14,16,18,-1,-1,-1,-1,-1,-1,-1,-1],"split_conditions":[1.159E1,9.5933245E-4,3.792878E5,-0E0,1.7941032E-3,2.4792306E-2,4.6444103E-2,1.9305257E-2,2.9864851E-2,2.130417E-2,1.4545E2,7.4486593E-6,1.09465225E-4,-2.0974872E-4,2.4040315E-5,-9.7746546E-5,-3.6862254E-4,7.2608227E-6,-0E0],"split_indices":[2,57,17,0,0,58,58,58,58,58,1,0,0,0,0,0,0,0,0],"split_type":[0,0,0,0,0,0,0,0,0,0,0,0,0,0,0,0,0,0,0],"sum_hessian":[1.1081E4,4.6E1,1.1035E4,2.1E1,2.5E1,1.0402E4,6.33E2,8.318E3,2.084E3,5.79E2,5.4E1,6.811E3,1.507E3,8.26E2,1.258E3,3.56E2,2.23E2,4.1E1,1.3E1],"tree_param":{"num_deleted":"0","num_feature":"176","num_nodes":"19","size_leaf_vector":"1"}},{"base_weights":[8.836183E-5,2.8847396E-2,-0E0,-0E0,1.6734342E-3,3.2254608E-4,-6.7632957E-3,-8.1970915E-4,1.577606E-3,-7.895178E-3,-0E0,7.1771706E-6,-1.420594E-4,2.5773697E-5,3.2409816E-4,-0E0,-2.5787938E-4],"categories":[],"categories_nodes":[],"categories_segments":[],"categories_sizes":[],"default_left":[0,0,0,0,0,0,0,0,0,0,0,0,0,0,0,0,0],"id":4,"left_children":[1,3,5,-1,-1,7,9,11,13,15,-1,-1,-1,-1,-1,-1,-1],"loss_changes":[3.8608816E-2,4.064815E-2,2.6555125E-2,0E0,0E0,1.5534603E-2,5.7425722E-3,2.4336793E-2,2.8915297E-2,2.9764362E-3,0E0,0E0,0E0,0E0,0E0,0E0,0E0],"parents":[2147483647,0,0,1,1,2,2,5,5,6,6,7,7,8,8,9,9],"right_children":[2,4,6,-1,-1,8,10,12,14,16,-1,-1,-1,-1,-1,-1,-1],"split_conditions":[1.159E1,1.1299555E-2,4.312126E5,-0E0,1.6734342E-3,1.4144E2,4.6444103E-2,2.3103047E-2,3.7748672E-2,9.61097E-3,-0E0,7.1771706E-6,-1.420594E-4,2.5773697E-5,3.2409816E-4,-0E0,-2.5787938E-4],"split_indices":[2,58,17,0,0,46,58,58,58,58,0,0,0,0,0,0,0],"split_type":[0,0,0,0,0,0,0,0,0,0,0,0,0,0,0,0,0],"sum_hessian":[1.1165E4,4.4E1,1.1121E4,2.1E1,2.3E1,1.0567E4,5.54E2,5.324E3,5.243E3,4.98E2,5.6E1,4.092E3,1.232E3,4.917E3,3.26E2,3.8E1,4.6E2],"tree_param":{"num_deleted":"0","num_feature":"176","num_nodes":"17","size_leaf_vector":"1"}},{"base_weights":[-2.0669691E-5,2.6575191E-2,-1.7459742E-4,-0E0,1.5796659E-3,1.4776841E-4,-6.3259704E-3,-2.6203874E-5,5.2726697E-3,-7.1342927E-3,-0E0,2.0888921E-5,-1.1829722E-4,-7.534779E-5,3.009413E-4,-0E0,-2.502074E-4],"categories":[],"categories_nodes":[],"categories_segments":[],"categories_sizes":[],"default_left":[0,0,0,0,0,0,0,0,0,0,0,0,0,0,0,0,0],"id":5,"left_children":[1,3,5,-1,-1,7,9,11,13,15,-1,-1,-1,-1,-1,-1,-1],"loss_changes":[3.2467857E-2,3.5794865E-2,2.5121493E-2,0E0,0E0,1.1968786E-2,4.213283E-3,3.0059746E-2,2.0066248E-2,2.7268026E-3,0E0,0E0,0E0,0E0,0E0,0E0,0E0],"parents":[2147483647,0,0,1,1,2,2,5,5,6,6,7,7,8,8,9,9],"right_children":[2,4,6,-1,-1,8,10,12,14,16,-1,-1,-1,-1,-1,-1,-1],"split_conditions":[1.1594E1,2.637E-3,3.792878E5,-0E0,1.5796659E-3,3.8864773E-2,4.6444103E-2,2.4792306E-2,1.2541E2,1.1704872E-2,-0E0,2.0888921E-5,-1.1829722E-4,-7.534779E-5,3.009413E-4,-0E0,-2.502074E-4],"split_indices":[15,34,17,0,0,58,58,58,1,58,0,0,0,0,0,0,0],"split_type":[0,0,0,0,0,0,0,0,0,0,0,0,0,0,0,0,0],"sum_hessian":[1.115E4,4.3E1,1.1107E4,2.1E1,2.2E1,1.0479E4,6.28E2,1.0043E4,4.36E2,5.76E2,5.2E1,8.373E3,1.67E3,1.26E2,3.1E2,1.16E2,4.6E2],"tree_param":{"num_deleted":"0","num_feature":"176","num_nodes":"17","size_leaf_vector":"1"}},{"base_weights":[-0E0,2.834171E-2,-1.5838713E-4,-0E0,1.6015499E-3,-6.073726E-3,2.2783654E-4,-1.958646E-3,-1.1963966E-2,7.062958E-4,-1.7494075E-3,-0E0,-1.1687198E-4,-0E0,-3.870025E-4,-0E0,3.3427327E-4,-1.3423506E-4,6.6275375E-6],"categories":[],"categories_nodes":[],"categories_segments":[],"categories_sizes":[],"default_left":[0,0,0,0,0,0,0,0,0,0,0,0,0,0,0,0,0,0,0],"id":6,"left_children":[1,3,5,-1,-1,7,9,11,13,15,17,-1,-1,-1,-1,-1,-1,-1,-1],"loss_changes":[3.682594E-2,3.612594E-2,2.8239114E-2,0E0,0E0,1.1365248E-2,9.24788E-3,3.5701604E-3,3.5904087E-3,6.1987188E-2,1.1839682E-2,0E0,0E0,0E0,0E0,0E0,0E0,0E0,0E0],"parents":[2147483647,0,0,1,1,2,2,5,5,6,6,7,7,8,8,9,9,10,10],"right_children":[2,4,6,-1,-1,8,10,12,14,16,18,-1,-1,-1,-1,-1,-1,-1,-1],"split_conditions":[1.1594E1,1.7359441E-3,2.792E1,-0E0,1.6015499E-3,3.20556E5,3.175E2,1.9157E1,-3.0548321E-2,2.7725E2,4.5885E2,-0E0,-1.1687198E-4,-0E0,-3.870025E-4,-0E0,3.3427327E-4,-1.3423506E-4,6.6275375E-6],"split_indices":[15,59,46,0,0,17,45,15,59,46,45,0,0,0,0,0,0,0,0],"split_type":[0,0,0,0,0,0,0,0,0,0,0,0,0,0,0,0,0,0,0],"sum_hessian":[1.112E4,4.3E1,1.1077E4,2E1,2.3E1,7.56E2,1.0321E4,4.97E2,2.59E2,8.515E3,1.806E3,1.38E2,3.59E2,1.5E1,2.44E2,7.984E3,5.31E2,8.63E2,9.43E2],"tree_param":{"num_deleted":"0","num_feature":"176","num_nodes":"19","size_leaf_vector":"1"}},{"base_weights":[-3.1535787E-5,-3.154752E-4,1.136453E-2,-5.6308177E-3,5.3238917E-5,1.4511835E-3,4.594044E-3,-0E0,-7.5208885E-3,6.8668555E-4,-2.3691086E-3,6.223305E-3,-0E0,-0E0,1.6303806E-5,-0E0,-3.154869E-4,7.614372E-5,3.20052E-6,-1.2133622E-4,1.7430467E-4,-0E0,2.082588E-4],"categories":[],"categories_nodes":[],"categories_segments":[],"categories_sizes":[],"default_left":[0,0,0,0,0,0,0,0,0,0,0,0,0,0,0,0,0,0,0,0,0,0,0],"id":7,"left_children":[1,3,5,7,9,-1,11,13,15,17,19,21,-1,-1,-1,-1,-1,-1,-1,-1,-1,-1,-1],"loss_changes":[3.0455122E-2,2.4135154E-2,2.9964294E-2,1.1264844E-2,1.4659809E-2,0E0,3.2133907E-3,7.2360504E-6,1.425067E-2,7.451779E-3,2.5631133E-2,9.822464E-4,0E0,0E0,0E0,0E0,0E0,0E0,0E0,0E0,0E0,0E0,0E0],"parents":[2147483647,0,0,1,1,2,2,3,3,4,4,6,6,7,7,8,8,9,9,10,10,11,11],"right_children":[2,4,6,8,10,-1,12,14,16,18,20,22,-1,-1,-1,-1,-1,-1,-1,-1,-1,-1,-1],"split_conditions":[5.0157044E-2,2.8318E1,1.334E1,1.716E1,2.4792306E-2,1.4511835E-3,8.73234E5,1.7223917E-2,1.058756E5,1.1113763E-2,3.8864773E-2,2.342E1,-0E0,-0E0,1.6303806E-5,-0E0,-3.154869E-4,7.614372E-5,3.20052E-6,-1.2133622E-4,1.7430467E-4,-0E0,2.082588E-4],"split_indices":[58,14,1,33,58,0,4,58,17,58,58,1,0,0,0,0,0,0,0,0,0,0,0],"split_type":[0,0,0,0,0,0,0,0,0,0,0,0,0,0,0,0,0,0,0,0,0,0,0],"sum_hessian":[1.1114E4,1.0889E4,2.25E2,7.92E2,1.0097E4,2.1E1,2.04E2,1.5E2,6.42E2,8.169E3,1.928E3,1.93E2,1.1E1,1.28E2,2.2E1,1.86E2,4.56E2,1.741E3,6.428E3,1.652E3,2.76E2,1.8E1,1.75E2],"tree_param":{"num_deleted":"0","num_feature":"176","num_nodes":"23","size_leaf_vector":"1"}},{"base_weights":[-0E0,2.3036757E-2,-6.837407E-5,-0E0,1.4540652E-3,2.5126516E-4,-5.7662134E-3,-8.422206E-4,1.4567972E-3,-1.0440766E-2,-2.3871039E-3,-1.4849916E-5,-3.1041433E-4,8.2543396E-5,-2.4153152E-5,-0E0,-3.3933032E-4,-0E0,-1.9897078E-4],"categories":[],"categories_nodes":[],"categories_segments":[],"categories_sizes":[],"default_left":[0,0,0,0,0,0,0,0,0,0,0,0,0,0,0,0,0,0,0],"id":8,"left_children":[1,3,5,-1,-1,7,9,11,13,15,17,-1,-1,-1,-1,-1,-1,-1,-1],"loss_changes":[2.4198186E-2,3.1060373E-2,2.289778E-2,0E0,0E0,1.4004812E-2,4.114857E-3,1.1831812E-2,1.6087636E-2,2.4728626E-3,6.1857835E-3,0E0,0E0,0E0,0E0,0E0,0E0,0E0,0E0],"parents":[2147483647,0,0,1,1,2,2,5,5,6,6,7,7,8,8,9,9,10,10],"right_children":[2,4,6,-1,-1,8,10,12,14,16,18,-1,-1,-1,-1,-1,-1,-1,-1],"split_conditions":[1.33E1,1.7359441E-3,3.650784E5,-0E0,1.4540652E-3,1.4144E2,2.792E1,1.388E2,3.175E2,-3.0548321E-2,1.6643E2,-1.4849916E-5,-3.1041433E-4,8.2543396E-5,-2.4153152E-5,-0E0,-3.3933032E-4,-0E0,-1.9897078E-4],"split_indices":[3,59,17,0,0,46,46,45,45,59,3,0,0,0,0,0,0,0,0],"split_type":[0,0,0,0,0,0,0,0,0,0,0,0,0,0,0,0,0,0,0],"sum_hessian":[1.1097E4,4.3E1,1.1054E4,2.2E1,2.1E1,1.0386E4,6.68E2,5.229E3,5.157E3,2.16E2,4.52E2,5.098E3,1.31E2,3.42E3,1.737E3,1.3E1,2.03E2,2.55E2,1.97E2],"tree_param":{"num_deleted":"0","num_feature":"176","num_nodes":"19","size_leaf_vector":"1"}},{"base_weights":[-0E0,-2.0752546E-4,1.1143707E-2,4.402963E-4,-3.2083385E-3,1.4571039E-3,4.034675E-3,7.537947E-4,-6.4817746E-3,-6.416346E-3,-1.8630842E-4,5.765338E-3,-0E0,3.6398621E-6,9.906537E-5,-2.376245E-4,-0E0,2.120033E-5,-2.3388072E-4,2.2958247E-4,-4.1031682E-5,-0E0,1.9653491E-4],"categories":[],"categories_nodes":[],"categories_segments":[],"categories_sizes":[],"default_left":[0,0,0,0,0,0,0,0,0,0,0,0,0,0,0,0,0,0,0,0,0,0,0],"id":9,"left_children":[1,3,5,7,9,-1,11,13,15,17,19,21,-1,-1,-1,-1,-1,-1,-1,-1,-1,-1,-1],"loss_changes":[2.9217325E-2,2.256443E-2,3.4801878E-2,1.6297903E-2,1.677825E-2,0E0,2.4393771E-3,1.2009019E-2,5.24279E-3,1.2643956E-2,7.5293747E-3,1.2265029E-3,0E0,0E0,0E0,0E0,0E0,0E0,0E0,0E0,0E0,0E0,0E0],"parents":[2147483647,0,0,1,1,2,2,3,3,4,4,6,6,7,7,8,8,9,9,10,10,11,11],"right_children":[2,4,6,8,10,-1,12,14,16,18,20,22,-1,-1,-1,-1,-1,-1,-1,-1,-1,-1,-1],"split_conditions":[5.0157044E-2,2.4792306E-2,1.33E1,4.61692E5,3.005918E-2,1.4571039E-3,2.71952E5,1.9305257E-2,2.6283E2,1.24398E4,3.081682E-2,2.335E1,-0E0,3.6398621E-6,9.906537E-5,-2.376245E-4,-0E0,2.120033E-5,-2.3388072E-4,2.2958247E-4,-4.1031682E-5,-0E0,1.9653491E-4],"split_indices":[58,58,0,17,58,0,4,58,0,17,58,0,0,0,0,0,0,0,0,0,0,0,0],"split_type":[0,0,0,0,0,0,0,0,0,0,0,0,0,0,0,0,0,0,0,0,0,0,0],"sum_hessian":[1.112E4,1.0891E4,2.29E2,8.822E3,2.069E3,2.3E1,2.06E2,8.511E3,3.11E2,9.22E2,1.147E3,1.73E2,3.3E1,6.978E3,1.533E3,2.91E2,2E1,9.1E1,8.31E2,9.3E1,1.054E3,1.1E1,1.62E2],"tree_param":{"num_deleted":"0","num_feature":"176","num_nodes":"23","size_leaf_vector":"1"}},{"base_weights":[-0E0,2.4147864E-2,-1.1043546E-4,-0E0,1.4522023E-3,2.5127508E-4,-4.565574E-3,1.4407835E-3,-5.5689923E-4,-9.883155E-3,-1.9265629E-3,-0E0,6.420731E-5,6.8772283E-6,-8.762462E-5,-0E0,-3.524387E-4,1.581879E-5,-1.15040275E-4],"categories":[],"categories_nodes":[],"categories_segments":[],"categories_sizes":[],"default_left":[0,0,0,0,0,0,0,0,0,0,0,0,0,0,0,0,0,0,0],"id":10,"left_children":[1,3,5,-1,-1,7,9,11,13,15,17,-1,-1,-1,-1,-1,-1,-1,-1],"loss_changes":[2.7833553E-2,3.2053765E-2,2.0048147E-2,0E0,0E0,1.021635E-2,7.2036237E-3,5.3229267E-3,1.2134393E-2,5.0150678E-3,4.901195E-3,0E0,0E0,0E0,0E0,0E0,0E0,0E0,0E0],"parents":[2147483647,0,0,1,1,2,2,5,5,6,6,7,7,8,8,9,9,10,10],"right_children":[2,4,6,-1,-1,8,10,12,14,16,18,-1,-1,-1,-1,-1,-1,-1,-1],"split_conditions":[1.334E1,9.5933245E-4,4.005182E6,-0E0,1.4522023E-3,1.7027557E-4,2.851E1,-6.016E-3,2E1,1.679E1,5.93E1,-0E0,6.420731E-5,6.8772283E-6,-8.762462E-5,-0E0,-3.524387E-4,1.581879E-5,-1.15040275E-4],"split_indices":[1,57,47,0,0,55,45,34,40,1,1,0,0,0,0,0,0,0,0],"split_type":[0,0,0,0,0,0,0,0,0,0,0,0,0,0,0,0,0,0,0],"sum_hessian":[1.1143E4,4.5E1,1.1098E4,2.2E1,2.3E1,1.0163E4,9.35E2,4.361E3,5.802E3,2.45E2,6.9E2,1.224E3,3.137E3,4.197E3,1.605E3,3.6E1,2.09E2,1.88E2,5.02E2],"tree_param":{"num_deleted":"0","num_feature":"176","num_nodes":"19","size_leaf_vector":"1"}},{"base_weights":[-0E0,2.1107096E-2,-1.0045238E-4,-0E0,1.3288914E-3,-7.945836E-3,1.0819345E-4,-0E0,-1.8094972E-2,3.5569147E-4,-4.0048063E-3,-3.4573484E-6,-0E0,-5.6908146E-4,-0E0,-6.351228E-6,6.253871E-5,-2.4190567E-5,-3.006548E-4],"categories":[],"categories_nodes":[],"categories_segments":[],"categories_sizes":[],"default_left":[0,0,0,0,0,0,0,0,0,0,0,0,0,0,0,0,0,0,0],"id":11,"left_children":[1,3,5,-1,-1,7,9,11,13,15,17,-1,-1,-1,-1,-1,-1,-1,-1],"loss_changes":[2.0382624E-2,2.5840297E-2,2.2079993E-2,0E0,0E0,2.4919782E-2,9.118504E-3,2.4371366E-6,6.925501E-4,1.099619E-2,4.101686E-3,0E0,0E0,0E0,0E0,0E0,0E0,0E0,0E0],"parents":[2147483647,0,0,1,1,2,2,5,5,6,6,7,7,8,8,9,9,10,10],"right_children":[2,4,6,-1,-1,8,10,12,14,16,18,-1,-1,-1,-1,-1,-1,-1,-1],"split_conditions":[1.1594E1,9.5933245E-4,2.258E1,-0E0,1.3288914E-3,1.934E1,4.36904E5,1.3366361E-2,2.3674466E-2,2.4403E2,2.1977E2,-3.4573484E-6,-0E0,-5.6908146E-4,-0E0,-6.351228E-6,6.253871E-5,-2.4190567E-5,-3.006548E-4],"split_indices":[15,57,33,0,0,45,4,57,57,33,3,0,0,0,0,0,0,0,0],"split_type":[0,0,0,0,0,0,0,0,0,0,0,0,0,0,0,0,0,0,0],"sum_hessian":[1.1134E4,4.3E1,1.1091E4,2.2E1,2.1E1,3.47E2,1.0744E4,2.06E2,1.41E2,1.0251E4,4.93E2,1.81E2,2.5E1,1.3E2,1.1E1,7.502E3,2.749E3,3.78E2,1.15E2],"tree_param":{"num_deleted":"0","num_feature":"176","num_nodes":"19","size_leaf_vector":"1"}},{"base_weights":[-0E0,2.4881072E-2,-9.613246E-5,-0E0,1.3543251E-3,1.9765842E-4,-5.3973263E-3,2.6392958E-3,-3.0441885E-4,-6.285242E-3,-0E0,1.2473602E-4,8.894236E-6,-5.466122E-5,3.0342737E-5,-3.113758E-5,-2.7640202E-4,3.12186E-5,-0E0],"categories":[],"categories_nodes":[],"categories_segments":[],"categories_sizes":[],"default_left":[0,0,0,0,0,0,0,0,0,0,0,0,0,0,0,0,0,0,0],"id":12,"left_children":[1,3,5,-1,-1,7,9,11,13,15,17,-1,-1,-1,-1,-1,-1,-1,-1],"loss_changes":[2.7031709E-2,2.5039455E-2,1.9836381E-2,0E0,0E0,1.3915644E-2,4.900964E-3,4.684218E-3,1.7297147E-2,4.3536834E-3,4.7105717E-5,0E0,0E0,0E0,0E0,0E0,0E0,0E0,0E0],"parents":[2147483647,0,0,1,1,2,2,5,5,6,6,7,7,8,8,9,9,10,10],"right_children":[2,4,6,-1,-1,8,10,12,14,16,18,-1,-1,-1,-1,-1,-1,-1,-1],"split_conditions":[1.159E1,9.5933245E-4,3.650784E5,-0E0,1.3543251E-3,1.1299555E-2,4.6444103E-2,4.22846E4,1.4144E2,1.5239866E-2,1.4473E2,1.2473602E-4,8.894236E-6,-5.466122E-5,3.0342737E-5,-3.113758E-5,-2.7640202E-4,3.12186E-5,-0E0],"split_indices":[2,57,17,0,0,58,58,17,46,58,1,0,0,0,0,0,0,0,0],"split_type":[0,0,0,0,0,0,0,0,0,0,0,0,0,0,0,0,0,0,0],"sum_hessian":[1.1104E4,4.1E1,1.1063E4,1.8E1,2.3E1,1.0395E4,6.68E2,1.941E3,8.454E3,6.16E2,5.2E1,1.047E3,8.94E2,4.102E3,4.352E3,2.83E2,3.33E2,4.1E1,1.1E1],"tree_param":{"num_deleted":"0","num_feature":"176","num_nodes":"19","size_leaf_vector":"1"}},{"base_weights":[-0E0,-1.9776667E-4,1.0356153E-2,1.1696462E-4,-5.7388144E-3,1.2298349E-3,4.3518576E-3,2.1982307E-3,-3.1776857E-4,-6.4512296E-3,-0E0,6.15569E-3,-0E0,1.1552402E-4,-0E0,-5.45744E-5,2.3786975E-5,-7.422109E-5,-3.1578407E-4,-0E0,2.1099526E-4],"categories":[],"categories_nodes":[],"categories_segments":[],"categories_sizes":[],"default_left":[0,0,0,0,0,0,0,0,0,0,0,0,0,0,0,0,0,0,0,0,0],"id":13,"left_children":[1,3,5,7,9,-1,11,13,15,17,-1,19,-1,-1,-1,-1,-1,-1,-1,-1,-1],"loss_changes":[2.4932357E-2,2.1796273E-2,1.8916056E-2,1.0186724E-2,4.574321E-3,0E0,3.4782155E-3,5.7435604E-3,1.42830415E-2,3.8151946E-3,0E0,1.1742851E-3,0E0,0E0,0E0,0E0,0E0,0E0,0E0,0E0,0E0],"parents":[2147483647,0,0,1,1,2,2,3,3,4,4,6,6,7,7,8,8,9,9,11,11],"right_children":[2,4,6,8,10,-1,12,14,16,18,-1,20,-1,-1,-1,-1,-1,-1,-1,-1,-1],"split_conditions":[5.0157044E-2,1.2844661E1,1.159E1,1.1299555E-2,4.6444103E-2,1.2298349E-3,1.1889144E6,3.95122E4,1.2818E2,2.0028431E-2,-0E0,2.332E1,-0E0,1.1552402E-4,-0E0,-5.45744E-5,2.3786975E-5,-7.422109E-5,-3.1578407E-4,-0E0,2.1099526E-4],"split_indices":[58,60,2,58,58,0,17,17,45,58,0,2,0,0,0,0,0,0,0,0,0],"split_type":[0,0,0,0,0,0,0,0,0,0,0,0,0,0,0,0,0,0,0,0,0],"sum_hessian":[1.1109E4,1.0883E4,2.26E2,1.0215E4,6.68E2,2.1E1,2.05E2,1.962E3,8.253E3,6.38E2,3E1,1.93E2,1.2E1,1.025E3,9.37E2,3.7E3,4.553E3,3.87E2,2.51E2,2.2E1,1.71E2],"tree_param":{"num_deleted":"0","num_feature":"176","num_nodes":"21","size_leaf_vector":"1"}},{"base_weights":[9.140324E-6,2.371585E-2,-3.9092887E-5,-0E0,1.2871069E-3,-5.0018104E-3,2.796282E-4,-1.3078573E-3,-9.6950615E-3,-0E0,6.4962786E-3,-0E0,-9.238251E-5,-0E0,-3.3165846E-4,2.0114903E-5,-1.0556608E-4,8.0927333E-4,1.00127196E-4],"categories":[],"categories_nodes":[],"categories_segments":[],"categories_sizes":[],"default_left":[0,0,0,0,0,0,0,0,0,0,0,0,0,0,0,0,0,0,0],"id":14,"left_children":[1,3,5,-1,-1,7,9,11,13,15,17,-1,-1,-1,-1,-1,-1,-1,-1],"loss_changes":[2.4482116E-2,2.2472044E-2,1.9786472E-2,0E0,0E0,7.634025E-3,1.9096017E-2,2.537274E-3,4.2034183E-3,2.3655396E-2,1.5118966E-2,0E0,0E0,0E0,0E0,0E0,0E0,0E0,0E0],"parents":[2147483647,0,0,1,1,2,2,5,5,6,6,7,7,8,8,9,9,10,10],"right_children":[2,4,6,-1,-1,8,10,12,14,16,18,-1,-1,-1,-1,-1,-1,-1,-1],"split_conditions":[1.159E1,1.1299555E-2,2.792E1,-0E0,1.2871069E-3,3.107498E5,3.8864773E-2,1.934E1,8.401157E-3,2.4792306E-2,3.9517634E-2,-0E0,-9.238251E-5,-0E0,-3.3165846E-4,2.0114903E-5,-1.0556608E-4,8.0927333E-4,1.00127196E-4],"split_indices":[2,58,46,0,0,17,58,45,58,58,58,0,0,0,0,0,0,0,0],"split_type":[0,0,0,0,0,0,0,0,0,0,0,0,0,0,0,0,0,0,0],"sum_hessian":[1.1053E4,4.1E1,1.1012E4,1.8E1,2.3E1,7.57E2,1.0255E4,4.85E2,2.72E2,9.786E3,4.69E2,1.32E2,3.53E2,2.9E1,2.43E2,8.175E3,1.611E3,3.9E1,4.3E2],"tree_param":{"num_deleted":"0","num_feature":"176","num_nodes":"19","size_leaf_vector":"1"}},{"base_weights":[-0E0,-1.7803264E-4,8.689265E-3,5.343437E-4,-2.7001868E-3,1.0477157E-3,3.6558572E-3,-0E0,4.048042E-3,-4.605396E-3,-1.497308E-5,5.517103E-3,-0E0,5.9407408E-5,-2.4251814E-5,-0E0,3.269042E-4,-0E0,-1.6554512E-4,2.4481333E-4,-3.5684607E-5,-0E0,1.8999817E-4],"categories":[],"categories_nodes":[],"categories_segments":[],"categories_sizes":[],"default_left":[0,0,0,0,0,0,0,0,0,0,0,0,0,0,0,0,0,0,0,0,0,0,0],"id":15,"left_children":[1,3,5,7,9,-1,11,13,15,17,19,21,-1,-1,-1,-1,-1,-1,-1,-1,-1,-1,-1],"loss_changes":[1.759639E-2,2.0580074E-2,1.0564236E-2,1.613673E-2,1.0707039E-2,0E0,3.1981946E-3,1.1342593E-2,3.5458807E-2,8.332031E-3,7.7492883E-3,1.0277755E-3,0E0,0E0,0E0,0E0,0E0,0E0,0E0,0E0,0E0,0E0,0E0],"parents":[2147483647,0,0,1,1,2,2,3,3,4,4,6,6,7,7,8,8,9,9,10,10,11,11],"right_children":[2,4,6,8,10,-1,12,14,16,18,20,22,-1,-1,-1,-1,-1,-1,-1,-1,-1,-1,-1],"split_conditions":[5.0157044E-2,2.3103047E-2,1.334E1,1.9305257E-2,3.005918E-2,1.0477157E-3,1.367996E1,1.1240931E-2,6.5176E4,1.24398E4,3.081682E-2,2.342E1,-0E0,5.9407408E-5,-2.4251814E-5,-0E0,3.269042E-4,-0E0,-1.6554512E-4,2.4481333E-4,-3.5684607E-5,-0E0,1.8999817E-4],"split_indices":[58,58,1,58,58,0,60,58,17,17,58,1,0,0,0,0,0,0,0,0,0,0,0],"split_type":[0,0,0,0,0,0,0,0,0,0,0,0,0,0,0,0,0,0,0,0,0,0,0],"sum_hessian":[1.1073E4,1.0847E4,2.26E2,8.305E3,2.542E3,1.8E1,2.08E2,7.178E3,1.127E3,1.377E3,1.165E3,1.95E2,1.3E1,2.032E3,5.146E3,6.75E2,4.52E2,1.45E2,1.232E3,9.1E1,1.074E3,2.2E1,1.73E2],"tree_param":{"num_deleted":"0","num_feature":"176","num_nodes":"23","size_leaf_vector":"1"}},{"base_weights":[1.0699945E-4,3.5699958E-4,-5.380187E-3,2.4182618E-2,2.4246039E-4,-6.8162475E-3,-0E0,-0E0,1.083339E-3,-8.044729E-4,1.4218149E-3,-0E0,-7.683368E-3,1.4292842E-4,-9.583352E-5,-1.3822201E-5,-3.2252754E-4,8.1881284E-5,-2.6484713E-5,-2.5906682E-4,-0E0],"categories":[],"categories_nodes":[],"categories_segments":[],"categories_sizes":[],"default_left":[0,0,0,0,0,0,0,0,0,0,0,0,0,0,0,0,0,0,0,0,0],"id":16,"left_children":[1,3,5,7,9,11,13,-1,-1,15,17,-1,19,-1,-1,-1,-1,-1,-1,-1,-1],"loss_changes":[1.2777088E-2,1.709692E-2,2.751682E-3,1.0200189E-2,1.3544488E-2,2.6854863E-3,1.3856839E-3,0E0,0E0,1.3030286E-2,1.6796654E-2,0E0,2.6030727E-3,0E0,0E0,0E0,0E0,0E0,0E0,0E0,0E0],"parents":[2147483647,0,0,1,1,2,2,3,3,4,4,5,5,6,6,9,9,10,10,12,12],"right_children":[2,4,6,8,10,12,14,-1,-1,16,18,-1,20,-1,-1,-1,-1,-1,-1,-1,-1],"split_conditions":[7.947638E6,1.159E1,2.0176E7,9.5933245E-4,1.4144E2,-2.2755243E-2,1.4917E2,-0E0,1.083339E-3,1.388E2,3.175E2,-0E0,4.9856794E-1,1.4292842E-4,-9.583352E-5,-1.3822201E-5,-3.2252754E-4,8.1881284E-5,-2.6484713E-5,-2.5906682E-4,-0E0],"split_indices":[47,2,47,57,46,57,0,0,0,45,45,0,63,0,0,0,0,0,0,0,0],"split_type":[0,0,0,0,0,0,0,0,0,0,0,0,0,0,0,0,0,0,0,0,0],"sum_hessian":[1.1139E4,1.0743E4,3.96E2,2.8E1,1.0715E4,3.05E2,9.1E1,9E0,1.9E1,5.452E3,5.263E3,2E1,2.85E2,3E1,6.1E1,5.321E3,1.31E2,3.496E3,1.767E3,2.6E2,2.5E1],"tree_param":{"num_deleted":"0","num_feature":"176","num_nodes":"21","size_leaf_vector":"1"}},{"base_weights":[-0E0,-2.1298713E-4,8.73179E-3,3.4151477E-4,-2.761318E-3,1.012359E-3,3.5502743E-3,6.2981935E-4,-5.321194E-3,-5.6115054E-3,-0E0,5.2487263E-3,-0E0,9.468404E-7,9.0101996E-5,-1.9557177E-4,-0E0,3.4882425E-5,-2.1108601E-4,2.483953E-4,-3.406363E-5,1.9825163E-4,-0E0],"categories":[],"categories_nodes":[],"categories_segments":[],"categories_sizes":[],"default_left":[0,0,0,0,0,0,0,0,0,0,0,0,0,0,0,0,0,0,0,0,0,0,0],"id":17,"left_children":[1,3,5,7,9,-1,11,13,15,17,19,21,-1,-1,-1,-1,-1,-1,-1,-1,-1,-1,-1],"loss_changes":[1.7535329E-2,1.6623737E-2,1.0020068E-2,1.2026989E-2,1.3869468E-2,0E0,2.7255972E-3,1.0493467E-2,3.8377317E-3,1.2140339E-2,7.453785E-3,1.4002603E-3,0E0,0E0,0E0,0E0,0E0,0E0,0E0,0E0,0E0,0E0,0E0],"parents":[2147483647,0,0,1,1,2,2,3,3,4,4,6,6,7,7,8,8,9,9,10,10,11,11],"right_children":[2,4,6,8,10,-1,12,14,16,18,20,22,-1,-1,-1,-1,-1,-1,-1,-1,-1,-1,-1],"split_conditions":[5.0157044E-2,2.4792306E-2,1.33E1,4.312126E5,3.005918E-2,1.012359E-3,8.73234E5,1.9305257E-2,2.6283E2,1.24398E4,3.081682E-2,3.17535E-3,-0E0,9.468404E-7,9.0101996E-5,-1.9557177E-4,-0E0,3.4882425E-5,-2.1108601E-4,2.483953E-4,-3.406363E-5,1.9825163E-4,-0E0],"split_indices":[58,58,0,17,58,0,4,58,0,17,58,54,0,0,0,0,0,0,0,0,0,0,0],"split_type":[0,0,0,0,0,0,0,0,0,0,0,0,0,0,0,0,0,0,0,0,0,0,0],"sum_hessian":[1.1125E4,1.0904E4,2.21E2,8.796E3,2.108E3,1.9E1,2.02E2,8.456E3,3.4E2,9.49E2,1.159E3,1.9E2,1.2E1,6.924E3,1.532E3,3.16E2,2.4E1,1.04E2,8.45E2,8.6E1,1.073E3,1.51E2,3.9E1],"tree_param":{"num_deleted":"0","num_feature":"176","num_nodes":"23","size_leaf_vector":"1"}},{"base_weights":[-0E0,-2.3307675E-4,9.12199E-3,8.0652E-5,-4.3590358E-3,1.0782017E-3,3.644415E-3,2.10638E-3,-3.218351E-4,-8.955947E-3,-1.6321515E-3,5.088761E-3,-0E0,1.16339725E-4,-0E0,-4.8284914E-5,1.7004995E-5,-0E0,-3.4444485E-4,2.679321E-5,-1.12006375E-4,1.8633921E-4,-0E0],"categories":[],"categories_nodes":[],"categories_segments":[],"categories_sizes":[],"default_left":[0,0,0,0,0,0,0,0,0,0,0,0,0,0,0,0,0,0,0,0,0,0,0],"id":18,"left_children":[1,3,5,7,9,-1,11,13,15,17,19,21,-1,-1,-1,-1,-1,-1,-1,-1,-1,-1,-1],"loss_changes":[1.985664E-2,1.6278505E-2,1.3887193E-2,9.080281E-3,5.7568327E-3,0E0,2.3962345E-3,7.5442875E-3,9.875441E-3,6.06372E-3,4.7531184E-3,1.0386794E-3,0E0,0E0,0E0,0E0,0E0,0E0,0E0,0E0,0E0,0E0,0E0],"parents":[2147483647,0,0,1,1,2,2,3,3,4,4,6,6,7,7,8,8,9,9,10,10,11,11],"right_children":[2,4,6,8,10,-1,12,14,16,18,20,22,-1,-1,-1,-1,-1,-1,-1,-1,-1,-1,-1],"split_conditions":[5.0157044E-2,4.005182E6,1.33E1,1.1113763E-2,2.851E1,1.0782017E-3,1.1889144E6,3.9031E4,1.2818E2,1.677E1,5.374E1,3.17535E-3,-0E0,1.16339725E-4,-0E0,-4.8284914E-5,1.7004995E-5,-0E0,-3.4444485E-4,2.679321E-5,-1.12006375E-4,1.8633921E-4,-0E0],"split_indices":[58,47,0,58,45,0,17,4,45,0,0,54,0,0,0,0,0,0,0,0,0,0,0],"split_type":[0,0,0,0,0,0,0,0,0,0,0,0,0,0,0,0,0,0,0,0,0,0,0],"sum_hessian":[1.1149E4,1.092E4,2.29E2,1.0038E4,8.82E2,2.1E1,2.08E2,1.868E3,8.17E3,2.58E2,6.24E2,1.98E2,1E1,1.051E3,8.17E2,3.565E3,4.605E3,5.6E1,2.02E2,1.76E2,4.48E2,1.59E2,3.9E1],"tree_param":{"num_deleted":"0","num_feature":"176","num_nodes":"23","size_leaf_vector":"1"}},{"base_weights":[-0E0,-2.3857832E-4,7.5257756E-3,6.713995E-5,-5.76675E-3,9.356418E-4,3.701428E-3,6.4468494E-4,-2.262045E-3,-0E0,-6.891815E-3,5.5086114E-3,-0E0,9.0675394E-7,9.2494134E-5,-1.5641576E-4,-0E0,-2.2523722E-4,-0E0,1.8919838E-4,-0E0],"categories":[],"categories_nodes":[],"categories_segments":[],"categories_sizes":[],"default_left":[0,0,0,0,0,0,0,0,0,0,0,0,0,0,0,0,0,0,0,0,0],"id":19,"left_children":[1,3,5,7,9,-1,11,13,15,-1,17,19,-1,-1,-1,-1,-1,-1,-1,-1,-1],"loss_changes":[1.6504541E-2,2.1193873E-2,7.6498855E-3,1.2918116E-2,2.9090885E-3,0E0,2.5787672E-3,1.0951905E-2,1.3163821E-2,0E0,1.9594505E-3,1.2823394E-3,0E0,0E0,0E0,0E0,0E0,0E0,0E0,0E0,0E0],"parents":[2147483647,0,0,1,1,2,2,3,3,4,4,6,6,7,7,8,8,10,10,11,11],"right_children":[2,4,6,8,10,-1,12,14,16,-1,18,20,-1,-1,-1,-1,-1,-1,-1,-1,-1],"split_conditions":[4.8442766E-2,1.2844661E1,1.159E1,2.4792306E-2,1.1704872E-2,9.356418E-4,2.9530497E-2,1.9305257E-2,2.9864851E-2,-0E0,2.0176E7,1.41815E1,-0E0,9.0675394E-7,9.2494134E-5,-1.5641576E-4,-0E0,-2.2523722E-4,-0E0,1.8919838E-4,-0E0],"split_indices":[58,60,2,58,58,0,57,58,58,0,47,60,0,0,0,0,0,0,0,0,0],"split_type":[0,0,0,0,0,0,0,0,0,0,0,0,0,0,0,0,0,0,0,0,0],"sum_hessian":[1.1129E4,1.0851E4,2.78E2,1.0199E4,6.52E2,1.8E1,2.6E2,8.346E3,1.853E3,1.35E2,5.17E2,2.01E2,5.9E1,6.832E3,1.514E3,8.31E2,1.022E3,4.7E2,4.7E1,1.85E2,1.6E1],"tree_param":{"num_deleted":"0","num_feature":"176","num_nodes":"21","size_leaf_vector":"1"}},{"base_weights":[4.172283E-5,2.1583468E-2,-0E0,-0E0,1.1550479E-3,-4.3162946E-3,2.762781E-4,-6.944877E-4,-9.051076E-3,-0E0,5.959187E-3,-0E0,-6.754438E-5,-0E0,-3.4095536E-4,2.0360938E-5,-9.952519E-5,7.297197E-4,9.302523E-5],"categories":[],"categories_nodes":[],"categories_segments":[],"categories_sizes":[],"default_left":[0,0,0,0,0,0,0,0,0,0,0,0,0,0,0,0,0,0,0],"id":20,"left_children":[1,3,5,-1,-1,7,9,11,13,15,17,-1,-1,-1,-1,-1,-1,-1,-1],"loss_changes":[2.071073E-2,1.8552737E-2,1.5255714E-2,0E0,0E0,8.427286E-3,1.567056E-2,1.5647929E-3,4.53829E-3,2.1998558E-2,1.0429513E-2,0E0,0E0,0E0,0E0,0E0,0E0,0E0,0E0],"parents":[2147483647,0,0,1,1,2,2,5,5,6,6,7,7,8,8,9,9,10,10],"right_children":[2,4,6,-1,-1,8,10,12,14,16,18,-1,-1,-1,-1,-1,-1,-1,-1],"split_conditions":[1.159E1,9.5933245E-4,2.792E1,-0E0,1.1550479E-3,3.107498E5,3.8864773E-2,1.9157E1,1.1704872E-2,2.4792306E-2,3.9517634E-2,-0E0,-6.754438E-5,-0E0,-3.4095536E-4,2.0360938E-5,-9.952519E-5,7.297197E-4,9.302523E-5],"split_indices":[2,57,46,0,0,17,58,15,58,58,58,0,0,0,0,0,0,0,0],"split_type":[0,0,0,0,0,0,0,0,0,0,0,0,0,0,0,0,0,0,0],"sum_hessian":[1.1153E4,4.2E1,1.1111E4,1.8E1,2.4E1,7.74E2,1.0337E4,5E2,2.74E2,9.876E3,4.61E2,1.46E2,3.54E2,6.6E1,2.08E2,8.224E3,1.652E3,3.6E1,4.25E2],"tree_param":{"num_deleted":"0","num_feature":"176","num_nodes":"19","size_leaf_vector":"1"}},{"base_weights":[4.2616026E-5,-9.9721154E-5,8.705948E-3,4.1109545E-4,-2.4849568E-3,1.0289269E-3,3.350425E-3,6.735284E-4,-4.5176498E-3,-5.232627E-3,-0E0,6.239747E-3,-0E0,2.8607908E-6,9.073109E-5,-1.6644501E-4,-0E0,2.1367288E-5,-1.9575731E-4,2.3926765E-4,-2.7895125E-5,2.2188037E-4,-0E0],"categories":[],"categories_nodes":[],"categories_segments":[],"categories_sizes":[],"default_left":[0,0,0,0,0,0,0,0,0,0,0,0,0,0,0,0,0,0,0,0,0,0,0],"id":21,"left_children":[1,3,5,7,9,-1,11,13,15,17,19,21,-1,-1,-1,-1,-1,-1,-1,-1,-1,-1,-1],"loss_changes":[1.8013198E-2,1.4298918E-2,1.3302583E-2,9.45834E-3,1.2884802E-2,0E0,3.179255E-3,9.919752E-3,2.9377812E-3,1.0160709E-2,6.6770716E-3,9.496766E-4,0E0,0E0,0E0,0E0,0E0,0E0,0E0,0E0,0E0,0E0,0E0],"parents":[2147483647,0,0,1,1,2,2,3,3,4,4,6,6,7,7,8,8,9,9,10,10,11,11],"right_children":[2,4,6,8,10,-1,12,14,16,18,20,22,-1,-1,-1,-1,-1,-1,-1,-1,-1,-1,-1],"split_conditions":[5.0157044E-2,2.4792306E-2,1.33E1,4.312126E5,3.005918E-2,1.0289269E-3,1.547048E5,1.9305257E-2,2.6283E2,1.24398E4,3.081682E-2,7.298E-3,-0E0,2.8607908E-6,9.073109E-5,-1.6644501E-4,-0E0,2.1367288E-5,-1.9575731E-4,2.3926765E-4,-2.7895125E-5,2.2188037E-4,-0E0],"split_indices":[58,58,0,17,58,0,17,58,0,17,58,12,0,0,0,0,0,0,0,0,0,0,0],"split_type":[0,0,0,0,0,0,0,0,0,0,0,0,0,0,0,0,0,0,0,0,0,0,0],"sum_hessian":[1.1114E4,1.088E4,2.34E2,8.79E3,2.09E3,2.2E1,2.12E2,8.444E3,3.46E2,9.4E2,1.15E3,1.41E2,7.1E1,6.95E3,1.494E3,3.24E2,2.2E1,9.9E1,8.41E2,8.8E1,1.062E3,1.17E2,2.4E1],"tree_param":{"num_deleted":"0","num_feature":"176","num_nodes":"23","size_leaf_vector":"1"}},{"base_weights":[-0E0,-2.5828127E-4,5.7998705E-3,2.368474E-4,-2.9529412E-3,8.826977E-3,-0E0,-3.2668528E-3,5.2459544E-4,-0E0,-4.4551017E-3,1.5475856E-3,1.4514667E-2,-0E0,-1.1022225E-3,-2.9608925E-4,-0E0,2.498981E-4,8.735219E-6,-3.0526586E-5,2.7451175E-4,5.561136E-5,-1.6429974E-4,-0E0,1.5988461E-4,-0E0,4.9320626E-4,2.721729E-5,-0E0,-0E0,-4.0237923E-5],"categories":[],"categories_nodes":[],"categories_segments":[],"categories_sizes":[],"default_left":[0,0,0,0,0,0,0,0,0,0,0,0,0,0,0,0,0,0,0,0,0,0,0,0,0,0,0,0,0,0,0],"id":22,"left_children":[1,3,5,7,9,11,13,15,17,19,21,23,25,27,29,-1,-1,-1,-1,-1,-1,-1,-1,-1,-1,-1,-1,-1,-1,-1,-1],"loss_changes":[1.8689131E-2,1.5547047E-2,1.1355411E-2,7.5338976E-3,7.431157E-3,7.5009204E-3,7.228622E-5,8.815722E-3,1.0791767E-2,4.925561E-3,9.367617E-3,3.8369526E-3,7.038478E-3,7.202037E-5,2.3959721E-5,0E0,0E0,0E0,0E0,0E0,0E0,0E0,0E0,0E0,0E0,0E0,0E0,0E0,0E0,0E0,0E0],"parents":[2147483647,0,0,1,1,2,2,3,3,4,4,5,5,6,6,7,7,8,8,9,9,10,10,11,11,12,12,13,13,14,14],"right_children":[2,4,6,8,10,12,14,16,18,20,22,24,26,28,30,-1,-1,-1,-1,-1,-1,-1,-1,-1,-1,-1,-1,-1,-1,-1,-1],"split_conditions":[3.8864773E-2,2.4792306E-2,5.072934E-3,-9.201811E-3,-8.1267784E-4,-7.599783E-3,2E1,7.346E1,-8.33703E-3,-9.225093E-4,1.78246E5,4.8442766E-2,1.1925E4,3.210292E-2,-2.7425813E-2,-2.9608925E-4,-0E0,2.498981E-4,8.735219E-6,-3.0526586E-5,2.7451175E-4,5.561136E-5,-1.6429974E-4,-0E0,1.5988461E-4,-0E0,4.9320626E-4,2.721729E-5,-0E0,-0E0,-4.0237923E-5],"split_indices":[58,58,52,59,59,59,39,0,57,57,47,58,4,56,59,0,0,0,0,0,0,0,0,0,0,0,0,0,0,0,0],"split_type":[0,0,0,0,0,0,0,0,0,0,0,0,0,0,0,0,0,0,0,0,0,0,0,0,0,0,0,0,0,0,0],"sum_hessian":[1.1163E4,1.0631E4,5.32E2,8.826E3,1.805E3,3.74E2,1.58E2,5.36E2,8.29E3,6.39E2,1.166E3,2.04E2,1.7E2,1.01E2,5.7E1,1.47E2,3.89E2,1.76E2,8.114E3,5.9E2,4.9E1,9.4E1,1.072E3,5.4E1,1.5E2,1.2E1,1.58E2,8.5E1,1.6E1,6E0,5.1E1],"tree_param":{"num_deleted":"0","num_feature":"176","num_nodes":"31","size_leaf_vector":"1"}},{"base_weights":[-0E0,-1.847009E-4,7.69403E-3,3.1190013E-4,-2.4727718E-3,8.390395E-4,3.3153363E-3,5.9470895E-4,-5.4255594E-3,-5.1208865E-3,-0E0,4.517323E-3,-0E0,5.0803294E-7,8.2983264E-5,-1.9656928E-4,-0E0,3.0557487E-5,-1.9397019E-4,2.1740733E-4,-2.8593511E-5,1.673495E-4,-0E0],"categories":[],"categories_nodes":[],"categories_segments":[],"categories_sizes":[],"default_left":[0,0,0,0,0,0,0,0,0,0,0,0,0,0,0,0,0,0,0,0,0,0,0],"id":23,"left_children":[1,3,5,7,9,-1,11,13,15,17,19,21,-1,-1,-1,-1,-1,-1,-1,-1,-1,-1,-1],"loss_changes":[1.4077895E-2,1.3523825E-2,4.6775825E-3,1.19031975E-2,1.193848E-2,0E0,1.8263941E-3,9.260369E-3,3.572356E-3,1.0604115E-2,5.6955237E-3,8.8354293E-4,0E0,0E0,0E0,0E0,0E0,0E0,0E0,0E0,0E0,0E0,0E0],"parents":[2147483647,0,0,1,1,2,2,3,3,4,4,6,6,7,7,8,8,9,9,10,10,11,11],"right_children":[2,4,6,8,10,-1,12,14,16,18,20,22,-1,-1,-1,-1,-1,-1,-1,-1,-1,-1,-1],"split_conditions":[5.0157044E-2,2.4792306E-2,1.33E1,4.61692E5,3.005918E-2,8.390395E-4,1.1889144E6,1.913934E-2,2.6283E2,1.24398E4,3.081682E-2,3.17535E-3,-0E0,5.0803294E-7,8.2983264E-5,-1.9656928E-4,-0E0,3.0557487E-5,-1.9397019E-4,2.1740733E-4,-2.8593511E-5,1.673495E-4,-0E0],"split_indices":[58,58,0,17,58,0,17,58,0,17,58,54,0,0,0,0,0,0,0,0,0,0,0],"split_type":[0,0,0,0,0,0,0,0,0,0,0,0,0,0,0,0,0,0,0,0,0,0,0],"sum_hessian":[1.1176E4,1.0947E4,2.29E2,8.817E3,2.13E3,1.8E1,2.11E2,8.488E3,3.29E2,9.5E2,1.18E3,2.02E2,9E0,6.888E3,1.6E3,3.08E2,2.1E1,1.04E2,8.46E2,8.7E1,1.093E3,1.6E2,4.2E1],"tree_param":{"num_deleted":"0","num_feature":"176","num_nodes":"23","size_leaf_vector":"1"}},{"base_weights":[6.12509E-5,-6.0947357E-5,6.7460374E-3,2.8539228E-4,-3.7496632E-3,-0E0,8.63201E-3,2.260319E-3,-1.1008813E-4,-3.7289588E-4,-6.9458033E-3,9.935953E-3,-0E0,1.1311878E-4,-0E0,2.4956456E-5,-3.37004E-5,-8.971561E-5,1.7918235E-4,-0E0,-2.3760158E-4,3.4208968E-4,-0E0],"categories":[],"categories_nodes":[],"categories_segments":[],"categories_sizes":[],"default_left":[0,0,0,0,0,0,0,0,0,0,0,0,0,0,0,0,0,0,0,0,0,0,0],"id":24,"left_children":[1,3,5,7,9,-1,11,13,15,17,19,21,-1,-1,-1,-1,-1,-1,-1,-1,-1,-1,-1],"loss_changes":[1.2399795E-2,1.5553415E-2,3.9540883E-3,8.703811E-3,7.693408E-3,0E0,3.4386981E-3,4.8357556E-3,7.715497E-3,8.3620455E-3,4.4064745E-3,1.4656167E-3,0E0,0E0,0E0,0E0,0E0,0E0,0E0,0E0,0E0,0E0,0E0],"parents":[2147483647,0,0,1,1,2,2,3,3,4,4,6,6,7,7,8,8,9,9,10,10,11,11],"right_children":[2,4,6,8,10,-1,12,14,16,18,20,22,-1,-1,-1,-1,-1,-1,-1,-1,-1,-1,-1],"split_conditions":[4.8442766E-2,3.450532E6,2.1914E4,1.1113763E-2,2.1864666E-2,-0E0,1.44194E6,4.22846E4,7.18E-4,1.8E2,-1.7218368E-2,3.8707806E-3,-0E0,1.1311878E-4,-0E0,2.4956456E-5,-3.37004E-5,-8.971561E-5,1.7918235E-4,-0E0,-2.3760158E-4,3.4208968E-4,-0E0],"split_indices":[58,47,4,58,58,0,4,17,12,0,59,54,0,0,0,0,0,0,0,0,0,0,0],"split_type":[0,0,0,0,0,0,0,0,0,0,0,0,0,0,0,0,0,0,0,0,0,0,0],"sum_hessian":[1.1084E4,1.0814E4,2.7E2,9.764E3,1.05E3,5.3E1,2.17E2,1.838E3,7.926E3,5.88E2,4.62E2,1.98E2,1.9E1,9.99E2,8.39E2,3.852E3,4.074E3,4.73E2,1.15E2,3.7E1,4.25E2,1.61E2,3.7E1],"tree_param":{"num_deleted":"0","num_feature":"176","num_nodes":"23","size_leaf_vector":"1"}},{"base_weights":[-0E0,1.6932277E-2,-5.7865822E-5,-0E0,1.0084108E-3,-4.147667E-3,2.2175733E-4,-0E0,-5.4504154E-3,8.423411E-3,3.9128154E-5,-3.5064077E-4,-4.742511E-5,3.2577134E-4,-0E0,-3.655938E-6,1.348237E-4],"categories":[],"categories_nodes":[],"categories_segments":[],"categories_sizes":[],"default_left":[0,0,0,0,0,0,0,0,0,0,0,0,0,0,0,0,0],"id":25,"left_children":[1,3,5,-1,-1,7,9,-1,11,13,15,-1,-1,-1,-1,-1,-1],"loss_changes":[1.3081827E-2,1.4637132E-2,1.4562615E-2,0E0,0E0,6.4147282E-3,1.1043845E-2,0E0,9.985922E-3,4.3300875E-3,9.38733E-3,0E0,0E0,0E0,0E0,0E0,0E0],"parents":[2147483647,0,0,1,1,2,2,5,5,6,6,8,8,9,9,10,10],"right_children":[2,4,6,-1,-1,8,10,-1,12,14,16,-1,-1,-1,-1,-1,-1],"split_conditions":[1.1594E1,1.1299555E-2,3.281E1,-0E0,1.0084108E-3,1.679E1,3.724E1,-0E0,2.22635E1,2.2090679E-2,3.8864773E-2,-3.5064077E-4,-4.742511E-5,3.2577134E-4,-0E0,-3.655938E-6,1.348237E-4],"split_indices":[15,58,46,0,0,1,46,0,16,58,58,0,0,0,0,0,0],"split_type":[0,0,0,0,0,0,0,0,0,0,0,0,0,0,0,0,0],"sum_hessian":[1.1056E4,4.3E1,1.1013E4,2.1E1,2.2E1,8.17E2,1.0196E4,1.29E2,6.88E2,1.6E2,1.0036E4,2.12E2,4.76E2,1.32E2,2.8E1,9.58E3,4.56E2],"tree_param":{"num_deleted":"0","num_feature":"176","num_nodes":"17","size_leaf_vector":"1"}},{"base_weights":[5.536093E-5,2.0492375E-2,-0E0,-0E0,1.0790403E-3,-3.988428E-3,2.8025993E-4,-0E0,-5.2621323E-3,-0E0,5.3928806E-3,-3.336465E-4,-4.3884454E-5,1.869137E-5,-8.4899024E-5,7.017268E-4,7.484651E-5],"categories":[],"categories_nodes":[],"categories_segments":[],"categories_sizes":[],"default_left":[0,0,0,0,0,0,0,0,0,0,0,0,0,0,0,0,0],"id":26,"left_children":[1,3,5,-1,-1,7,9,-1,11,13,15,-1,-1,-1,-1,-1,-1],"loss_changes":[1.9912926E-2,1.6923362E-2,1.3715924E-2,0E0,0E0,6.072535E-3,1.2556775E-2,0E0,8.9276E-3,1.6427385E-2,1.0877907E-2,0E0,0E0,0E0,0E0,0E0,0E0],"parents":[2147483647,0,0,1,1,2,2,5,5,6,6,8,8,9,9,10,10],"right_children":[2,4,6,-1,-1,8,10,-1,12,14,16,-1,-1,-1,-1,-1,-1],"split_conditions":[1.159E1,9.5933245E-4,3.281E1,-0E0,1.0790403E-3,1.716E1,3.8864773E-2,-0E0,2.258E1,2.4792306E-2,3.9517634E-2,-3.336465E-4,-4.3884454E-5,1.869137E-5,-8.4899024E-5,7.017268E-4,7.484651E-5],"split_indices":[2,57,46,0,0,33,58,0,33,58,58,0,0,0,0,0,0],"split_type":[0,0,0,0,0,0,0,0,0,0,0,0,0,0,0,0,0],"sum_hessian":[1.1125E4,4.5E1,1.108E4,1.9E1,2.6E1,8.09E2,1.0271E4,1.26E2,6.83E2,9.814E3,4.57E2,2.15E2,4.68E2,8.161E3,1.653E3,3.7E1,4.2E2],"tree_param":{"num_deleted":"0","num_feature":"176","num_nodes":"17","size_leaf_vector":"1"}},{"base_weights":[-0E0,-2.215751E-4,5.070001E-3,2.8625713E-4,-2.9201952E-3,2.6126727E-2,2.452308E-3,5.275267E-4,-4.6230615E-3,2.4997212E-3,-3.6583247E-3,-0E0,1.2666646E-3,7.9431944E-4,3.150701E-4,-0E0,8.102075E-5,-1.7190336E-4,-0E0,-0E0,1.6262881E-4,6.105068E-5,-1.3709054E-4,-3.6005088E-4,1.0939444E-4],"categories":[],"categories_nodes":[],"categories_segments":[],"categories_sizes":[],"default_left":[0,0,0,0,0,0,0,0,0,0,0,0,0,0,0,0,0,0,0,0,0,0,0,0,0],"id":27,"left_children":[1,3,5,7,9,11,13,15,17,19,21,-1,-1,-1,23,-1,-1,-1,-1,-1,-1,-1,-1,-1,-1],"loss_changes":[1.4211543E-2,1.5936926E-2,1.4901728E-2,8.409496E-3,7.9852715E-3,1.45132635E-2,1.2128163E-2,8.729358E-3,2.9708762E-3,2.5687725E-3,1.0145081E-2,0E0,0E0,0E0,1.5565718E-2,0E0,0E0,0E0,0E0,0E0,0E0,0E0,0E0,0E0,0E0],"parents":[2147483647,0,0,1,1,2,2,3,3,4,4,5,5,6,6,7,7,8,8,9,9,10,10,14,14],"right_children":[2,4,6,8,10,12,14,16,18,20,22,-1,-1,-1,24,-1,-1,-1,-1,-1,-1,-1,-1,-1,-1],"split_conditions":[3.8864773E-2,2.4792306E-2,3.9517634E-2,4.61692E5,1.30372E4,1.7327E2,1.33E1,1.9305257E-2,2.6283E2,2.4944603E-2,-1.8632E-2,-0E0,1.2666646E-3,7.9431944E-4,4.59E1,-0E0,8.102075E-5,-1.7190336E-4,-0E0,-0E0,1.6262881E-4,6.105068E-5,-1.3709054E-4,-3.6005088E-4,1.0939444E-4],"split_indices":[58,58,58,17,17,0,0,58,0,58,35,0,0,0,0,0,0,0,0,0,0,0,0,0,0],"split_type":[0,0,0,0,0,0,0,0,0,0,0,0,0,0,0,0,0,0,0,0,0,0,0,0,0],"sum_hessian":[1.1194E4,1.0664E4,5.3E2,8.821E3,1.843E3,3.5E1,4.95E2,8.507E3,3.14E2,1.39E2,1.704E3,1.5E1,2E1,1.9E1,4.76E2,6.988E3,1.519E3,2.94E2,2E1,2.4E1,1.15E2,1.59E2,1.545E3,6.8E1,4.08E2],"tree_param":{"num_deleted":"0","num_feature":"176","num_nodes":"25","size_leaf_vector":"1"}},{"base_weights":[-0E0,1.6063169E-2,-5.780501E-5,-0E0,9.49411E-4,-5.9243417E-3,9.193097E-5,-0E0,-1.4248562E-2,1.1440163E-3,-7.353909E-4,-0E0,-2.5371137E-5,-4.4545575E-4,-0E0,4.2132924E-5,-1.0843243E-4,4.601093E-6,-9.048314E-5],"categories":[],"categories_nodes":[],"categories_segments":[],"categories_sizes":[],"default_left":[0,0,0,0,0,0,0,0,0,0,0,0,0,0,0,0,0,0,0],"id":28,"left_children":[1,3,5,-1,-1,7,9,11,13,15,17,-1,-1,-1,-1,-1,-1,-1,-1],"loss_changes":[1.2035147E-2,1.354096E-2,1.2636095E-2,0E0,0E0,1.6347993E-2,9.526365E-3,6.6872715E-5,7.2382204E-4,5.0793584E-3,1.304627E-2,0E0,0E0,0E0,0E0,0E0,0E0,0E0,0E0],"parents":[2147483647,0,0,1,1,2,2,5,5,6,6,7,7,8,8,9,9,10,10],"right_children":[2,4,6,-1,-1,8,10,12,14,16,18,-1,-1,-1,-1,-1,-1,-1,-1],"split_conditions":[1.159E1,9.5933245E-4,2.258E1,-0E0,9.49411E-4,1.9164E1,4E-2,2.853274E5,2.3674466E-2,5.789172E5,1.9E1,-0E0,-2.5371137E-5,-4.4545575E-4,-0E0,4.2132924E-5,-1.0843243E-4,4.601093E-6,-9.048314E-5],"split_indices":[2,57,33,0,0,14,10,17,57,17,39,0,0,0,0,0,0,0,0],"split_type":[0,0,0,0,0,0,0,0,0,0,0,0,0,0,0,0,0,0,0],"sum_hessian":[1.1105E4,4.4E1,1.1061E4,2.1E1,2.3E1,3.56E2,1.0705E4,2.16E2,1.4E2,4.978E3,5.727E3,1.25E2,9.1E1,1.32E2,8E0,4.821E3,1.57E2,3.965E3,1.762E3],"tree_param":{"num_deleted":"0","num_feature":"176","num_nodes":"19","size_leaf_vector":"1"}},{"base_weights":[9.090166E-5,-8.622455E-5,4.5162765E-3,4.3140494E-4,-2.8419264E-3,8.019544E-4,2.5623823E-3,6.6837715E-4,-4.3464205E-3,-0E0,-4.389505E-3,-9.680853E-3,5.4128245E-3,3.5130852E-6,8.2062965E-5,-1.5786385E-4,-0E0,-2.252599E-5,2.478843E-4,7.747151E-5,-1.6271647E-4,-4.6998888E-4,-0E0,2.1956672E-4,-0E0],"categories":[],"categories_nodes":[],"categories_segments":[],"categories_sizes":[],"default_left":[0,0,0,0,0,0,0,0,0,0,0,0,0,0,0,0,0,0,0,0,0,0,0,0,0],"id":29,"left_children":[1,3,5,7,9,-1,11,13,15,17,19,21,23,-1,-1,-1,-1,-1,-1,-1,-1,-1,-1,-1,-1],"loss_changes":[1.09500475E-2,1.633921E-2,8.512823E-3,8.108497E-3,7.922929E-3,0E0,1.605703E-2,8.22063E-3,2.2775456E-3,3.8574939E-3,9.954594E-3,3.5560085E-3,6.7442814E-3,0E0,0E0,0E0,0E0,0E0,0E0,0E0,0E0,0E0,0E0,0E0,0E0],"parents":[2147483647,0,0,1,1,2,2,3,3,4,4,6,6,7,7,8,8,9,9,10,10,11,11,12,12],"right_children":[2,4,6,8,10,-1,12,14,16,18,20,22,24,-1,-1,-1,-1,-1,-1,-1,-1,-1,-1,-1,-1],"split_conditions":[3.8864773E-2,2.4792306E-2,1.33E1,4.61692E5,-8.1267784E-4,8.019544E-4,4.589E1,1.913934E-2,2.6264E2,-9.225093E-4,1.24398E4,4.6444103E-2,3.8707806E-3,3.5130852E-6,8.2062965E-5,-1.5786385E-4,-0E0,-2.252599E-5,2.478843E-4,7.747151E-5,-1.6271647E-4,-4.6998888E-4,-0E0,2.1956672E-4,-0E0],"split_indices":[58,58,3,17,59,0,3,58,3,57,17,58,54,0,0,0,0,0,0,0,0,0,0,0,0],"split_type":[0,0,0,0,0,0,0,0,0,0,0,0,0,0,0,0,0,0,0,0,0,0,0,0,0],"sum_hessian":[1.114E4,1.0605E4,5.35E2,8.777E3,1.828E3,2E1,5.15E2,8.464E3,3.13E2,6.52E2,1.176E3,6.3E1,4.52E2,6.875E3,1.589E3,2.95E2,1.8E1,6.03E2,4.9E1,8.9E1,1.087E3,3.7E1,2.6E1,3.72E2,8E1],"tree_param":{"num_deleted":"0","num_feature":"176","num_nodes":"25","size_leaf_vector":"1"}},{"base_weights":[-0E0,1.6115423E-2,-5.900586E-5,-0E0,9.180387E-4,-6.228991E-3,9.591865E-5,-0E0,-1.5143006E-2,5.1544554E-4,-1.6273756E-3,-0E0,-6.4249352E-6,-0E0,-4.9226516E-4,-2.4375406E-6,3.250356E-4,3.62378E-5,-1.0564843E-4],"categories":[],"categories_nodes":[],"categories_segments":[],"categories_sizes":[],"default_left":[0,0,0,0,0,0,0,0,0,0,0,0,0,0,0,0,0,0,0],"id":30,"left_children":[1,3,5,-1,-1,7,9,11,13,15,17,-1,-1,-1,-1,-1,-1,-1,-1],"loss_changes":[1.1855244E-2,1.2062531E-2,1.365968E-2,0E0,0E0,1.9077249E-2,7.2053894E-3,3.8298476E-6,8.4485486E-4,5.997306E-2,1.1202706E-2,0E0,0E0,0E0,0E0,0E0,0E0,0E0,0E0],"parents":[2147483647,0,0,1,1,2,2,5,5,6,6,7,7,8,8,9,9,10,10],"right_children":[2,4,6,-1,-1,8,10,12,14,16,18,-1,-1,-1,-1,-1,-1,-1,-1],"split_conditions":[1.1594E1,9.5933245E-4,2.258E1,-0E0,9.180387E-4,1.934E1,3.175E2,2.989378E5,1.5615592E-3,2.7725E2,-1.0197297E-3,-0E0,-6.4249352E-6,-0E0,-4.9226516E-4,-2.4375406E-6,3.250356E-4,3.62378E-5,-1.0564843E-4],"split_indices":[15,57,33,0,0,45,45,17,50,46,57,0,0,0,0,0,0,0,0],"split_type":[0,0,0,0,0,0,0,0,0,0,0,0,0,0,0,0,0,0,0],"sum_hessian":[1.1121E4,4.3E1,1.1078E4,2E1,2.3E1,3.48E2,1.073E4,2.08E2,1.4E2,8.864E3,1.866E3,1.27E2,8.1E1,1.8E1,1.22E2,8.336E3,5.28E2,6.42E2,1.224E3],"tree_param":{"num_deleted":"0","num_feature":"176","num_nodes":"19","size_leaf_vector":"1"}},{"base_weights":[2.8478531E-5,2.807944E-4,-3.274725E-3,-1.5319213E-4,1.6924955E-3,-0E0,-4.0465384E-3,-2.1600353E-3,1.9320632E-4,7.401653E-3,-1.238181E-3,-8.614903E-3,-9.706544E-4,-1.02231694E-4,9.849388E-5,4.627391E-5,-2.688939E-5,1.0641223E-4,5.098399E-4,7.734965E-5,-1.0903896E-4,-0E0,-2.8776168E-4,-0E0,-1.8472095E-4],"categories":[],"categories_nodes":[],"categories_segments":[],"categories_sizes":[],"default_left":[0,0,0,0,0,0,0,0,0,0,0,0,0,0,0,0,0,0,0,0,0,0,0,0,0],"id":31,"left_children":[1,3,5,7,9,-1,11,13,15,17,19,21,23,-1,-1,-1,-1,-1,-1,-1,-1,-1,-1,-1,-1],"loss_changes":[7.8062257E-3,7.209654E-3,2.8299247E-3,6.386256E-3,4.899132E-2,0E0,3.6103465E-3,9.302761E-3,9.759057E-3,2.613021E-2,1.6616642E-2,1.8342137E-3,4.356264E-3,0E0,0E0,0E0,0E0,0E0,0E0,0E0,0E0,0E0,0E0,0E0,0E0],"parents":[2147483647,0,0,1,1,2,2,3,3,4,4,6,6,7,7,8,8,9,9,10,10,11,11,12,12],"right_children":[2,4,6,8,10,-1,12,14,16,18,20,22,24,-1,-1,-1,-1,-1,-1,-1,-1,-1,-1,-1,-1],"split_conditions":[3.792878E5,2.4403E2,1.595E1,-6.187E-3,3.1553E2,-0E0,2.792E1,-8.278146E-4,6.590872E-4,1.1204373E-2,-1.0197297E-3,-2.2755243E-2,2.1977E2,-1.02231694E-4,9.849388E-5,4.627391E-5,-2.688939E-5,1.0641223E-4,5.098399E-4,7.734965E-5,-1.0903896E-4,-0E0,-2.8776168E-4,-0E0,-1.8472095E-4],"split_indices":[17,33,8,34,1,0,46,57,52,59,57,57,44,0,0,0,0,0,0,0,0,0,0,0,0],"split_type":[0,0,0,0,0,0,0,0,0,0,0,0,0,0,0,0,0,0,0,0,0,0,0,0,0],"sum_hessian":[1.1157E4,1.0508E4,6.49E2,7.768E3,2.74E3,5.2E1,5.97E2,1.354E3,6.414E3,9.86E2,1.754E3,1.73E2,4.24E2,1.177E3,1.77E2,3.07E3,3.344E3,7.43E2,2.43E2,5.96E2,1.158E3,1.4E1,1.59E2,3.01E2,1.23E2],"tree_param":{"num_deleted":"0","num_feature":"176","num_nodes":"25","size_leaf_vector":"1"}},{"base_weights":[-0E0,2.1380816E-4,-3.7052557E-3,1.1350905E-3,-4.1916486E-4,-0E0,-4.6670684E-3,7.840044E-4,4.7071762E-3,3.850645E-4,-2.5851815E-3,-0E0,-5.2334527E-3,6.088694E-5,3.2244623E-6,-0E0,3.0746803E-4,-0E0,1.1433983E-4,-0E0,-1.0752873E-4,-0E0,-1.9776839E-4],"categories":[],"categories_nodes":[],"categories_segments":[],"categories_sizes":[],"default_left":[0,0,0,0,0,0,0,0,0,0,0,0,0,0,0,0,0,0,0,0,0,0,0],"id":32,"left_children":[1,3,5,7,9,-1,11,13,15,17,19,-1,21,-1,-1,-1,-1,-1,-1,-1,-1,-1,-1],"loss_changes":[9.546599E-3,6.4649917E-3,2.8792163E-3,2.9971567E-3,1.135668E-2,0E0,1.9253772E-3,2.5598006E-3,6.397903E-3,5.743366E-3,5.7893926E-3,0E0,1.8810369E-3,0E0,0E0,0E0,0E0,0E0,0E0,0E0,0E0,0E0,0E0],"parents":[2147483647,0,0,1,1,2,2,3,3,4,4,6,6,7,7,8,8,9,9,10,10,12,12],"right_children":[2,4,6,8,10,-1,12,14,16,18,20,-1,22,-1,-1,-1,-1,-1,-1,-1,-1,-1,-1],"split_conditions":[3.792878E5,2.7726817E-5,2.081298E6,1.5323E-2,1.9E1,-0E0,1.677E1,1.7853959E-3,1.8E2,1.6215028E-2,8.42E-4,-0E0,-3.9875316E-3,6.088694E-5,3.2244623E-6,-0E0,3.0746803E-4,-0E0,1.1433983E-4,-0E0,-1.0752873E-4,-0E0,-1.9776839E-4],"split_indices":[17,54,47,34,39,0,0,50,0,59,12,0,57,0,0,0,0,0,0,0,0,0,0],"split_type":[0,0,0,0,0,0,0,0,0,0,0,0,0,0,0,0,0,0,0,0,0,0,0],"sum_hessian":[1.1126E4,1.0468E4,6.58E2,4.584E3,5.884E3,1.12E2,5.46E2,4.304E3,2.8E2,4.124E3,1.76E3,4.2E1,5.04E2,1.253E3,3.051E3,1.62E2,1.18E2,3.689E3,4.35E2,3.95E2,1.365E3,1.44E2,3.6E2],"tree_param":{"num_deleted":"0","num_feature":"176","num_nodes":"23","size_leaf_vector":"1"}},{"base_weights":[-0E0,-2.539629E-4,5.025699E-3,3.5452636E-4,-2.7027428E-3,8.735637E-4,2.851891E-3,-0E0,2.8557922E-3,2.2519256E-3,-3.205592E-3,-9.574409E-3,5.653162E-3,5.543422E-5,-2.146188E-5,-1.1521391E-5,2.6858583E-4,-0E0,1.7020236E-4,2.9430177E-5,-1.1457828E-4,-4.3260495E-4,-0E0,2.320883E-4,-0E0],"categories":[],"categories_nodes":[],"categories_segments":[],"categories_sizes":[],"default_left":[0,0,0,0,0,0,0,0,0,0,0,0,0,0,0,0,0,0,0,0,0,0,0,0,0],"id":33,"left_children":[1,3,5,7,9,-1,11,13,15,17,19,21,23,-1,-1,-1,-1,-1,-1,-1,-1,-1,-1,-1,-1],"loss_changes":[1.4660844E-2,1.6903302E-2,1.27959205E-2,8.120484E-3,6.1367713E-3,0E0,1.6606282E-2,9.179276E-3,2.6486086E-2,2.0223565E-3,6.9485344E-3,2.8331615E-3,5.649952E-3,0E0,0E0,0E0,0E0,0E0,0E0,0E0,0E0,0E0,0E0,0E0,0E0],"parents":[2147483647,0,0,1,1,2,2,3,3,4,4,6,6,7,7,8,8,9,9,10,10,11,11,12,12],"right_children":[2,4,6,8,10,-1,12,14,16,18,20,22,24,-1,-1,-1,-1,-1,-1,-1,-1,-1,-1,-1,-1],"split_conditions":[3.8864773E-2,2.3103047E-2,1.33E1,1.9305257E-2,1.0287E4,8.735637E-4,4.59E1,1.1113763E-2,6.5176E4,2.4944603E-2,-1.846E-2,4.6444103E-2,2.6335553E-3,5.543422E-5,-2.146188E-5,-1.1521391E-5,2.6858583E-4,-0E0,1.7020236E-4,2.9430177E-5,-1.1457828E-4,-4.3260495E-4,-0E0,2.320883E-4,-0E0],"split_indices":[58,58,0,58,17,0,0,58,17,58,34,58,54,0,0,0,0,0,0,0,0,0,0,0,0],"split_type":[0,0,0,0,0,0,0,0,0,0,0,0,0,0,0,0,0,0,0,0,0,0,0,0,0],"sum_hessian":[1.1103E4,1.0552E4,5.51E2,8.29E3,2.262E3,2.4E1,5.27E2,7.169E3,1.121E3,1.16E2,2.146E3,6.3E1,4.64E2,1.895E3,5.274E3,6.8E2,4.41E2,3.7E1,7.9E1,1.7E2,1.976E3,4E1,2.3E1,3.41E2,1.23E2],"tree_param":{"num_deleted":"0","num_feature":"176","num_nodes":"25","size_leaf_vector":"1"}},{"base_weights":[-0E0,-1.6369011E-4,3.9318786E-3,3.1511553E-4,-2.7816328E-3,7.864891E-3,-0E0,-3.2927226E-3,6.090514E-4,2.2381784E-3,-3.549787E-3,2.1730184E-4,1.3768558E-2,-1.7069998E-3,-0E0,-1.994939E-4,-0E0,2.400148E-4,1.1674544E-5,-0E0,1.3926625E-4,-0E0,-1.611126E-4,-0E0,1.0782294E-4,6.140794E-4,-0E0,-3.4476872E-4,-0E0,1.7875948E-4,-0E0],"categories":[],"categories_nodes":[],"categories_segments":[],"categories_sizes":[],"default_left":[0,0,0,0,0,0,0,0,0,0,0,0,0,0,0,0,0,0,0,0,0,0,0,0,0,0,0,0,0,0,0],"id":34,"left_children":[1,3,5,7,9,11,13,15,17,19,21,23,25,27,29,-1,-1,-1,-1,-1,-1,-1,-1,-1,-1,-1,-1,-1,-1,-1,-1],"loss_changes":[8.671388E-3,1.4545589E-2,1.1499996E-2,8.013898E-3,7.629944E-3,7.514937E-3,3.3946335E-4,7.780842E-3,9.261204E-3,2.1245296E-3,9.775789E-3,1.6901809E-3,8.84955E-3,2.6321737E-3,1.0829178E-3,0E0,0E0,0E0,0E0,0E0,0E0,0E0,0E0,0E0,0E0,0E0,0E0,0E0,0E0,0E0,0E0],"parents":[2147483647,0,0,1,1,2,2,3,3,4,4,5,5,6,6,7,7,8,8,9,9,10,10,11,11,12,12,13,13,14,14],"right_children":[2,4,6,8,10,12,14,16,18,20,22,24,26,28,30,-1,-1,-1,-1,-1,-1,-1,-1,-1,-1,-1,-1,-1,-1,-1,-1],"split_conditions":[3.8864773E-2,2.4792306E-2,2.789E-3,-9.201811E-3,1.78246E5,-1.02482885E-2,4.8442766E-2,1.7365E2,-8.33703E-3,-3.82E0,-8.1267784E-4,4.8442766E-2,2.1033E2,4.595E1,1.45214E2,-1.994939E-4,-0E0,2.400148E-4,1.1674544E-5,-0E0,1.3926625E-4,-0E0,-1.611126E-4,-0E0,1.0782294E-4,6.140794E-4,-0E0,-3.4476872E-4,-0E0,1.7875948E-4,-0E0],"split_indices":[58,58,12,59,47,59,58,1,57,10,59,58,1,1,15,0,0,0,0,0,0,0,0,0,0,0,0,0,0,0,0],"split_type":[0,0,0,0,0,0,0,0,0,0,0,0,0,0,0,0,0,0,0,0,0,0,0,0,0,0,0,0,0,0,0],"sum_hessian":[1.1156E4,1.0616E4,5.4E2,8.815E3,1.801E3,3.19E2,2.21E2,5.34E2,8.281E3,1.52E2,1.649E3,1.77E2,1.42E2,1.14E2,1.07E2,3.05E2,2.29E2,1.71E2,8.11E3,2E1,1.32E2,5.91E2,1.058E3,4.8E1,1.29E2,8.4E1,5.8E1,2E1,9.4E1,2.8E1,7.9E1],"tree_param":{"num_deleted":"0","num_feature":"176","num_nodes":"31","size_leaf_vector":"1"}},{"base_weights":[5.8672922E-5,-4.9106377E-5,7.154447E-3,-3.557216E-3,1.6690748E-4,7.981466E-4,2.4056302E-3,-0E0,-5.2977353E-3,6.0741365E-4,-1.68583E-3,3.6652046E-3,-0E0,-0E0,5.0607465E-5,-0E0,-2.3039758E-4,-8.31474E-7,3.2006897E-4,1.6236569E-5,-9.634778E-5,1.3710083E-4,-0E0],"categories":[],"categories_nodes":[],"categories_segments":[],"categories_sizes":[],"default_left":[0,0,0,0,0,0,0,0,0,0,0,0,0,0,0,0,0,0,0,0,0,0,0],"id":35,"left_children":[1,3,5,7,9,-1,11,13,15,17,19,21,-1,-1,-1,-1,-1,-1,-1,-1,-1,-1,-1],"loss_changes":[1.2093436E-2,9.981291E-3,7.1794335E-3,7.3537277E-3,7.760662E-3,0E0,1.5116604E-3,7.541062E-5,7.95934E-3,5.9214696E-2,7.2366726E-3,6.257554E-4,0E0,0E0,0E0,0E0,0E0,0E0,0E0,0E0,0E0,0E0,0E0],"parents":[2147483647,0,0,1,1,2,2,3,3,4,4,6,6,7,7,8,8,9,9,10,10,11,11],"right_children":[2,4,6,8,10,-1,12,14,16,18,20,22,-1,-1,-1,-1,-1,-1,-1,-1,-1,-1,-1],"split_conditions":[5.0157044E-2,2.792E1,1.33E1,1.716E1,3.1419E2,7.981466E-4,8.73234E5,1.7223917E-2,1.108168E5,2.7725E2,-1.0197297E-3,3.17535E-3,-0E0,-0E0,5.0607465E-5,-0E0,-2.3039758E-4,-8.31474E-7,3.2006897E-4,1.6236569E-5,-9.634778E-5,1.3710083E-4,-0E0],"split_indices":[58,46,0,33,44,0,4,58,17,46,57,54,0,0,0,0,0,0,0,0,0,0,0],"split_type":[0,0,0,0,0,0,0,0,0,0,0,0,0,0,0,0,0,0,0,0,0,0,0],"sum_hessian":[1.1164E4,1.093E4,2.34E2,7.66E2,1.0164E4,2.3E1,2.11E2,1.6E2,6.06E2,8.431E3,1.733E3,2.02E2,9E0,1.36E2,2.4E1,1.84E2,4.22E2,7.886E3,5.45E2,5.72E2,1.161E3,1.59E2,4.3E1],"tree_param":{"num_deleted":"0","num_feature":"176","num_nodes":"23","size_leaf_vector":"1"}},{"base_weights":[-0E0,1.8313199E-3,-4.1380367E-4,3.6534134E-3,-0E0,-1.6267904E-3,6.72746E-4,-0E0,3.8119003E-3,9.422268E-4,-2.692487E-3,-1.907434E-3,8.202514E-3,2.340191E-3,-2.1834248E-3,-0E0,1.1843947E-4,-0E0,7.8410834E-5,-0E0,-1.1815544E-4,-4.6096102E-5,-3.1443613E-4,-0E0,4.5325348E-4,1.5438765E-5,3.332032E-4,3.049248E-5,-1.3708603E-4],"categories":[],"categories_nodes":[],"categories_segments":[],"categories_sizes":[],"default_left":[0,0,0,0,0,0,0,0,0,0,0,0,0,0,0,0,0,0,0,0,0,0,0,0,0,0,0,0,0],"id":36,"left_children":[1,3,5,7,9,11,13,-1,15,17,19,21,23,25,27,-1,-1,-1,-1,-1,-1,-1,-1,-1,-1,-1,-1,-1,-1],"loss_changes":[8.130404E-3,6.782533E-3,1.2580702E-2,6.303992E-4,2.5612828E-3,9.46082E-3,2.2129662E-2,0E0,6.1007775E-4,2.3466162E-3,1.5514456E-3,8.201981E-3,4.258712E-3,4.2723067E-2,1.39777195E-2,0E0,0E0,0E0,0E0,0E0,0E0,0E0,0E0,0E0,0E0,0E0,0E0,0E0,0E0],"parents":[2147483647,0,0,1,1,2,2,3,3,4,4,5,5,6,6,8,8,9,9,10,10,11,11,12,12,13,13,14,14],"right_children":[2,4,6,8,10,12,14,-1,16,18,20,22,24,26,28,-1,-1,-1,-1,-1,-1,-1,-1,-1,-1,-1,-1,-1,-1],"split_conditions":[1.1113763E-2,3.95122E4,1.4144E2,-7.692E-3,1.3289E2,4.6444103E-2,3.175E2,-0E0,3.1102E3,4.723E1,6.3608E4,1.388E2,-1.8869298E-2,2.7725E2,-4.3749317E-4,-0E0,1.1843947E-4,-0E0,7.8410834E-5,-0E0,-1.1815544E-4,-4.6096102E-5,-3.1443613E-4,-0E0,4.5325348E-4,1.5438765E-5,3.332032E-4,3.049248E-5,-1.3708603E-4],"split_indices":[58,17,46,34,7,58,45,0,17,1,47,45,57,46,57,0,0,0,0,0,0,0,0,0,0,0,0,0,0],"split_type":[0,0,0,0,0,0,0,0,0,0,0,0,0,0,0,0,0,0,0,0,0,0,0,0,0,0,0,0,0],"sum_hessian":[1.1132E4,1.953E3,9.179E3,9.97E2,9.56E2,4.554E3,4.625E3,3.8E1,9.59E2,6.9E2,2.66E2,4.479E3,7.5E1,3.031E3,1.594E3,2.6E1,9.33E2,2.59E2,4.31E2,4.3E1,2.23E2,4.352E3,1.27E2,3.6E1,3.9E1,2.558E3,4.73E2,5.92E2,1.002E3],"tree_param":{"num_deleted":"0","num_feature":"176","num_nodes":"29","size_leaf_vector":"1"}},{"base_weights":[-0E0,1.4633666E-2,-6.601349E-5,-0E0,8.401555E-4,1.9315793E-3,-5.479518E-4,3.529125E-3,-0E0,-1.8085046E-3,3.753773E-4,-0E0,1.11308625E-4,4.224284E-5,-7.5925855E-5,-1.3735782E-5,-1.3026885E-4,5.4405744E-5,-7.3512994E-5],"categories":[],"categories_nodes":[],"categories_segments":[],"categories_sizes":[],"default_left":[0,0,0,0,0,0,0,0,0,0,0,0,0,0,0,0,0,0,0],"id":37,"left_children":[1,3,5,-1,-1,7,9,11,13,15,17,-1,-1,-1,-1,-1,-1,-1,-1],"loss_changes":[1.0220043E-2,1.0611848E-2,9.957994E-3,0E0,0E0,4.6804547E-3,1.1325508E-2,7.903436E-4,3.118481E-3,1.1566296E-2,2.0148458E-2,0E0,0E0,0E0,0E0,0E0,0E0,0E0,0E0],"parents":[2147483647,0,0,1,1,2,2,5,5,6,6,7,7,8,8,9,9,10,10],"right_children":[2,4,6,-1,-1,8,10,12,14,16,18,-1,-1,-1,-1,-1,-1,-1,-1],"split_conditions":[1.159E1,1.1299555E-2,1.1113763E-2,-0E0,8.401555E-4,3.63362E4,1.2818E2,-7.722E-3,1.421525E2,8.661E1,3.175E2,-0E0,1.11308625E-4,4.224284E-5,-7.5925855E-5,-1.3735782E-5,-1.3026885E-4,5.4405744E-5,-7.3512994E-5],"split_indices":[2,58,58,0,0,17,45,35,16,1,45,0,0,0,0,0,0,0,0],"split_type":[0,0,0,0,0,0,0,0,0,0,0,0,0,0,0,0,0,0,0],"sum_hessian":[1.1102E4,4.5E1,1.1057E4,2.1E1,2.4E1,1.946E3,9.111E3,9.57E2,9.89E2,4.08E3,5.031E3,3.4E1,9.23E2,7.32E2,2.57E2,2.792E3,1.288E3,3.452E3,1.579E3],"tree_param":{"num_deleted":"0","num_feature":"176","num_nodes":"19","size_leaf_vector":"1"}},{"base_weights":[-0E0,1.3591129E-2,-7.063379E-5,-0E0,7.8152824E-4,-3.5517088E-3,1.2931664E-4,-0E0,-5.489739E-3,3.0463887E-3,-1.4137349E-4,3.5071967E-5,-0E0,-4.1902828E-4,-3.9230894E-5,1.2519566E-4,-0E0,-1.1734988E-4,7.989418E-6],"categories":[],"categories_nodes":[],"categories_segments":[],"categories_sizes":[],"default_left":[0,0,0,0,0,0,0,0,0,0,0,0,0,0,0,0,0,0,0],"id":38,"left_children":[1,3,5,-1,-1,7,9,11,13,15,17,-1,-1,-1,-1,-1,-1,-1,-1],"loss_changes":[8.090429E-3,8.591696E-3,9.408138E-3,0E0,0E0,6.606714E-3,9.604464E-3,1.9065666E-4,1.1019098E-2,5.3772433E-3,1.6107239E-2,0E0,0E0,0E0,0E0,0E0,0E0,0E0,0E0],"parents":[2147483647,0,0,1,1,2,2,5,5,6,6,7,7,8,8,9,9,10,10],"right_children":[2,4,6,-1,-1,8,10,12,14,16,18,-1,-1,-1,-1,-1,-1,-1,-1],"split_conditions":[1.159E1,9.5933245E-4,2.792E1,-0E0,7.8152824E-4,1.934E1,5.454E1,2.989378E5,2.22635E1,1.5408201E-2,7.203E1,3.5071967E-5,-0E0,-4.1902828E-4,-3.9230894E-5,1.2519566E-4,-0E0,-1.1734988E-4,7.989418E-6],"split_indices":[2,57,46,0,0,45,45,17,16,57,2,0,0,0,0,0,0,0,0],"split_type":[0,0,0,0,0,0,0,0,0,0,0,0,0,0,0,0,0,0,0],"sum_hessian":[1.1095E4,4.1E1,1.1054E4,1.9E1,2.2E1,7.34E2,1.032E4,2.09E2,5.25E2,1.031E3,9.289E3,1.37E2,7.2E1,1.32E2,3.93E2,8.57E2,1.74E2,1.024E3,8.265E3],"tree_param":{"num_deleted":"0","num_feature":"176","num_nodes":"19","size_leaf_vector":"1"}},{"base_weights":[7.488634E-5,-8.0238606E-5,4.0257922E-3,3.1130036E-4,-2.2821412E-3,1.8726906E-2,1.7042287E-3,-4.6917365E-5,2.1360489E-3,-0E0,-3.7167289E-3,-0E0,1.1724841E-3,6.948821E-4,-0E0,5.268276E-5,-2.4490775E-5,-7.964015E-6,1.8009993E-4,-2.0157304E-5,2.8261883E-4,-1.7754444E-4,-0E0,-3.0331445E-4,7.198997E-5],"categories":[],"categories_nodes":[],"categories_segments":[],"categories_sizes":[],"default_left":[0,0,0,0,0,0,0,0,0,0,0,0,0,0,0,0,0,0,0,0,0,0,0,0,0],"id":39,"left_children":[1,3,5,7,9,11,13,15,17,19,21,-1,-1,-1,23,-1,-1,-1,-1,-1,-1,-1,-1,-1,-1],"loss_changes":[8.814289E-3,1.0143454E-2,8.254067E-3,6.814323E-3,6.5228026E-3,1.72345E-2,1.1688E-2,9.455071E-3,1.845243E-2,5.6363074E-3,8.900538E-3,0E0,0E0,0E0,9.479756E-3,0E0,0E0,0E0,0E0,0E0,0E0,0E0,0E0,0E0,0E0],"parents":[2147483647,0,0,1,1,2,2,3,3,4,4,5,5,6,6,7,7,8,8,9,9,10,10,14,14],"right_children":[2,4,6,8,10,12,14,16,18,20,22,-1,-1,-1,24,-1,-1,-1,-1,-1,-1,-1,-1,-1,-1],"split_conditions":[3.8864773E-2,2.4792306E-2,3.9517634E-2,1.913934E-2,-8.1267784E-4,1.7442E2,1.33E1,1.1113763E-2,5.5724E4,-1.7067362E-3,3.159752E-2,-0E0,1.1724841E-3,6.948821E-4,4.59E1,5.268276E-5,-2.4490775E-5,-7.964015E-6,1.8009993E-4,-2.0157304E-5,2.8261883E-4,-1.7754444E-4,-0E0,-3.0331445E-4,7.198997E-5],"split_indices":[58,58,58,58,59,0,0,58,4,57,58,0,0,0,0,0,0,0,0,0,0,0,0,0,0],"split_type":[0,0,0,0,0,0,0,0,0,0,0,0,0,0,0,0,0,0,0,0,0,0,0,0,0],"sum_hessian":[1.1159E4,1.0618E4,5.41E2,8.824E3,1.794E3,4.2E1,4.99E2,7.149E3,1.675E3,6.47E2,1.147E3,2.3E1,1.9E1,2.2E1,4.77E2,1.943E3,5.206E3,9.55E2,7.2E2,5.89E2,5.8E1,7.05E2,4.42E2,6.7E1,4.1E2],"tree_param":{"num_deleted":"0","num_feature":"176","num_nodes":"25","size_leaf_vector":"1"}},{"base_weights":[-0E0,-1.8683917E-4,3.8661968E-3,2.4142508E-4,-2.51098E-3,6.096864E-3,-0E0,-1.1302497E-4,2.0929815E-3,2.1268334E-3,-3.2999143E-3,-0E0,1.0974717E-2,-0E0,-4.3133547E-4,4.6994413E-5,-2.6174926E-5,-1.7219907E-5,2.0845424E-4,3.01504E-4,-2.8924728E-4,8.6500106E-5,-1.2201584E-4,-0E0,8.653011E-5,-0E0,3.7777855E-4,1.703928E-5,-0E0,-0E0,-2.4532479E-5],"categories":[],"categories_nodes":[],"categories_segments":[],"categories_sizes":[],"default_left":[0,0,0,0,0,0,0,0,0,0,0,0,0,0,0,0,0,0,0,0,0,0,0,0,0,0,0,0,0,0,0],"id":40,"left_children":[1,3,5,7,9,11,13,15,17,19,21,23,25,27,29,-1,-1,-1,-1,-1,-1,-1,-1,-1,-1,-1,-1,-1,-1,-1,-1],"loss_changes":[8.359303E-3,1.1682487E-2,5.8942223E-3,6.7445417E-3,7.30176E-3,6.1703455E-3,1.1069992E-5,8.756753E-3,2.4376107E-2,1.681096E-2,8.484902E-3,1.2603893E-3,4.28712E-3,2.8549806E-5,2.4706202E-5,0E0,0E0,0E0,0E0,0E0,0E0,0E0,0E0,0E0,0E0,0E0,0E0,0E0,0E0,0E0,0E0],"parents":[2147483647,0,0,1,1,2,2,3,3,4,4,5,5,6,6,7,7,8,8,9,9,10,10,11,11,12,12,13,13,14,14],"right_children":[2,4,6,8,10,12,14,16,18,20,22,24,26,28,30,-1,-1,-1,-1,-1,-1,-1,-1,-1,-1,-1,-1,-1,-1,-1,-1],"split_conditions":[3.8864773E-2,2.4792306E-2,5.072934E-3,1.913934E-2,-1.846E-2,-7.599783E-3,2.1E1,1.1240931E-2,6.5176E4,1.9663E2,1.24398E4,4.8442766E-2,1.1925E4,3.210292E-2,-2.7425813E-2,4.6994413E-5,-2.6174926E-5,-1.7219907E-5,2.0845424E-4,3.01504E-4,-2.8924728E-4,8.6500106E-5,-1.2201584E-4,-0E0,8.653011E-5,-0E0,3.7777855E-4,1.703928E-5,-0E0,-0E0,-2.4532479E-5],"split_indices":[58,58,52,58,34,59,40,58,17,2,17,58,4,56,59,0,0,0,0,0,0,0,0,0,0,0,0,0,0,0,0],"split_type":[0,0,0,0,0,0,0,0,0,0,0,0,0,0,0,0,0,0,0,0,0,0,0,0,0,0,0,0,0,0,0],"sum_hessian":[1.1125E4,1.0593E4,5.32E2,8.765E3,1.828E3,3.71E2,1.61E2,7.132E3,1.633E3,1.73E2,1.655E3,2.07E2,1.64E2,1.04E2,5.7E1,2.015E3,5.117E3,9.89E2,6.44E2,1.29E2,4.4E1,1.1E2,1.545E3,5.8E1,1.49E2,1.3E1,1.51E2,8.6E1,1.8E1,6E0,5.1E1],"tree_param":{"num_deleted":"0","num_feature":"176","num_nodes":"31","size_leaf_vector":"1"}},{"base_weights":[-0E0,-1.0672208E-4,6.354337E-3,3.452666E-4,-1.7933765E-3,6.896948E-4,1.6656049E-3,-5.5195338E-5,3.383391E-3,-3.2000486E-3,-0E0,3.985415E-3,-0E0,4.375209E-5,-2.3611063E-5,-3.8030828E-6,2.873754E-4,6.470501E-5,-1.16161216E-4,-1.1543836E-4,7.3018826E-5,-0E0,2.0629918E-4],"categories":[],"categories_nodes":[],"categories_segments":[],"categories_sizes":[],"default_left":[0,0,0,0,0,0,0,0,0,0,0,0,0,0,0,0,0,0,0,0,0,0,0],"id":41,"left_children":[1,3,5,7,9,-1,11,13,15,17,19,21,-1,-1,-1,-1,-1,-1,-1,-1,-1,-1,-1],"loss_changes":[9.1488995E-3,9.059217E-3,5.009412E-3,1.1871677E-2,7.878309E-3,0E0,1.5801003E-3,7.719699E-3,2.9141618E-2,6.5247435E-3,8.542981E-3,1.1029046E-3,0E0,0E0,0E0,0E0,0E0,0E0,0E0,0E0,0E0,0E0,0E0],"parents":[2147483647,0,0,1,1,2,2,3,3,4,4,6,6,7,7,8,8,9,9,10,10,11,11],"right_children":[2,4,6,8,10,-1,12,14,16,18,20,22,-1,-1,-1,-1,-1,-1,-1,-1,-1,-1,-1],"split_conditions":[5.0157044E-2,2.3103047E-2,1.33E1,1.9305257E-2,3.159752E-2,6.896948E-4,1.547048E5,1.1516648E-2,6.5176E4,-1.8468168E-2,9.2208E1,2.5651E2,-0E0,4.375209E-5,-2.3611063E-5,-3.8030828E-6,2.873754E-4,6.470501E-5,-1.16161216E-4,-1.1543836E-4,7.3018826E-5,-0E0,2.0629918E-4],"split_indices":[58,58,0,58,58,0,17,58,17,59,14,0,0,0,0,0,0,0,0,0,0,0,0],"split_type":[0,0,0,0,0,0,0,0,0,0,0,0,0,0,0,0,0,0,0,0,0,0,0],"sum_hessian":[1.115E4,1.0929E4,2.21E2,8.387E3,2.542E3,2.3E1,1.98E2,7.267E3,1.12E3,1.566E3,9.76E2,1.32E2,6.6E1,2.145E3,5.122E3,6.65E2,4.55E2,9.1E1,1.475E3,3.05E2,6.71E2,6.6E1,6.6E1],"tree_param":{"num_deleted":"0","num_feature":"176","num_nodes":"23","size_leaf_vector":"1"}},{"base_weights":[1.1925626E-4,1.2723231E-2,1.5645783E-5,-0E0,7.7889615E-4,-3.2855156E-3,3.2965868E-4,-0E0,-4.596527E-3,8.124354E-3,1.5799589E-4,6.295386E-6,-0E0,-2.9330046E-4,-3.113049E-5,3.030954E-4,-0E0,3.3878932E-5,-1.5922915E-5],"categories":[],"categories_nodes":[],"categories_segments":[],"categories_sizes":[],"default_left":[0,0,0,0,0,0,0,0,0,0,0,0,0,0,0,0,0,0,0],"id":42,"left_children":[1,3,5,-1,-1,7,9,11,13,15,17,-1,-1,-1,-1,-1,-1,-1,-1],"loss_changes":[8.181098E-3,1.0200568E-2,1.0024383E-2,0E0,0E0,5.7202317E-3,9.598153E-3,4.205383E-6,7.3339464E-3,3.2671755E-3,7.0673013E-3,0E0,0E0,0E0,0E0,0E0,0E0,0E0,0E0],"parents":[2147483647,0,0,1,1,2,2,5,5,6,6,7,7,8,8,9,9,10,10],"right_children":[2,4,6,-1,-1,8,10,12,14,16,18,-1,-1,-1,-1,-1,-1,-1,-1],"split_conditions":[1.1594E1,9.5933245E-4,3.281E1,-0E0,7.7889615E-4,1.716E1,3.742E1,3.107498E5,2.258E1,1.5718913E-2,2.7570996E-4,6.295386E-6,-0E0,-2.9330046E-4,-3.113049E-5,3.030954E-4,-0E0,3.3878932E-5,-1.5922915E-5],"split_indices":[15,57,46,0,0,33,33,17,33,57,55,0,0,0,0,0,0,0,0],"split_type":[0,0,0,0,0,0,0,0,0,0,0,0,0,0,0,0,0,0,0],"sum_hessian":[1.114E4,4.9E1,1.1091E4,2.4E1,2.5E1,8.23E2,1.0268E4,1.33E2,6.9E2,1.56E2,1.0112E4,9.3E1,4E1,2.22E2,4.68E2,1.32E2,2.4E1,4.496E3,5.616E3],"tree_param":{"num_deleted":"0","num_feature":"176","num_nodes":"19","size_leaf_vector":"1"}},{"base_weights":[6.122349E-5,-2.1079675E-5,5.7475977E-3,-2.931063E-3,1.6698349E-4,7.0289955E-3,-0E0,-0E0,-4.2368285E-3,2.9369972E-3,-6.856757E-5,-0E0,7.82909E-3,-2.8332297E-4,-1.9824754E-5,1.3889508E-4,-0E0,-1.0601997E-4,8.909413E-6,2.5320472E-4,-0E0],"categories":[],"categories_nodes":[],"categories_segments":[],"categories_sizes":[],"default_left":[0,0,0,0,0,0,0,0,0,0,0,0,0,0,0,0,0,0,0,0,0],"id":43,"left_children":[1,3,5,7,9,11,-1,-1,13,15,17,-1,19,-1,-1,-1,-1,-1,-1,-1,-1],"loss_changes":[8.073178E-3,7.342111E-3,3.377013E-3,5.0415522E-3,8.004209E-3,8.6379424E-4,0E0,0E0,7.491947E-3,5.079991E-3,1.3168481E-2,0E0,4.3603778E-4,0E0,0E0,0E0,0E0,0E0,0E0,0E0,0E0],"parents":[2147483647,0,0,1,1,2,2,3,3,4,4,5,5,8,8,9,9,10,10,12,12],"right_children":[2,4,6,8,10,12,-1,-1,14,16,18,-1,20,-1,-1,-1,-1,-1,-1,-1,-1],"split_conditions":[5.0157044E-2,3.281E1,1.44194E6,1.716E1,5.454E1,1.5417E4,-0E0,-0E0,2.258E1,5.97E-3,7.215E1,-0E0,4.5318096E-3,-2.8332297E-4,-1.9824754E-5,1.3889508E-4,-0E0,-1.0601997E-4,8.909413E-6,2.5320472E-4,-0E0],"split_indices":[58,46,4,33,45,4,0,0,33,34,3,0,54,0,0,0,0,0,0,0,0],"split_type":[0,0,0,0,0,0,0,0,0,0,0,0,0,0,0,0,0,0,0,0,0],"sum_hessian":[1.1129E4,1.0886E4,2.43E2,8.2E2,1.0066E4,2.3E2,1.3E1,1.48E2,6.72E2,9.53E2,9.113E3,3.1E1,1.99E2,2.15E2,4.57E2,6.19E2,3.34E2,9.98E2,8.115E3,1.77E2,2.2E1],"tree_param":{"num_deleted":"0","num_feature":"176","num_nodes":"21","size_leaf_vector":"1"}},{"base_weights":[-0E0,-1.5104428E-4,6.090774E-3,2.3526151E-4,-1.9783536E-3,7.283103E-3,-0E0,-3.0119175E-3,5.020446E-4,-4.046605E-3,-0E0,-0E0,8.244209E-3,-2.5073215E-4,-0E0,2.0151261E-4,8.8232455E-6,2.5651301E-5,-1.564245E-4,4.3806802E-5,-1.2366957E-4,2.7865378E-4,-0E0],"categories":[],"categories_nodes":[],"categories_segments":[],"categories_sizes":[],"default_left":[0,0,0,0,0,0,0,0,0,0,0,0,0,0,0,0,0,0,0,0,0,0,0],"id":44,"left_children":[1,3,5,7,9,11,-1,13,15,17,19,-1,21,-1,-1,-1,-1,-1,-1,-1,-1,-1,-1],"loss_changes":[8.615367E-3,8.60408E-3,3.1714886E-3,6.387378E-3,7.4441507E-3,1.2747934E-3,0E0,5.587695E-3,7.2061415E-3,7.7161547E-3,7.941461E-3,0E0,1.0354407E-3,0E0,0E0,0E0,0E0,0E0,0E0,0E0,0E0,0E0,0E0],"parents":[2147483647,0,0,1,1,2,2,3,3,4,4,5,5,7,7,8,8,9,9,10,10,12,12],"right_children":[2,4,6,8,10,12,-1,14,16,18,20,-1,22,-1,-1,-1,-1,-1,-1,-1,-1,-1,-1],"split_conditions":[5.0157044E-2,2.4792306E-2,9.635032E5,-9.201811E-3,3.005918E-2,2.06658E4,-0E0,7.346E1,-8.33703E-3,1.24398E4,2.0068E2,-0E0,1.71E0,-2.5073215E-4,-0E0,2.0151261E-4,8.8232455E-6,2.5651301E-5,-1.564245E-4,4.3806802E-5,-1.2366957E-4,2.7865378E-4,-0E0],"split_indices":[58,58,17,59,58,17,0,0,57,17,45,0,10,0,0,0,0,0,0,0,0,0,0],"split_type":[0,0,0,0,0,0,0,0,0,0,0,0,0,0,0,0,0,0,0,0,0,0,0],"sum_hessian":[1.1173E4,1.095E4,2.23E2,8.815E3,2.135E3,2.15E2,8E0,5.25E2,8.29E3,9.63E2,1.172E3,2.9E1,1.86E2,1.46E2,3.79E2,1.88E2,8.102E3,1.03E2,8.6E2,8.09E2,3.63E2,1.58E2,2.8E1],"tree_param":{"num_deleted":"0","num_feature":"176","num_nodes":"23","size_leaf_vector":"1"}},{"base_weights":[2.8614251E-5,1.2337536E-2,-0E0,-0E0,7.1775034E-4,2.4484468E-4,-3.071555E-3,1.184478E-3,-4.2312546E-4,-3.7548004E-3,-0E0,-0E0,5.6434623E-5,7.045635E-6,-7.5071985E-5,-1.4103102E-4,-0E0,2.9322182E-4,-1.4252074E-4],"categories":[],"categories_nodes":[],"categories_segments":[],"categories_sizes":[],"default_left":[0,0,0,0,0,0,0,0,0,0,0,0,0,0,0,0,0,0,0],"id":45,"left_children":[1,3,5,-1,-1,7,9,11,13,15,17,-1,-1,-1,-1,-1,-1,-1,-1],"loss_changes":[7.221099E-3,7.938562E-3,9.086983E-3,0E0,0E0,6.769807E-3,2.2168783E-3,4.322037E-3,8.850758E-3,4.720823E-3,7.1760463E-3,0E0,0E0,0E0,0E0,0E0,0E0,0E0,0E0],"parents":[2147483647,0,0,1,1,2,2,5,5,6,6,7,7,8,8,9,9,10,10],"right_children":[2,4,6,-1,-1,8,10,12,14,16,18,-1,-1,-1,-1,-1,-1,-1,-1],"split_conditions":[1.159E1,9.5933245E-4,1.52031E1,-0E0,7.1775034E-4,2.7570996E-4,2.6345E2,-5.3439424E-3,1.9E1,1.6820004E1,3.1553E2,-0E0,5.6434623E-5,7.045635E-6,-7.5071985E-5,-1.4103102E-4,-0E0,2.9322182E-4,-1.4252074E-4],"split_indices":[2,57,62,0,0,55,1,59,39,62,1,0,0,0,0,0,0,0,0],"split_type":[0,0,0,0,0,0,0,0,0,0,0,0,0,0,0,0,0,0,0],"sum_hessian":[1.1116E4,4.5E1,1.1071E4,2.1E1,2.4E1,1.0175E4,8.96E2,4.538E3,5.637E3,7.56E2,1.4E2,1.519E3,3.019E3,4.101E3,1.536E3,6.95E2,6.1E1,5.1E1,8.9E1],"tree_param":{"num_deleted":"0","num_feature":"176","num_nodes":"19","size_leaf_vector":"1"}},{"base_weights":[1.0297455E-5,-7.374954E-5,6.018229E-3,-3.2383373E-3,1.13211434E-4,7.1046473E-3,-0E0,-0E0,-4.7318665E-3,5.796784E-4,-1.7734857E-3,7.4546956E-3,-0E0,-7.4693835E-6,-2.5659933E-4,-0E0,2.8752623E-4,5.2497376E-6,-1.0771618E-4,-0E0,2.3221146E-4],"categories":[],"categories_nodes":[],"categories_segments":[],"categories_sizes":[],"default_left":[0,0,0,0,0,0,0,0,0,0,0,0,0,0,0,0,0,0,0,0,0],"id":46,"left_children":[1,3,5,7,9,11,-1,-1,13,15,17,19,-1,-1,-1,-1,-1,-1,-1,-1,-1],"loss_changes":[8.58762E-3,8.003934E-3,2.9537007E-3,5.5794194E-3,8.322216E-3,4.9257744E-4,0E0,0E0,5.9321523E-3,4.5469247E-2,8.06983E-3,3.9627124E-4,0E0,0E0,0E0,0E0,0E0,0E0,0E0,0E0,0E0],"parents":[2147483647,0,0,1,1,2,2,3,3,4,4,5,5,8,8,9,9,10,10,11,11],"right_children":[2,4,6,8,10,12,-1,-1,14,16,18,20,-1,-1,-1,-1,-1,-1,-1,-1,-1],"split_conditions":[5.0157044E-2,2.851E1,1.6820004E1,1.6747E1,3.175E2,3.68E0,-0E0,-0E0,1.4898876E1,2.8161E2,7.005254E-4,1.2572239E1,-0E0,-7.4693835E-6,-2.5659933E-4,-0E0,2.8752623E-4,5.2497376E-6,-1.0771618E-4,-0E0,2.3221146E-4],"split_indices":[58,45,62,15,45,10,0,0,62,45,57,62,0,0,0,0,0,0,0,0,0],"split_type":[0,0,0,0,0,0,0,0,0,0,0,0,0,0,0,0,0,0,0,0,0],"sum_hessian":[1.1116E4,1.0883E4,2.33E2,7.54E2,1.0129E4,2.25E2,8E0,1.53E2,6.01E2,8.335E3,1.794E3,2.13E2,1.2E1,3.38E2,2.63E2,7.812E3,5.23E2,7.34E2,1.06E3,9E0,2.04E2],"tree_param":{"num_deleted":"0","num_feature":"176","num_nodes":"21","size_leaf_vector":"1"}},{"base_weights":[6.013724E-5,3.0533771E-4,-3.5545845E-3,-8.270683E-5,1.5891537E-3,-0E0,-4.426928E-3,4.8789408E-4,-1.3044873E-3,6.558182E-3,-9.0079434E-4,-4.8377267E-3,-0E0,-4.1383486E-5,3.6201553E-5,-0E0,-9.390328E-5,8.4810585E-5,4.5426082E-4,6.451942E-5,-8.749672E-5,-0E0,-1.6667641E-4],"categories":[],"categories_nodes":[],"categories_segments":[],"categories_sizes":[],"default_left":[0,0,0,0,0,0,0,0,0,0,0,0,0,0,0,0,0,0,0,0,0,0,0],"id":47,"left_children":[1,3,5,7,9,-1,11,13,15,17,19,21,-1,-1,-1,-1,-1,-1,-1,-1,-1,-1,-1],"loss_changes":[8.21238E-3,5.9956275E-3,2.9879077E-3,5.8361483E-3,3.6763005E-2,0E0,1.0562493E-3,6.667512E-3,5.051295E-3,2.23757E-2,1.1233596E-2,1.3247281E-3,0E0,0E0,0E0,0E0,0E0,0E0,0E0,0E0,0E0,0E0,0E0],"parents":[2147483647,0,0,1,1,2,2,3,3,4,4,6,6,7,7,8,8,9,9,10,10,11,11],"right_children":[2,4,6,8,10,-1,12,14,16,18,20,22,-1,-1,-1,-1,-1,-1,-1,-1,-1,-1,-1],"split_conditions":[4.312126E5,2.4403E2,1.679E1,8.959236E-4,3.175E2,-0E0,5.085671E-1,-5.5049323E-3,1.8E1,1.0801344E-2,-1.0197297E-3,-3.1249733E-3,-0E0,-4.1383486E-5,3.6201553E-5,-0E0,-9.390328E-5,8.4810585E-5,4.5426082E-4,6.451942E-5,-8.749672E-5,-0E0,-1.6667641E-4],"split_indices":[17,33,1,54,45,0,63,59,40,59,57,54,0,0,0,0,0,0,0,0,0,0,0],"split_type":[0,0,0,0,0,0,0,0,0,0,0,0,0,0,0,0,0,0,0,0,0,0,0],"sum_hessian":[1.1093E4,1.052E4,5.73E2,7.781E3,2.739E3,5.2E1,5.21E2,5.026E3,2.755E3,9.8E2,1.759E3,4.81E2,4E1,1.203E3,3.823E3,1.763E3,9.92E2,7.26E2,2.54E2,6.01E2,1.158E3,7.4E1,4.07E2],"tree_param":{"num_deleted":"0","num_feature":"176","num_nodes":"23","size_leaf_vector":"1"}},{"base_weights":[6.374106E-5,-7.0139754E-6,5.5878162E-3,2.103936E-4,-2.7090553E-3,6.4624357E-4,1.0515408E-3,1.144882E-3,-4.390654E-4,-0E0,-5.0349394E-3,2.3918378E-3,-0E0,-1.0910972E-5,5.4709733E-5,9.931506E-6,-8.684617E-5,-7.096847E-5,9.77196E-5,-1.961E-4,-0E0,1.01469945E-4,-0E0],"categories":[],"categories_nodes":[],"categories_segments":[],"categories_sizes":[],"default_left":[0,0,0,0,0,0,0,0,0,0,0,0,0,0,0,0,0,0,0,0,0,0,0],"id":48,"left_children":[1,3,5,7,9,-1,11,13,15,17,19,21,-1,-1,-1,-1,-1,-1,-1,-1,-1,-1,-1],"loss_changes":[7.1522584E-3,7.672402E-3,5.3281784E-3,6.3920273E-3,3.9597303E-3,0E0,8.958195E-4,5.2325795E-3,1.1791177E-2,3.8319002E-3,5.022985E-3,6.2047096E-4,0E0,0E0,0E0,0E0,0E0,0E0,0E0,0E0,0E0,0E0,0E0],"parents":[2147483647,0,0,1,1,2,2,3,3,4,4,6,6,7,7,8,8,9,9,10,10,11,11],"right_children":[2,4,6,8,10,-1,12,14,16,18,20,22,-1,-1,-1,-1,-1,-1,-1,-1,-1,-1,-1],"split_conditions":[5.0157044E-2,3.709065E6,1.33E1,2.7570996E-4,2.1864666E-2,6.4624357E-4,1.1889144E6,-6.187E-3,1.9E1,1.4763E2,2.0176E7,6.095E-3,-0E0,-1.0910972E-5,5.4709733E-5,9.931506E-6,-8.684617E-5,-7.096847E-5,9.77196E-5,-1.961E-4,-0E0,1.01469945E-4,-0E0],"split_indices":[58,47,0,55,58,0,17,34,39,7,47,12,0,0,0,0,0,0,0,0,0,0,0],"split_type":[0,0,0,0,0,0,0,0,0,0,0,0,0,0,0,0,0,0,0,0,0,0,0],"sum_hessian":[1.1157E4,1.0929E4,2.28E2,9.946E3,9.83E2,2.4E1,2.04E2,4.393E3,5.553E3,5.44E2,4.39E2,1.94E2,1E1,1.135E3,3.258E3,4.074E3,1.479E3,3.95E2,1.49E2,3.77E2,6.2E1,1.5E2,4.4E1],"tree_param":{"num_deleted":"0","num_feature":"176","num_nodes":"23","size_leaf_vector":"1"}},{"base_weights":[-0E0,7.6407706E-4,-7.05453E-4,4.0270918E-4,4.94509E-3,6.7727866E-5,-2.7289477E-3,-8.390232E-4,8.679179E-4,-0E0,1.1172589E-2,-3.109565E-4,1.5326871E-3,-0E0,-2.9510588E-3,6.149652E-5,-7.001633E-5,1.4402074E-4,1.1399038E-5,2.0647884E-5,-8.439516E-6,7.5503875E-4,-0E0,3.438841E-5,-2.5270236E-5,1.9251958E-4,-2.116145E-5,-0E0,-9.721143E-5],"categories":[],"categories_nodes":[],"categories_segments":[],"categories_sizes":[],"default_left":[0,0,0,0,0,0,0,0,0,0,0,0,0,0,0,0,0,0,0,0,0,0,0,0,0,0,0,0,0],"id":49,"left_children":[1,3,5,7,9,11,13,15,17,19,21,23,25,-1,27,-1,-1,-1,-1,-1,-1,-1,-1,-1,-1,-1,-1,-1,-1],"loss_changes":[6.049944E-3,5.749588E-3,1.0111982E-2,3.0475636E-3,1.0131735E-2,2.767011E-3,1.8609613E-3,5.070564E-3,5.2950643E-3,4.2222553E-5,1.6234605E-2,2.0321852E-3,1.4559212E-2,0E0,1.6265921E-3,0E0,0E0,0E0,0E0,0E0,0E0,0E0,0E0,0E0,0E0,0E0,0E0,0E0,0E0],"parents":[2147483647,0,0,1,1,2,2,3,3,4,4,5,5,6,6,7,7,8,8,9,9,10,10,11,11,12,12,14,14],"right_children":[2,4,6,8,10,12,14,16,18,20,22,24,26,-1,28,-1,-1,-1,-1,-1,-1,-1,-1,-1,-1,-1,-1,-1,-1],"split_conditions":[6.35E-4,1.4384E-2,1.9E1,-7.194E-3,1.8E2,2.4403E2,1.9157E1,-1.35E0,-7.0071965E-3,6.423E1,2.9473E2,1.40218E5,3.175E2,-0E0,-9.047106E-3,6.149652E-5,-7.001633E-5,1.4402074E-4,1.1399038E-5,2.0647884E-5,-8.439516E-6,7.5503875E-4,-0E0,3.438841E-5,-2.5270236E-5,1.9251958E-4,-2.116145E-5,-0E0,-9.721143E-5],"split_indices":[12,35,39,35,0,33,15,10,57,45,0,47,45,0,57,0,0,0,0,0,0,0,0,0,0,0,0,0,0],"split_type":[0,0,0,0,0,0,0,0,0,0,0,0,0,0,0,0,0,0,0,0,0,0,0,0,0,0,0,0,0],"sum_hessian":[1.1186E4,5.576E3,5.61E3,5.245E3,3.31E2,3.882E3,1.728E3,1.136E3,4.109E3,1.87E2,1.44E2,2.815E3,1.067E3,3.7E1,1.691E3,2.73E2,8.63E2,3.38E2,3.771E3,6.6E1,1.21E2,5.2E1,9.2E1,5E2,2.315E3,4.04E2,6.63E2,1.34E2,1.557E3],"tree_param":{"num_deleted":"0","num_feature":"176","num_nodes":"29","size_leaf_vector":"1"}},{"base_weights":[-0E0,-1.2023841E-4,5.8902637E-3,1.5686357E-3,-5.354231E-4,7.2992304E-3,-0E0,3.053912E-3,-0E0,-1.4828742E-3,3.1385676E-4,-0E0,8.165829E-3,-0E0,9.505778E-5,2.4725086E-5,-6.351732E-5,-4.4980584E-6,-1.0071737E-4,5.625319E-5,-7.222119E-5,-0E0,2.5686028E-4],"categories":[],"categories_nodes":[],"categories_segments":[],"categories_sizes":[],"default_left":[0,0,0,0,0,0,0,0,0,0,0,0,0,0,0,0,0,0,0,0,0,0,0],"id":50,"left_children":[1,3,5,7,9,11,-1,13,15,17,19,-1,21,-1,-1,-1,-1,-1,-1,-1,-1,-1,-1],"loss_changes":[8.155096E-3,7.141488E-3,3.7507238E-3,4.3050353E-3,7.830348E-3,1.1547608E-3,0E0,4.5949034E-4,1.597654E-3,9.574248E-3,1.8742407E-2,0E0,6.225994E-4,0E0,0E0,0E0,0E0,0E0,0E0,0E0,0E0,0E0,0E0],"parents":[2147483647,0,0,1,1,2,2,3,3,4,4,5,5,7,7,8,8,9,9,10,10,12,12],"right_children":[2,4,6,8,10,12,-1,14,16,18,20,-1,22,-1,-1,-1,-1,-1,-1,-1,-1,-1,-1],"split_conditions":[5.0157044E-2,1.1113763E-2,1.1889144E6,3.95122E4,1.4144E2,2.06658E4,-0E0,3.1102E3,1.4277E2,8.661E1,3.175E2,-0E0,2.92833E5,-0E0,9.505778E-5,2.4725086E-5,-6.351732E-5,-4.4980584E-6,-1.0071737E-4,5.625319E-5,-7.222119E-5,-0E0,2.5686028E-4],"split_indices":[58,58,17,17,46,17,0,17,33,1,45,0,47,0,0,0,0,0,0,0,0,0,0],"split_type":[0,0,0,0,0,0,0,0,0,0,0,0,0,0,0,0,0,0,0,0,0,0,0],"sum_hessian":[1.1144E4,1.0916E4,2.28E2,1.915E3,9.001E3,2.18E2,1E1,9.65E2,9.5E2,4.532E3,4.469E3,2.7E1,1.91E2,2.3E1,9.42E2,7.03E2,2.47E2,2.806E3,1.726E3,2.957E3,1.512E3,9E0,1.82E2],"tree_param":{"num_deleted":"0","num_feature":"176","num_nodes":"23","size_leaf_vector":"1"}},{"base_weights":[-0E0,9.848764E-4,-6.95863E-4,6.486195E-4,5.1321145E-3,-0E0,-2.165014E-3,9.770659E-4,-1.4053201E-3,-0E0,6.2847445E-3,-3.4406688E-4,2.2206428E-3,-0E0,-2.9664629E-3,8.975002E-6,8.7669694E-5,-1.1062432E-4,-0E0,-0E0,3.363359E-4,-0E0,-7.5273165E-5,-1.0890312E-5,1.9469377E-4,-0E0,2.6227493E-5,-0E0,-9.9322766E-5],"categories":[],"categories_nodes":[],"categories_segments":[],"categories_sizes":[],"default_left":[0,0,0,0,0,0,0,0,0,0,0,0,0,0,0,0,0,0,0,0,0,0,0,0,0,0,0,0,0],"id":51,"left_children":[1,3,5,7,9,11,13,15,17,-1,19,21,23,25,27,-1,-1,-1,-1,-1,-1,-1,-1,-1,-1,-1,-1,-1,-1],"loss_changes":[7.7291364E-3,3.8766707E-3,5.7792095E-3,2.898241E-3,2.256306E-3,2.818868E-3,4.461361E-3,3.9051203E-3,2.0063685E-3,0E0,2.8453022E-3,4.1333847E-3,8.347137E-3,2.3349754E-4,1.9295858E-3,0E0,0E0,0E0,0E0,0E0,0E0,0E0,0E0,0E0,0E0,0E0,0E0,0E0,0E0],"parents":[2147483647,0,0,1,1,2,2,3,3,4,4,5,5,6,6,7,7,8,8,10,10,11,11,12,12,13,13,14,14],"right_children":[2,4,6,8,10,12,14,16,18,-1,20,22,24,26,28,-1,-1,-1,-1,-1,-1,-1,-1,-1,-1,-1,-1,-1,-1],"split_conditions":[1.2314588E-5,3.8864773E-2,1.9E1,3.450532E6,3.89193E5,1.6651928E-2,1.0992766E-4,1.192312E6,-1.3618415E-3,-0E0,-1.1512374E-2,2.2090679E-2,1.2032E2,-2.81E-4,1.1516648E-2,8.975002E-6,8.7669694E-5,-1.1062432E-4,-0E0,-0E0,3.363359E-4,-0E0,-7.5273165E-5,-1.0890312E-5,1.9469377E-4,-0E0,2.6227493E-5,-0E0,-9.9322766E-5],"split_indices":[54,58,39,47,47,59,56,47,53,0,59,58,33,11,58,0,0,0,0,0,0,0,0,0,0,0,0,0,0],"split_type":[0,0,0,0,0,0,0,0,0,0,0,0,0,0,0,0,0,0,0,0,0,0,0,0,0,0,0,0,0],"sum_hessian":[1.1083E4,4.856E3,6.227E3,4.606E3,2.5E2,4.353E3,1.874E3,4.182E3,4.24E2,2.7E1,2.23E2,3.877E3,4.76E2,3.7E2,1.504E3,3.294E3,8.88E2,2.07E2,2.17E2,1.32E2,9.1E1,3.15E3,7.27E2,2.25E2,2.51E2,6.7E1,3.03E2,1.21E2,1.383E3],"tree_param":{"num_deleted":"0","num_feature":"176","num_nodes":"29","size_leaf_vector":"1"}},{"base_weights":[9.498618E-5,3.6159047E-4,-2.9215051E-3,-1.1014156E-5,1.567388E-3,-3.796403E-3,-0E0,1.6165287E-3,-4.7484454E-4,6.0645817E-3,-7.092531E-4,-8.3214056E-4,-6.583392E-3,1.0883068E-4,-0E0,-0E0,1.1565149E-4,-9.093321E-5,-0E0,9.212428E-5,4.8499048E-4,5.8948015E-5,-7.356639E-5,-1.01619946E-4,-0E0,-0E0,-2.233363E-4],"categories":[],"categories_nodes":[],"categories_segments":[],"categories_sizes":[],"default_left":[0,0,0,0,0,0,0,0,0,0,0,0,0,0,0,0,0,0,0,0,0,0,0,0,0,0,0],"id":52,"left_children":[1,3,5,7,9,11,13,15,17,19,21,23,25,-1,-1,-1,-1,-1,-1,-1,-1,-1,-1,-1,-1,-1,-1],"loss_changes":[7.6112095E-3,5.4101413E-3,3.502491E-3,5.139282E-3,3.0849405E-2,1.9334434E-3,6.777468E-4,4.3775835E-3,7.3240977E-3,2.045434E-2,8.433412E-3,2.0545651E-3,2.8193388E-3,0E0,0E0,0E0,0E0,0E0,0E0,0E0,0E0,0E0,0E0,0E0,0E0,0E0,0E0],"parents":[2147483647,0,0,1,1,2,2,3,3,4,4,5,5,6,6,7,7,8,8,9,9,10,10,11,11,12,12],"right_children":[2,4,6,8,10,12,14,16,18,20,22,24,26,-1,-1,-1,-1,-1,-1,-1,-1,-1,-1,-1,-1,-1,-1],"split_conditions":[3.61037E5,2.4383E2,4.6444103E-2,5.454E1,3.175E2,2.0028431E-2,1.4526E2,4.103E1,7.228E1,1.3339862E-2,-1.0197297E-3,4.676E1,-2.4935713E-2,1.0883068E-4,-0E0,-0E0,1.1565149E-4,-9.093321E-5,-0E0,9.212428E-5,4.8499048E-4,5.8948015E-5,-7.356639E-5,-1.01619946E-4,-0E0,-0E0,-2.233363E-4],"split_indices":[4,45,58,45,45,58,0,45,1,59,57,0,53,0,0,0,0,0,0,0,0,0,0,0,0,0,0],"split_type":[0,0,0,0,0,0,0,0,0,0,0,0,0,0,0,0,0,0,0,0,0,0,0,0,0,0,0],"sum_hessian":[1.105E4,1.0307E4,7.43E2,7.559E3,2.748E3,6.82E2,6.1E1,1.436E3,6.123E3,9.96E2,1.752E3,4.19E2,2.63E2,4.9E1,1.2E1,8.91E2,5.45E2,9.45E2,5.178E3,8.09E2,1.87E2,5.78E2,1.174E3,2.02E2,2.17E2,7E0,2.56E2],"tree_param":{"num_deleted":"0","num_feature":"176","num_nodes":"27","size_leaf_vector":"1"}},{"base_weights":[-0E0,5.8895006E-4,-1.0374442E-3,2.797404E-4,5.635639E-3,-0E0,-2.724835E-3,-1.1580073E-3,6.8804977E-4,-0E0,1.0456587E-2,-1.2028943E-3,7.2513346E-4,-0E0,-2.9661118E-3,-6.964425E-5,2.6627786E-5,3.327612E-5,-3.2039727E-5,-0E0,7.103112E-5,4.8686564E-4,-0E0,-0E0,-1.1193283E-4,5.8163863E-5,-2.2061935E-5,-9.497016E-5,-0E0],"categories":[],"categories_nodes":[],"categories_segments":[],"categories_sizes":[],"default_left":[0,0,0,0,0,0,0,0,0,0,0,0,0,0,0,0,0,0,0,0,0,0,0,0,0,0,0,0,0],"id":53,"left_children":[1,3,5,7,9,11,13,15,17,19,21,23,25,-1,27,-1,-1,-1,-1,-1,-1,-1,-1,-1,-1,-1,-1,-1,-1],"loss_changes":[6.8596117E-3,8.039009E-3,5.917101E-3,3.7228216E-3,4.968046E-3,2.5896106E-3,1.0924619E-3,3.62687E-3,4.106331E-3,7.315861E-4,5.7500564E-3,2.2744208E-3,3.1817248E-3,0E0,1.1479799E-3,0E0,0E0,0E0,0E0,0E0,0E0,0E0,0E0,0E0,0E0,0E0,0E0,0E0,0E0],"parents":[2147483647,0,0,1,1,2,2,3,3,4,4,5,5,6,6,7,7,8,8,9,9,10,10,11,11,12,12,14,14],"right_children":[2,4,6,8,10,12,14,16,18,20,22,24,26,-1,28,-1,-1,-1,-1,-1,-1,-1,-1,-1,-1,-1,-1,-1,-1],"split_conditions":[8.959236E-4,3.8864773E-2,1.4E1,-6.187E-3,-1.0022E-2,1.2916E2,1.1516648E-2,2.2849E2,3.1419E2,4.8442766E-2,2.1033E2,1.540145E6,3.175E2,-0E0,3.7265E-2,-6.964425E-5,2.6627786E-5,3.327612E-5,-3.2039727E-5,-0E0,7.103112E-5,4.8686564E-4,-0E0,-0E0,-1.1193283E-4,5.8163863E-5,-2.2061935E-5,-9.497016E-5,-0E0],"split_indices":[54,58,19,34,34,46,58,0,3,58,1,47,45,0,34,0,0,0,0,0,0,0,0,0,0,0,0,0,0],"split_type":[0,0,0,0,0,0,0,0,0,0,0,0,0,0,0,0,0,0,0,0,0,0,0,0,0,0,0,0,0],"sum_hessian":[1.1146E4,7.047E3,4.099E3,6.736E3,3.11E2,2.71E3,1.389E3,1.218E3,5.518E3,1.77E2,1.34E2,1.259E3,1.451E3,9.3E1,1.296E3,9.32E2,2.86E2,4.681E3,8.37E2,4.9E1,1.28E2,7.6E1,5.8E1,9.67E2,2.92E2,9.79E2,4.72E2,1.252E3,4.4E1],"tree_param":{"num_deleted":"0","num_feature":"176","num_nodes":"29","size_leaf_vector":"1"}},{"base_weights":[2.6817566E-5,-9.2857226E-5,3.3212476E-3,2.5616444E-4,-2.0753255E-3,2.0932203E-2,1.000068E-3,4.6273155E-4,-3.3241822E-3,-6.895676E-3,-7.656774E-4,-0E0,1.0898261E-3,5.2621437E-4,-0E0,1.8920292E-7,6.36312E-5,-1.2864241E-4,-0E0,-7.152498E-5,-6.43697E-4,1.2643194E-4,-5.2629952E-5,-2.5840144E-4,4.8340327E-5],"categories":[],"categories_nodes":[],"categories_segments":[],"categories_sizes":[],"default_left":[0,0,0,0,0,0,0,0,0,0,0,0,0,0,0,0,0,0,0,0,0,0,0,0,0],"id":54,"left_children":[1,3,5,7,9,11,13,15,17,19,21,-1,-1,-1,23,-1,-1,-1,-1,-1,-1,-1,-1,-1,-1],"loss_changes":[6.0237814E-3,8.277483E-3,1.0994435E-2,5.1113935E-3,7.573118E-3,1.1942444E-2,6.726639E-3,5.3642076E-3,2.1488583E-3,7.954835E-3,6.2058135E-3,0E0,0E0,0E0,6.091858E-3,0E0,0E0,0E0,0E0,0E0,0E0,0E0,0E0,0E0,0E0],"parents":[2147483647,0,0,1,1,2,2,3,3,4,4,5,5,6,6,7,7,8,8,9,9,10,10,14,14],"right_children":[2,4,6,8,10,12,14,16,18,20,22,-1,-1,-1,24,-1,-1,-1,-1,-1,-1,-1,-1,-1,-1],"split_conditions":[3.8864773E-2,2.4792306E-2,3.9517634E-2,4.312126E5,2.629118E-2,1.7476E2,1.334E1,1.913934E-2,2.6345E2,2.6108881E-2,1.7973E4,-0E0,1.0898261E-3,5.2621437E-4,4.595E1,1.8920292E-7,6.36312E-5,-1.2864241E-4,-0E0,-7.152498E-5,-6.43697E-4,1.2643194E-4,-5.2629952E-5,-2.5840144E-4,4.8340327E-5],"split_indices":[58,58,58,17,58,1,1,58,1,58,17,0,0,0,1,0,0,0,0,0,0,0,0,0,0],"split_type":[0,0,0,0,0,0,0,0,0,0,0,0,0,0,0,0,0,0,0,0,0,0,0,0,0],"sum_hessian":[1.118E4,1.0644E4,5.36E2,8.838E3,1.806E3,3.5E1,5.01E2,8.49E3,3.48E2,3.02E2,1.504E3,1.6E1,1.9E1,2.1E1,4.8E2,6.896E3,1.594E3,3.25E2,2.3E1,2.59E2,4.3E1,1.64E2,1.34E3,6.5E1,4.15E2],"tree_param":{"num_deleted":"0","num_feature":"176","num_nodes":"25","size_leaf_vector":"1"}},{"base_weights":[-0E0,2.500036E-4,-2.9445214E-3,2.9698049E-5,3.368492E-3,-3.6607268E-3,-0E0,1.7083898E-3,-2.8929862E-4,-0E0,7.8063663E-3,-5.982281E-4,-6.4003807E-3,9.8011056E-5,-0E0,8.466244E-5,-0E0,-0E0,-8.300436E-5,-5.9088812E-5,4.662345E-5,8.979804E-4,5.5252596E-5,-8.133771E-5,-0E0,-0E0,-2.6628873E-4],"categories":[],"categories_nodes":[],"categories_segments":[],"categories_sizes":[],"default_left":[0,0,0,0,0,0,0,0,0,0,0,0,0,0,0,0,0,0,0,0,0,0,0,0,0,0,0],"id":55,"left_children":[1,3,5,7,9,11,13,15,17,19,21,23,25,-1,-1,-1,-1,-1,-1,-1,-1,-1,-1,-1,-1,-1,-1],"loss_changes":[7.19647E-3,5.498223E-3,2.698265E-3,6.0322834E-3,9.486686E-3,2.276157E-3,5.4968626E-4,2.5414913E-3,6.6823936E-3,9.6178136E-4,1.7826527E-2,1.450484E-3,3.3263126E-3,0E0,0E0,0E0,0E0,0E0,0E0,0E0,0E0,0E0,0E0,0E0,0E0,0E0,0E0],"parents":[2147483647,0,0,1,1,2,2,3,3,4,4,5,5,6,6,7,7,8,8,9,9,10,10,11,11,12,12],"right_children":[2,4,6,8,10,12,14,16,18,20,22,24,26,-1,-1,-1,-1,-1,-1,-1,-1,-1,-1,-1,-1,-1,-1],"split_conditions":[3.61037E5,3.6795992E-2,4.6444103E-2,1.1113763E-2,1.7327E2,2.0028431E-2,1.4526E2,3.3815E4,4.1272E2,4.6444103E-2,1.7816E2,4.98E1,7.06E-4,9.8011056E-5,-0E0,8.466244E-5,-0E0,-0E0,-8.300436E-5,-5.9088812E-5,4.662345E-5,8.979804E-4,5.5252596E-5,-8.133771E-5,-0E0,-0E0,-2.6628873E-4],"split_indices":[4,58,58,58,8,58,0,4,33,58,33,45,34,0,0,0,0,0,0,0,0,0,0,0,0,0,0],"split_type":[0,0,0,0,0,0,0,0,0,0,0,0,0,0,0,0,0,0,0,0,0,0,0,0,0,0,0],"sum_hessian":[1.1226E4,1.0474E4,7.52E2,9.935E3,5.39E2,6.87E2,6.5E1,1.835E3,8.1E3,2.85E2,2.54E2,4.12E2,2.75E2,4.9E1,1.6E1,9.9E2,8.45E2,7.141E3,9.59E2,1.76E2,1.09E2,3.4E1,2.2E2,2.15E2,1.97E2,9.1E1,1.84E2],"tree_param":{"num_deleted":"0","num_feature":"176","num_nodes":"27","size_leaf_vector":"1"}},{"base_weights":[-0E0,-1.0396171E-4,4.687812E-3,8.8843124E-5,-2.8724158E-3,7.4116485E-3,-0E0,-1.922534E-3,3.403846E-4,-0E0,-5.4733497E-3,-0E0,2.8172907E-4,-1.6635036E-4,-0E0,1.4777691E-4,1.9888296E-6,-5.6168738E-5,6.215323E-5,-0E0,-1.9969647E-4],"categories":[],"categories_nodes":[],"categories_segments":[],"categories_sizes":[],"default_left":[0,0,0,0,0,0,0,0,0,0,0,0,0,0,0,0,0,0,0,0,0],"id":56,"left_children":[1,3,5,7,9,11,-1,13,15,17,19,-1,-1,-1,-1,-1,-1,-1,-1,-1,-1],"loss_changes":[6.237159E-3,7.168631E-3,4.289516E-3,4.2449646E-3,4.461419E-3,2.0692106E-3,0E0,6.3355593E-3,8.899526E-3,1.821572E-3,4.2165397E-3,0E0,0E0,0E0,0E0,0E0,0E0,0E0,0E0,0E0,0E0],"parents":[2147483647,0,0,1,1,2,2,3,3,4,4,5,5,7,7,8,8,9,9,10,10],"right_children":[2,4,6,8,10,12,-1,14,16,18,20,-1,-1,-1,-1,-1,-1,-1,-1,-1,-1],"split_conditions":[4.8442766E-2,4.005182E6,6.4E-1,-9.097E-3,2.1864666E-2,6.7111E5,-0E0,3.37224E4,-7.861161E-3,1.43E2,-1.7078E-2,-0E0,2.8172907E-4,-1.6635036E-4,-0E0,1.4777691E-4,1.9888296E-6,-5.6168738E-5,6.215323E-5,-0E0,-1.9969647E-4],"split_indices":[58,47,10,34,58,47,0,17,57,0,34,0,0,0,0,0,0,0,0,0,0],"split_type":[0,0,0,0,0,0,0,0,0,0,0,0,0,0,0,0,0,0,0,0,0],"sum_hessian":[1.1095E4,1.0819E4,2.76E2,9.948E3,8.71E2,1.87E2,8.9E1,8.83E2,9.065E3,4.84E2,3.87E2,4.8E1,1.39E2,3.1E2,5.73E2,4.06E2,8.659E3,3.5E2,1.34E2,3.1E1,3.56E2],"tree_param":{"num_deleted":"0","num_feature":"176","num_nodes":"21","size_leaf_vector":"1"}},{"base_weights":[-0E0,7.6894404E-4,-7.288803E-4,4.397865E-4,5.114889E-3,1.1768271E-3,-1.2593111E-3,8.505679E-4,-2.3453925E-3,-0E0,6.316276E-3,1.9661076E-3,-0E0,3.744855E-4,-1.5597965E-3,-0E0,6.369998E-5,-1.2850735E-4,-0E0,-0E0,3.2836825E-4,-0E0,7.5427255E-5,-1.0219372E-5,-0E0,4.2197622E-5,-0E0,-5.3054362E-5,7.67366E-6],"categories":[],"categories_nodes":[],"categories_segments":[],"categories_sizes":[],"default_left":[0,0,0,0,0,0,0,0,0,0,0,0,0,0,0,0,0,0,0,0,0,0,0,0,0,0,0,0,0],"id":57,"left_children":[1,3,5,7,9,11,13,15,17,-1,19,21,23,25,27,-1,-1,-1,-1,-1,-1,-1,-1,-1,-1,-1,-1,-1,-1],"loss_changes":[6.210219E-3,4.6062884E-3,6.049877E-3,4.8768204E-3,2.3656152E-3,1.519809E-3,2.9768548E-3,4.167127E-3,1.5770949E-3,0E0,2.0058993E-3,1.5322173E-3,2.9416016E-5,4.8915384E-4,2.4088258E-3,0E0,0E0,0E0,0E0,0E0,0E0,0E0,0E0,0E0,0E0,0E0,0E0,0E0,0E0],"parents":[2147483647,0,0,1,1,2,2,3,3,4,4,5,5,6,6,7,7,8,8,10,10,11,11,12,12,13,13,14,14],"right_children":[2,4,6,8,10,12,14,16,18,-1,20,22,24,26,28,-1,-1,-1,-1,-1,-1,-1,-1,-1,-1,-1,-1,-1,-1],"split_conditions":[1.3070522E-4,3.8864773E-2,1.40218E5,3.450532E6,3.89193E5,4.0554E2,1.087044E-2,5.63344E4,-1.3618415E-3,-0E0,